svm_type c_svc
kernel_type sigmoid
gamma 0.001
coef0 0
nr_class 2
total_sv 6305
rho -0.00839861
label 1 0
probA -0.932106
probB 0.00320293
nr_sv 3153 3152
SV
500 26:-0.0437564 31:0.00604107 99:0.140769 224:-0.0615045 467:-0.0362748 530:-0.22525 598:-0.253041 612:-0.0484469 642:-0.300812 830:0.0140759 834:-0.322515 848:0.105524 852:0.0852804 863:0.0451013 
500 26:-0.0705553 31:0.176097 99:-0.295188 224:-0.119415 467:0.180519 530:-0.0651752 598:-0.417859 612:0.0532088 642:-0.127371 830:0.111952 834:-0.126843 848:0.117893 852:-0.00249331 863:-0.127267 
500 26:-0.111869 31:0.0182309 99:-0.0597711 224:-0.33158 467:-0.194534 530:0.351591 598:-0.153594 612:0.261689 642:-0.534368 830:0.31964 834:0.0306043 848:-0.383156 852:-0.320138 863:-0.063258 
500 26:0.304468 31:0.00608118 99:0.0353467 224:0.350444 467:-0.185863 530:-0.315074 598:0.276021 612:-0.217612 642:-0.0169985 830:-0.324798 834:-0.102419 848:0.375694 852:0.475385 863:0.00607645 
500 26:0.273143 31:-0.00292086 99:-0.129524 224:0.401686 467:0.228214 530:-0.655836 598:0.0450532 612:-0.629952 642:0.436993 830:-0.695187 834:-0.610798 848:0.578957 852:0.461808 863:-0.127848 
500 26:0.0928507 31:0.171867 99:-0.190558 224:0.359862 467:-0.029771 530:0.0783525 598:0.325897 612:0.025111 642:-0.343339 830:0.1916 834:0.390925 848:-0.133671 852:0.119721 863:-0.177718 
500 26:0.134553 31:0.0323454 99:-0.00190778 224:0.129552 467:-0.244397 530:0.127264 598:-0.280997 612:0.247331 642:-0.0767834 830:0.18102 834:-0.000773689 848:0.215723 852:-0.07283 863:0.176895 
500 26:-0.105506 31:0.175836 99:-0.199277 224:-0.378837 467:0.0591145 530:0.0475889 598:-0.371646 612:-0.0538878 642:-0.359007 830:0.00952273 834:-0.310161 848:-0.204171 852:-0.293858 863:-0.0577384 
500 26:0.317545 31:0.023985 99:0.124916 224:0.347647 467:-0.311603 530:0.304649 598:-0.0287867 612:0.567517 642:-0.222222 830:0.51003 834:0.341719 848:0.242041 852:0.322816 863:0.195197 
500 26:0.0357173 31:0.18147 99:-0.0494667 224:-0.0881558 467:0.076458 530:-0.200346 598:0.248706 612:-0.391319 642:-0.0970182 830:-0.345199 834:-0.122046 848:-0.220793 852:-0.225917 863:-0.0942455 
500 26:0.186172 31:0.00944942 99:-0.0383696 224:0.299428 467:0.106809 530:-0.379099 598:-0.243925 612:-0.235821 642:0.252034 830:-0.29889 834:-0.26997 848:0.493877 852:0.317643 863:-0.122812 
500 26:-0.265193 31:0.182032 99:-0.147755 224:-0.262992 467:-0.138168 530:-0.22948 598:-0.139547 612:-0.331123 642:-0.103658 830:-0.208722 834:-0.459374 848:-0.194929 852:-0.149115 863:-0.229428 
500 26:0.104368 31:-0.159404 99:0.136013 224:0.0459887 467:-0.0145954 530:-0.221919 598:0.159284 612:-0.569316 642:-0.0631637 830:-0.45645 834:-0.319484 848:-0.114823 852:0.000370925 863:0.129349 
500 26:-0.128682 31:-0.144267 99:0.141562 224:-0.504505 467:-0.331114 530:0.100946 598:-0.212931 612:0.225794 642:-0.215898 830:0.0771215 834:0.100508 848:-0.29884 852:-0.431411 863:0.210691 
500 26:-0.176862 31:0.193881 99:-0.142207 224:-0.390265 467:-0.0839694 530:0.14386 598:-0.13464 612:0.248006 642:-0.310377 830:0.132767 834:-0.103702 848:-0.26051 852:-0.369755 863:-0.0925993 
500 26:0.114394 31:-0.146492 99:0.235887 224:0.227099 467:-0.159847 530:-0.122654 598:-0.0626983 612:0.0601006 642:0.456912 830:-0.115436 834:0.206588 848:0.340053 852:0.298508 863:0.245939 
500 26:-0.136315 31:0.186883 99:-0.380794 224:0.0408725 467:0.27374 530:-0.344359 598:0.00512503 612:-0.220745 642:-0.0514898 830:-0.190836 834:-0.483462 848:-0.177232 852:-0.103862 863:-0.276394 
500 26:0.0769899 31:-0.163053 99:-0.0288579 224:0.272286 467:0.217374 530:0.30437 598:-0.224728 612:0.339223 642:-0.296987 830:0.473273 834:0.412742 848:0.319874 852:0.228962 863:0.124313 
500 26:-0.0330621 31:-0.152888 99:0.159 224:-0.285261 467:-0.118656 530:0.151026 598:-0.113957 612:0.143542 642:-0.203251 830:0.0267982 834:0.148674 848:-0.220015 852:-0.36467 863:0.308011 
500 26:-0.0379689 31:-0.16612 99:-0.0859286 224:-0.0432619 467:0.111145 530:-0.164342 598:-0.0605105 612:-0.00967989 642:-0.180487 830:-0.158183 834:-0.38831 848:-0.190845 852:-0.18868 863:0.0961338 
500 26:-0.298534 31:0.00401613 99:0.0242496 224:-0.0187484 467:0.193527 530:0.0535728 598:-0.492142 612:-0.0429087 642:-0.284552 830:0.330859 834:-0.20943 848:-0.0356594 852:0.0143522 863:-0.0770087 
500 26:-0.056338 31:-0.151444 99:0.17406 224:-0.17267 467:0.0872978 530:0.0887641 598:-0.0201916 612:-0.190592 642:0.528457 830:-0.195841 834:0.0287351 848:0.016847 852:0.122961 863:0.206817 
500 26:0.122614 31:-0.153489 99:0.155037 224:0.323538 467:-0.0839695 530:-0.607121 598:0.304131 612:-0.222467 642:-0.172899 830:-0.379634 834:-0.337936 848:0.336786 852:0.326435 863:0.326216 
500 26:-0.191933 31:-0.146071 99:0.100344 224:-0.39688 467:0.00274809 530:-0.161758 598:-0.105859 612:-0.433767 642:0.252034 830:-0.355562 834:-0.25725 848:-0.371276 852:-0.3822 863:0.194132 
500 26:-0.0846466 31:-0.335214 99:0.205766 224:-0.104261 467:-0.00158775 530:-0.0276378 598:0.222035 612:0.0290871 642:0.382115 830:-0.10933 834:0.0561497 848:-0.202513 852:-0.242762 863:0.282156 
500 26:0.0800983 31:0.175596 99:-0.310248 224:0.257028 467:-0.203206 530:-0.312034 598:0.0120747 612:-0.426995 642:0.0377818 830:-0.402614 834:-0.339347 848:0.13442 852:0.0263474 863:0.0398722 
500 26:-0.0220697 31:0.0132788 99:0.0718085 224:0.105807 467:0.150168 530:-0.0431676 598:0.0947117 612:0.0807764 642:0.0243911 830:-0.00360127 834:0.221359 848:0.111358 852:0.233669 863:-0.0509599 
500 26:-0.0235839 31:-0.154291 99:0.052785 224:-0.159321 467:0.165344 530:-0.119496 598:-0.413484 612:-0.17767 642:0.252034 830:-0.169463 834:-0.333138 848:-0.0639739 852:-0.147305 863:0.149587 
500 26:0.0151674 31:0.179225 99:-0.179461 224:0.153273 467:0.366962 530:0.0434666 598:0.225369 612:0.0549317 642:-0.385365 830:0.23663 834:0.0986425 848:-0.0160571 852:0.119562 863:-0.308253 
500 26:0.119679 31:0.02196 99:-0.0272725 224:0.247717 467:-0.0926412 530:-0.0436995 598:-0.185947 612:0.29098 642:-0.00596129 830:0.125014 834:0.0554644 848:0.00572329 852:0.0388814 863:-0.0736195 
500 26:-0.376836 31:0.177801 99:-0.225435 224:-0.386157 467:-0.029771 530:0.268701 598:0.0532577 612:0.366588 642:-0.203251 830:0.365359 834:0.347834 848:-0.22784 852:-0.174442 863:-0.170649 
500 26:0.250024 31:0.00614131 99:0.0916247 224:0.127335 467:-0.0254351 530:0.0736366 598:-0.0741524 612:0.292094 642:0.0511725 830:0.134862 834:0.0853787 848:0.312187 852:0.168725 863:0.0822863 
500 26:0.128192 31:0.0165668 99:-0.0613564 224:-0.0131664 467:0.150168 530:-0.058543 598:0.00767749 612:0.102314 642:0.0813017 830:0.00686669 834:-0.0440851 848:0.133139 852:0.198691 863:-0.0220059 
500 26:-0.00538256 31:-0.151705 99:0.304847 224:-0.213964 467:-0.20971 530:0.0745166 598:0.00950069 612:-0.161347 642:0.180146 830:-0.0467228 834:-0.0462945 848:0.0133466 852:-0.107672 863:0.0812211 
500 26:0.0760833 31:0.203865 99:-0.139829 224:-0.0441348 467:-0.240061 530:-0.0589377 598:-0.0875851 612:-0.0516775 642:-0.117885 830:-0.0473087 834:-0.0485828 848:-0.00196774 852:-0.104508 863:-0.177621 
500 26:0.158178 31:0.0283156 99:0.166926 224:0.110232 467:-0.406992 530:-0.283451 598:-0.0326935 612:0.0936988 642:0.626018 830:-0.242913 834:-0.111765 848:0.312049 852:0.114094 863:-0.0143559 
500 26:-0.113584 31:0.171586 99:-0.0534299 224:-0.1178 467:-0.138168 530:0.302619 598:0.112642 612:0.514597 642:0.121952 830:0.293965 834:0.450236 848:-0.244518 852:-0.216164 863:-0.256058 
500 26:-0.0776936 31:0.0102313 99:-0.0756241 224:-0.127326 467:0.15884 530:0.128372 598:-0.0745588 612:0.241285 642:0.264015 830:0.246692 834:0.211259 848:0.0124866 852:-0.00967927 863:-0.0527998 
500 26:0.193512 31:0.188106 99:-0.0613564 224:0.334345 467:0.0374351 530:-0.248034 598:0.038672 612:0.104467 642:0.100272 830:-0.0851573 834:0.0238804 848:0.433981 852:0.459869 863:-0.0333358 
500 26:-0.224524 31:0.19763 99:-0.129524 224:-0.105644 467:0.0461069 530:-0.335442 598:-0.0291084 612:-0.141184 642:-0.122907 830:-0.0642031 834:-0.466341 848:0.0229555 852:0.228962 863:-0.153315 
500 26:-0.0326046 31:0.171365 99:-0.193729 224:0.0511512 467:0.0222595 530:0.0983617 598:0.0254123 612:0.343922 642:0.169254 830:0.0978112 834:0.266121 848:0.158879 852:0.111475 863:-0.0755562 
500 26:-0.258199 31:0.158394 99:-0.501276 224:-0.619723 467:0.698656 530:0.315517 598:-0.111475 612:0.118783 642:0.225252 830:0.0646654 834:0.220839 848:-0.517071 852:-0.63078 863:-0.400053 
500 26:-0.151716 31:-0.170611 99:0.204974 224:-0.0391946 467:0.161008 530:0.0696067 598:-0.239578 612:0.21 642:0.234523 830:0.160088 834:0.248843 848:-0.0708431 852:-0.0187251 863:0.184061 
500 26:0.374498 31:0.191755 99:-0.193729 224:0.48316 467:0.143664 530:0.101577 598:0.199114 612:0.315101 642:-0.537127 830:0.23188 834:0.333723 848:-0.0117009 852:0.103012 863:-0.235335 
500 26:-0.440454 31:0.00840687 99:0.0290055 224:-0.611585 467:0.27374 530:0.485613 598:-0.460158 612:0.394358 642:-0.0514898 830:0.450363 834:0.0714563 848:-0.550767 852:-0.575533 863:-0.0623865 
500 26:0.00110692 31:0.0202558 99:0.0408953 224:0.086379 467:-0.118656 530:0.0984524 598:0.181074 612:0.0576522 642:0.132222 830:0.0292086 834:0.0471318 848:-0.163763 852:-0.0782742 863:0.0970053 
500 26:-0.337411 31:-0.000996162 99:-0.0233093 224:-0.130057 467:0.438504 530:0.205166 598:-0.318677 612:-0.151825 642:0.320326 830:0.23188 834:0.120232 848:-0.275789 852:-0.13903 863:-0.193212 
500 26:-0.260789 31:-0.00171789 99:-0.100196 224:-0.232529 467:-0.00158777 530:0.174035 598:-0.0967663 612:0.263535 642:0.317074 830:-0.00627965 834:0.158955 848:-0.330862 852:-0.380185 863:-0.0619023 
500 26:0.131678 31:0.0154842 99:0.133635 224:0.199664 467:0.102473 530:0.0618631 598:-0.0110104 612:0.313378 642:-0.0752025 830:0.180896 834:0.317232 848:0.317592 852:0.18059 863:-0.00612484 
500 26:-0.134708 31:-0.146392 99:0.205766 224:-0.146229 467:-0.326779 530:0.0785059 598:0.132711 612:-0.015801 642:-0.0235337 830:0.0582689 834:0.102683 848:-0.187836 852:-0.0570425 863:0.274118 
500 26:-0.00606003 31:0.0135995 99:-0.048674 224:0.10201 467:0.0330992 530:0.10459 598:-0.599731 612:0.0111946 642:0.0243911 830:0.0203392 834:-0.216152 848:0.101306 852:-0.111818 863:0.0968117 
500 26:0.142137 31:0.18129 99:-0.165193 224:0.3676 467:0.0114199 530:-0.265405 598:0.166297 612:0.119543 642:0.252033 830:0.00983518 834:0.0278784 848:0.297853 852:0.374534 863:-0.211611 
500 26:-0.0454149 31:0.194663 99:-0.141414 224:-0.0341017 467:0.0807939 530:0.0949164 598:0.142761 612:0.0784269 642:0.252034 830:-0.101349 834:0.253037 848:-0.0178391 852:-0.0859948 863:-0.263224 
500 26:0.187338 31:0.0100509 99:-0.127146 224:0.417825 467:0.340947 530:-0.207257 598:0.130476 612:-0.311454 642:0.278815 830:-0.151163 834:-0.00351742 848:0.120968 852:0.232613 863:-0.1293 
500 26:-0.144535 31:0.0143013 99:0.124123 224:0.0565023 467:-0.456855 530:-0.473214 598:0.241413 612:-0.629952 642:-0.203251 830:-0.277517 834:-0.577814 848:0.0100796 852:0.282992 863:-0.0117413 
500 26:-0.00185971 31:-0.141861 99:0.130465 224:0.20249 467:-0.103481 530:-0.205399 598:0.015335 612:-0.281049 642:-0.233604 830:-0.132654 834:-0.227592 848:0.208281 852:0.142318 863:0.226862 
500 26:-0.1644 31:-0.142362 99:0.123331 224:-0.194127 467:0.0135879 530:0.191481 598:-0.263981 612:0.197077 642:0.087625 830:0.241379 834:0.240437 848:-0.0465497 852:-0.0693826 863:0.207398 
500 26:-0.179079 31:0.181149 99:-0.109708 224:0.0153772 467:0.0894656 530:-0.0948622 598:-0.0160242 612:-0.101572 642:-0.0261962 830:0.107796 834:-0.220662 848:-0.112798 852:-0.00559633 863:-0.227395 
500 26:0.0601204 31:0.161321 99:-0.148548 224:0.265758 467:0.349618 530:-0.16908 598:0.064197 612:-0.213207 642:0.237806 830:-0.163081 834:-0.105554 848:0.250209 852:0.306653 863:-0.347859 
500 26:0.0985415 31:-0.144247 99:0.0401026 224:-0.0502454 467:-0.142504 530:-0.0146441 598:0.00950068 612:-0.0897983 642:-0.317073 830:-0.0691274 834:-0.265973 848:0.132594 852:0.0781878 863:0.228896 
500 26:-0.360603 31:0.00782544 99:-0.116049 224:-0.604823 467:-0.0492824 530:0.15674 598:-0.141218 612:-0.00824409 642:-0.000902555 830:-0.0703147 834:-0.191344 848:-0.464008 852:-0.450375 863:0.0785096 
500 26:0.17076 31:0.181911 99:-0.261104 224:0.282967 467:0.174015 530:-0.243929 598:-0.320865 612:-0.474884 642:0.525204 830:-0.288204 834:-0.19161 848:0.313917 852:0.245755 863:-0.157964 
500 26:-0.5794 31:-0.001357 99:-0.14934 224:-0.595662 467:0.429832 530:0.333351 598:-0.276207 612:0.238885 642:0.399332 830:0.238586 834:0.323846 848:-0.467104 852:-0.623479 863:-0.223521 
500 26:-0.0914214 31:0.0335083 99:0.0900395 224:-0.104425 467:-0.192366 530:-0.210258 598:-0.0780133 612:-0.102124 642:-0.0631637 830:-0.111189 834:-0.267818 848:-0.106027 852:-0.021112 863:0.0280582 
500 26:0.131617 31:0.0166069 99:-0.066905 224:0.392264 467:0.390809 530:-0.00538008 598:0.22707 612:-0.0771632 642:-0.228545 830:0.144408 834:0.0511999 848:0.386336 852:0.427115 863:-0.162418 
500 26:-0.285952 31:-0.145991 99:0.309603 224:-0.652963 467:-0.33545 530:0.268781 598:-0.464013 612:0.141696 642:-0.219512 830:0.194731 834:-0.291674 848:-0.684405 852:-0.706011 863:0.202556 
500 26:-0.286476 31:0.171967 99:-0.0478814 224:-0.213526 467:-0.103481 530:-0.521218 598:-0.344202 612:-0.203515 642:-0.241192 830:-0.273658 834:-0.781711 848:-0.222154 852:-0.124549 863:-0.234658 
500 26:0.254027 31:0.0190529 99:0.10827 224:0.337746 467:-0.315939 530:0.0639087 598:0.462982 612:0.137165 642:0.479676 830:-0.0252473 834:0.429675 848:0.288077 852:0.354082 863:0.0850945 
500 26:-0.138468 31:-0.164977 99:0.300884 224:-0.131498 467:-0.311603 530:-0.0843349 598:-0.175251 612:-0.0742915 642:-0.266485 830:-0.0554722 834:-0.295291 848:-0.0810353 852:-0.252121 863:0.171763 
500 26:-0.0840176 31:0.00343471 99:0.102722 224:0.0247203 467:0.0200916 530:0.145612 598:-0.256167 612:0.0992369 642:-0.154471 830:0.168015 834:0.242912 848:0.159198 852:0.0210015 863:-0.0176483 
500 26:-0.0576748 31:0.186021 99:-0.151718 224:-0.307886 467:-0.179359 530:0.103314 598:-0.272185 612:-0.124366 642:0.0813017 830:-0.0127997 834:-0.105554 848:-0.269459 852:-0.424515 863:-0.0824316 
500 26:0.179567 31:-0.00644949 99:-0.0161755 224:0.0747319 467:0.187023 530:-0.0911298 598:-0.0959139 612:0.292233 642:-0.575757 830:0.214393 834:0.093845 848:-0.00892868 852:0.0832654 863:-0.0696492 
500 26:0.180301 31:-0.152948 99:0.14711 224:0.304416 467:-0.0709618 530:0.255697 598:0.197291 612:0.263843 642:0.422765 830:0.122639 834:0.597589 848:0.376807 852:0.23748 863:0.197037 
500 26:0.0386531 31:0.169541 99:-0.0581858 224:0.109196 467:0.000580197 530:0.418775 598:-0.328622 612:0.600019 642:-0.389504 830:0.531754 834:0.453662 848:-0.139611 852:-0.291928 863:-0.190307 
500 26:0.130639 31:-0.301291 99:0.267593 224:-0.0356133 467:-0.389649 530:0.199902 598:0.129832 612:0.0779047 642:-0.304426 830:0.110765 834:0.225778 848:-0.187215 852:-0.219366 863:0.401457 
500 26:-0.273304 31:0.198893 99:-0.0455034 224:-0.556312 467:-0.170687 530:0.255032 598:-0.51328 612:0.0658137 642:-0.251176 830:0.14545 834:-0.138458 848:-0.364085 852:-0.484944 863:-0.0413731 
500 26:0.164155 31:-0.335454 99:0.323078 224:0.218785 467:0.0396031 530:0.296754 598:0.133479 612:0.311224 642:-0.336043 830:0.324498 834:0.391694 848:0.26246 852:0.0978412 863:0.333963 
500 26:-0.161464 31:-0.161108 99:0.0297982 224:-0.111545 467:0.189191 530:0.434661 598:-0.273704 612:0.355017 642:-0.165311 830:0.516462 834:0.361709 848:-0.188122 852:-0.188334 863:0.231704 
500 26:0.28205 31:0.16485 99:0.0139452 224:0.150008 467:0.0829619 530:0.0639087 598:0.00552278 612:-0.0930876 642:0.231339 830:-0.20012 834:0.117833 848:0.136604 852:0.173537 863:-0.246665 
500 26:-0.282178 31:0.175415 99:-0.221471 224:-0.207588 467:-0.101313 530:0.202459 598:-0.160839 612:0.283841 642:-0.121951 830:0.444087 834:0.0630035 848:-0.133671 852:-0.131937 863:-0.0747815 
500 26:-0.230515 31:0.18544 99:-0.0621491 224:-0.500556 467:-0.305099 530:-0.143025 598:-0.437641 612:-0.20513 642:0.180895 830:-0.156402 834:-0.474367 848:-0.199013 852:-0.379909 863:0.0244753 
500 26:-0.0127991 31:0.181992 99:-0.147755 224:0.30691 467:0.113313 530:-0.176809 598:0.412526 612:-0.102857 642:-0.0355149 830:-0.0232872 834:-0.0159941 848:0.242041 852:0.305531 863:-0.281236 
500 26:0.433086 31:-0.322723 99:0.430878 224:0.443017 467:0.0330992 530:-0.22119 598:0.30486 612:-0.0576771 642:-0.00812929 830:-0.235279 834:-0.0929175 848:0.149863 852:0.23157 863:0.351296 
500 26:-0.330569 31:-0.165699 99:0.204181 224:-0.193445 467:0.321435 530:-0.367681 598:0.0498918 612:-0.139897 642:0.111946 830:-0.174213 834:-0.304722 848:-0.127389 852:-0.111819 863:0.0699881 
500 26:0.0351302 31:0.0102915 99:0.0924174 224:-0.0721935 467:-0.122992 530:0.095261 598:0.339866 612:-0.115643 642:-0.203251 830:-0.015694 834:-0.0572784 848:-0.316627 852:-0.241432 863:0.0279614 
500 26:0.00274709 31:0.158574 99:-0.14617 224:-0.0576126 467:0.317099 530:0.107505 598:0.0566237 612:0.0728242 642:-0.238273 830:0.101174 834:0.154737 848:-0.214092 852:-0.00201603 863:-0.353863 
500 26:-0.12538 31:-0.152026 99:0.217656 224:-0.212487 467:-0.313771 530:0.166083 598:-0.0957896 612:0.132466 642:0.067074 830:0.145274 834:0.0983426 848:-0.232704 852:-0.244147 863:0.247779 
500 26:-0.105506 31:-0.326412 99:0.365089 224:-0.15358 467:-0.144672 530:0.169262 598:-0.00546879 612:-0.0729313 642:-0.047496 830:0.0235841 834:0.0749072 848:-0.152586 852:-0.256294 863:0.322052 
500 26:-0.0472164 31:0.024386 99:-0.112086 224:-0.0913149 467:0.00708391 530:0.334652 598:-0.0196707 612:0.244459 642:-0.184281 830:0.228021 834:0.277752 848:0.164448 852:-0.137478 863:0.104365 
500 26:0.0900279 31:-0.314182 99:0.30564 224:0.0691391 467:-0.177191 530:-0.205399 598:0.118893 612:-0.451193 642:0.0243911 830:-0.392399 834:-0.215998 848:-0.0737751 852:0.0254343 863:0.44513 
500 26:0.230522 31:0.186282 99:-0.323723 224:0.143012 467:0.182687 530:0.222762 598:-0.131147 612:0.608746 642:0.0894318 830:0.330859 834:0.344004 848:0.272378 852:0.176157 863:-0.191856 
500 26:0.548585 31:0.184437 99:-0.035199 224:0.585252 467:-0.361466 530:-0.1056 598:0.127645 612:-0.231944 642:-0.0894302 830:-0.177775 834:0.235373 848:0.250209 852:0.27058 863:-0.122618 
500 26:0.175714 31:0.165952 99:-0.305492 224:0.0631116 467:0.130656 530:0.182664 598:0.293921 612:-0.237436 642:-0.445121 830:-0.125232 834:0.108837 848:-0.093854 852:-0.180146 863:-0.255574 
500 26:-0.338952 31:0.000627843 99:-0.123183 224:-0.453168 467:0.236886 530:0.271488 598:0.027277 612:0.0468553 642:0.15244 830:0.00612453 834:0.273754 848:-0.333779 852:-0.238329 863:-0.100734 
500 26:-0.0631181 31:0.00900833 99:0.0773571 224:0.0741272 467:-0.112153 530:-0.154868 598:0.128617 612:-0.181978 642:-0.102077 830:-0.144528 834:-0.135372 848:0.00608644 852:0.128871 863:0.0265088 
500 26:-0.0168995 31:0.0147624 99:-0.0613564 224:-0.31393 467:-0.0774656 530:0.0739796 598:-0.141966 612:-0.012662 642:-0.0106308 830:-0.0687163 834:-0.103593 848:-0.126132 852:-0.321874 863:-0.0247173 
500 26:-0.192974 31:0.0114744 99:-0.104159 224:-0.054236 467:0.102473 530:-0.179502 598:-0.0955161 612:-0.343076 642:0.274798 830:-0.277517 834:-0.376317 848:-0.159808 852:-0.117308 863:0.0330937 
500 26:0.21137 31:0.181871 99:-0.00507838 224:0.279752 467:-0.149008 530:-0.375941 598:0.0641969 612:0.102314 642:-0.127371 830:-0.135622 834:-0.271303 848:0.32281 852:0.254719 863:-0.0896942 
500 26:-0.244826 31:0.187465 99:-0.179461 224:-0.280451 467:0.262901 530:0.0204118 598:-0.280389 612:-0.00967991 642:-0.27439 830:0.206499 834:-0.300455 848:-0.306213 852:-0.323665 863:-0.125524 
500 26:0.159996 31:0.187986 99:-0.222264 224:0.265896 467:0.0981374 530:0.229379 598:0.224639 612:0.0262154 642:-0.203251 830:0.136492 834:0.348383 848:0.121341 852:0.113356 863:-0.238047 
500 26:-0.227593 31:0.166093 99:-0.139036 224:-0.00773048 467:0.349618 530:-0.366224 598:0.0717703 612:-0.364547 642:0.111946 830:-0.257788 834:-0.166331 848:0.150312 852:0.198492 863:-0.30467 
500 26:-0.202075 31:0.00932912 99:-0.0906844 224:-0.28918 467:0.549069 530:0.238327 598:-0.0725437 612:0.0700078 642:-0.165311 830:0.131544 834:0.0998419 848:-0.375978 852:-0.264188 863:-0.173748 
500 26:-0.359985 31:0.172749 99:-0.22702 224:-0.101598 467:0.076458 530:0.16627 598:-0.188557 612:0.0209256 642:-0.359007 830:0.354496 834:0.0446068 848:-0.251458 852:-0.0129459 863:0.0223449 
500 26:0.15 31:0.0226417 99:0.0496144 224:-0.0892959 467:0.189191 530:0.117188 598:-0.213973 612:0.114005 642:0.138212 830:0.0191648 834:0.138394 848:0.0308488 852:-0.145236 863:-0.0490232 
500 26:0.0844501 31:-0.158 99:0.175646 224:0.227099 467:0.0265955 530:0.0687322 598:0.256728 612:-0.193177 642:-0.203251 830:-0.0370674 834:-0.0668735 848:0.0247812 852:0.0161254 863:0.133706 
500 26:0.319307 31:0.170283 99:-0.116049 224:0.221113 467:0.0547786 530:-0.551537 598:0.250164 612:-0.236251 642:0.206505 830:-0.513811 834:-0.36992 848:0.359655 852:0.353329 863:-0.0746847 
500 26:0.375085 31:0.0139003 99:0.159793 224:0.144295 467:-0.285588 530:0.186217 598:-0.172091 612:0.440017 642:-0.317073 830:0.165979 834:0.0722559 848:-0.112435 852:-0.173163 863:0.0099499 
500 26:-0.197107 31:0.00151 99:-0.0256872 224:-0.0322878 467:0.36913 530:-0.0455458 598:-0.675465 612:-0.104112 642:-0.150719 830:0.171048 834:-0.310258 848:0.0987929 852:0.0624331 863:-0.138596 
500 26:-0.130444 31:-0.175984 99:0.124123 224:0.0255754 467:0.269405 530:-0.304566 598:-0.113019 612:-0.343076 642:-0.203251 830:-0.192024 834:-0.405102 848:0.222439 852:0.298507 863:0.204203 
500 26:0.131128 31:-0.33784 99:0.342894 224:0.402933 467:-0.0579541 530:-0.0731496 598:-0.228428 612:0.187386 642:-0.146341 830:0.22431 834:-0.0081033 848:0.299215 852:0.260107 863:0.263563 
500 26:0.152656 31:0.178603 99:-0.0502593 224:0.0275707 467:0.0981374 530:0.183059 598:-0.178898 612:0.306199 642:0.0496847 830:0.221589 834:0.227111 848:0.0932081 852:0.025435 863:-0.0964728 
500 26:0.058585 31:0.178443 99:-0.165986 224:0.030196 467:-0.116489 530:0.129369 598:-0.380858 612:0.239925 642:-0.143345 830:0.17076 834:0.0799573 848:0.0210841 852:0.0197183 863:-0.180042 
500 26:0.165661 31:-0.156035 99:0.250947 224:-0.160406 467:-0.109985 530:0.038613 598:-0.0757103 612:0.0141244 642:-0.0714584 830:-0.0654713 834:-0.0715448 848:-0.185257 852:-0.249762 863:0.138838 
500 26:0.244519 31:0.0111737 99:0.101929 224:0.402933 467:-0.322443 530:-0.474635 598:0.194101 612:0.197077 642:0.422765 830:-0.179779 834:-0.259975 848:0.711681 852:0.527749 863:0.0326095 
500 26:0.304628 31:-0.00221912 99:0.0511997 224:0.130328 467:-0.0167634 530:-0.152973 598:0.0685727 612:0.0445938 642:-0.430894 830:-0.0370674 834:-0.0380881 848:-0.0960999 852:0.0161255 863:0.0555596 
500 26:-0.0626288 31:-0.169047 99:0.205766 224:-0.028131 467:-0.144672 530:-0.503848 598:0.155357 612:-0.302586 642:0.195123 830:-0.482938 834:-0.301954 848:0.25157 852:0.229722 863:0.25998 
500 26:-0.0531926 31:0.0165067 99:0.0155305 224:-0.0714809 467:-0.175023 530:0.00349294 598:-0.00456406 612:-0.321662 642:0.268294 830:-0.190752 834:-0.27454 848:-0.175676 852:-0.229463 863:0.0818021 
500 26:-0.152902 31:-0.155795 99:-0.019346 224:-0.100252 467:0.176183 530:-0.070781 598:0.12573 612:-0.386043 642:-0.402439 830:-0.106308 834:-0.318446 848:-0.244956 852:-0.114205 863:0.198586 
500 26:-0.283436 31:0.165892 99:-0.36177 224:-0.0415517 467:0.282412 530:0.255246 598:-0.285859 612:0.0807764 642:0.252034 830:0.281242 834:-0.0226674 848:-0.239851 852:-0.247195 863:-0.155543 
500 26:-0.116352 31:0.00580054 99:-0.15806 224:-0.00834443 467:-0.066626 530:0.0182011 598:-0.155317 612:-0.0157103 642:0.0395672 830:0.159448 834:-0.032491 848:0.0874 852:0.115425 863:-0.141501 
500 26:0.180056 31:0.0203762 99:0.0694306 224:0.238184 467:-0.300763 530:0.126211 598:0.00706972 612:0.34353 642:-0.114724 830:0.264138 834:0.153815 848:0.32644 852:0.17197 863:0.0916793 
500 26:0.0355447 31:0.00245229 99:-0.00983427 224:0.323342 467:-0.114321 530:-0.404551 598:0.304217 612:-0.28865 642:0.0511725 830:-0.206692 834:-0.282905 848:0.205527 852:0.442528 863:0.0552691 
500 26:0.136706 31:0.189851 99:-0.115257 224:0.0255753 467:0.280244 530:0.12558 598:-0.0765548 612:-0.0760145 642:-0.157723 830:0.0478322 834:-0.0644747 848:0.083044 852:0.0347442 863:-0.227879 
500 26:0.158528 31:0.0201355 99:-0.0423329 224:-0.0378303 467:0.150168 530:-0.208557 598:0.1116 612:-0.0958288 642:0.201446 830:-0.265247 834:-0.0714045 848:0.0777806 852:0.0392265 863:-0.0937613 
500 26:-0.103862 31:0.0180104 99:0.079735 224:0.0475235 467:-0.120824 530:-0.244446 598:-0.181439 612:-0.0460974 642:0.231339 830:-0.115922 834:-0.0239135 848:0.0445323 852:0.119938 863:0.0115961 
500 26:-0.0582253 31:0.00983037 99:0.11699 224:0.143962 467:0.0569466 530:-0.0422257 598:0.250164 612:0.0147289 642:-0.355013 830:0.105817 834:0.0671918 848:0.0850404 852:0.206449 863:-0.0506694 
500 26:-0.0837196 31:0.00245226 99:0.0353467 224:-0.208713 467:-0.0579541 530:-0.0940311 598:0.0498032 612:-0.411632 642:0.275996 830:-0.357948 834:-0.306373 848:-0.270372 852:-0.192599 863:0.0195367 
500 26:-0.115213 31:-0.168506 99:0.107478 224:0.0903634 467:0.0157557 530:0.149433 598:0.199972 612:-0.00739948 642:0.024391 830:0.12648 834:0.273048 848:-0.146163 852:0.0299981 863:0.0774445 
500 26:-0.264934 31:0.174633 99:-0.156474 224:-0.250595 467:-0.118657 530:-0.290856 598:-0.0651436 612:-0.375306 642:0.118126 830:-0.261173 834:-0.67941 848:-0.244175 852:-0.11603 863:0.089549 
500 26:-0.51326 31:-0.00516633 99:0.00522606 224:-0.299988 467:0.0938016 530:0.206745 598:-0.0634276 612:-0.0462931 642:0.726289 830:0.162714 834:0.193794 848:-0.317444 852:-0.103861 863:-0.0948266 
500 26:0.00342457 31:0.16505 99:-0.112879 224:-0.0683138 467:-0.116489 530:0.0240964 598:-0.00994683 612:0.067854 642:0.302621 830:-0.0515141 834:0.0991756 848:-0.236221 852:-0.309011 863:-0.102186 
500 26:-0.0901511 31:0.170323 99:-0.156474 224:-0.0547347 467:0.0872978 530:0.132922 598:0.24196 612:0.15508 642:-0.0182919 830:0.187575 834:0.227277 848:0.0113046 852:0.0390112 863:-0.313579 
500 26:0.349104 31:0.00219167 99:-0.0669049 224:0.544681 467:0.271573 530:0.0977875 598:0.146241 612:0.459831 642:-0.0894302 830:0.260675 834:0.363708 848:0.510212 852:0.37712 863:-0.04912 
500 26:-0.172718 31:-0.320438 99:0.352406 224:-0.101014 467:-0.0427786 530:-0.0432784 598:-0.0609967 612:-0.25664 642:-0.304426 830:-0.0534931 834:-0.0780678 848:-0.263446 852:-0.09007 863:0.289128 
500 26:-0.31734 31:-0.156416 99:0.154244 224:-0.557887 467:-0.0601221 530:0.0934658 598:-0.0780133 612:0.110702 642:-0.502781 830:0.242942 834:-0.0273567 848:-0.34603 852:-0.40655 863:0.107657 
500 26:0.112046 31:0.178403 99:-0.225435 224:0.0541745 467:0.187023 530:-0.187713 598:-0.0357149 612:-0.158717 642:0.160977 830:-0.203898 834:0.0506669 848:0.396682 852:0.202312 863:-0.239112 
500 26:0.0953489 31:0.00171047 99:-0.112086 224:0.245805 467:-0.114321 530:0.266751 598:0.274777 612:0.358606 642:-0.3313 830:0.38461 834:0.422178 848:0.380891 852:0.114649 863:0.0478127 
500 26:-0.117429 31:-0.482574 99:0.44039 224:-0.18526 467:-0.331114 530:0.0146218 598:-0.184975 612:-0.0139874 642:-0.038843 830:0.0464469 834:-0.00210634 848:-0.122781 852:-0.122825 863:0.441838 
500 26:-0.480967 31:0.0175693 99:-0.00428571 224:-0.42037 467:-0.0601221 530:0.157793 598:-0.169903 612:-0.146657 642:-0.271544 830:0.246129 834:-0.2108 848:-0.527353 852:-0.194886 863:-0.0864986 
500 26:0.114672 31:-0.151625 99:0.0718086 224:0.16304 467:-0.281252 530:0.177241 598:0.111984 612:0.0494908 642:-0.0355149 830:0.129513 834:0.304685 848:0.0864256 852:0.0180855 863:0.180865 
500 26:-0.155654 31:0.181851 99:-0.205618 224:-0.189416 467:-0.0883053 530:-0.189213 598:-0.00964295 612:0.00485773 642:0.422765 830:-0.151949 834:-0.104055 848:-0.0581205 852:-0.209237 863:-0.0344978 
500 26:0.0404145 31:0.0103115 99:0.0733939 224:-0.347543 467:0.219542 530:0.0611525 598:0.171402 612:0.0962831 642:0.138212 830:-0.0424107 834:0.0674583 848:-0.398304 852:-0.362453 863:-0.074491 
500 26:-0.0244647 31:-0.320798 99:0.280275 224:-0.227936 467:-0.0471145 530:0.167268 598:-0.265196 612:0.0305229 642:0.0370379 830:-0.037661 834:-0.142035 848:-0.135486 852:-0.209022 863:0.294938 
500 26:-0.326842 31:-0.144487 99:0.217656 224:-0.48821 467:-0.218382 530:0.180532 598:-0.484953 612:-0.0587847 642:-0.134959 830:0.187352 834:-0.222794 848:-0.435875 852:-0.377969 863:0.188999 
500 26:-0.212643 31:0.182072 99:-0.0272725 224:-0.392104 467:-0.112153 530:-0.0677017 598:0.0474234 612:0.0583777 642:0.26721 830:-0.11128 834:0.0586628 848:-0.163075 852:-0.273498 863:0.0110151 
500 26:-0.148645 31:0.00377551 99:-0.0835506 224:-0.175948 467:0.0569466 530:-0.10181 598:-0.267627 612:-0.162163 642:-0.385365 830:0.0407078 834:-0.237187 848:-0.0933774 852:-0.0707616 863:0.0898395 
500 26:0.0891472 31:-0.15365 99:0.166134 224:-0.233146 467:-0.122992 530:0.095261 598:-0.0138364 612:-0.0639537 642:-0.324661 830:-0.131466 834:-0.210001 848:-0.214259 852:-0.281772 863:0.275474 
500 26:-0.282256 31:-0.163193 99:0.200218 224:-0.367121 467:-0.0276031 530:-0.195135 598:-0.350127 612:-0.113058 642:0.0955293 830:-0.0695726 834:-0.402403 848:-0.223516 852:-0.244148 863:0.10359 
500 26:0.401346 31:0.183094 99:-0.249214 224:0.598947 467:0.0894656 530:-0.268563 598:0.323756 612:-0.274 642:-0.389504 830:-0.289175 834:0.0197008 848:0.221251 852:0.328692 863:-0.262643 
500 26:0.152345 31:0.183856 99:-0.108915 224:0.44658 467:0.258565 530:-0.00155198 598:0.570386 612:-0.114233 642:-0.534368 830:0.0524739 834:0.0873028 848:0.234616 852:0.373829 863:-0.236788 
500 26:0.160191 31:0.0157247 99:0.0575409 224:-0.0229765 467:-0.0796335 530:-0.173817 598:-0.169903 612:-0.231082 642:0.282386 830:-0.439004 834:-0.184414 848:0.0285931 852:-0.165923 863:0.0259278 
500 26:-0.0910518 31:-0.146171 99:0.116197 224:-0.0440782 467:-0.112153 530:0.298189 598:-0.133704 612:0.332174 642:0.0243911 830:0.368216 834:0.268302 848:-0.0312043 852:-0.0267537 863:0.16818 
500 26:-0.186188 31:0.0143815 99:-0.265067 224:-0.145549 467:-0.166351 530:0.257555 598:-0.246606 612:0.357466 642:-0.0693441 830:0.415649 834:0.120655 848:-0.13175 852:0.0281728 863:0.0123708 
500 26:0.289915 31:0.186883 99:-0.0970256 224:0.160198 467:0.0461069 530:0.0669487 598:0.179381 612:-0.159427 642:0.0511725 830:-0.115541 834:0.0825566 848:0.0777269 852:0.0774575 863:-0.0250079 
500 26:0.236813 31:0.0206969 99:-0.170742 224:0.765825 467:-0.246565 530:-0.22498 598:-0.0736376 612:-0.0406935 642:-0.134959 830:0.110765 834:0.151416 848:0.748436 852:0.692602 863:0.0217639 
500 26:0.00733885 31:-0.150221 99:0.311188 224:-0.197453 467:-0.19887 530:0.154635 598:0.177236 612:0.31625 642:0.0749783 830:0.129565 834:0.369705 848:-0.00661896 852:-0.0211118 863:0.125572 
500 26:-0.319797 31:0.0331073 99:0.113026 224:-0.406403 467:-0.309435 530:-0.171922 598:-0.0867647 612:-0.159579 642:-0.203251 830:-0.0851573 834:-0.083665 848:-0.326428 852:-0.166958 863:0.117341 
500 26:0.263235 31:-0.139655 99:0.063882 224:0.363443 467:-0.181527 530:-0.326989 598:0.419723 612:0.0613929 642:0.252034 830:-0.105937 834:-0.0260942 848:0.363194 852:0.467627 863:0.120633 
500 26:0.272776 31:0.00459753 99:0.0900394 224:0.27033 467:-0.214046 530:-0.00801192 598:0.0514345 612:0.354299 642:-0.0894302 830:0.0558472 834:0.079852 848:-0.0383821 852:0.017677 863:0.0782192 
500 26:-0.164711 31:-0.159644 99:-0.0550152 224:-0.232723 467:0.226046 530:0.0845805 598:0.0532577 612:0.325126 642:0.00369631 830:0.22087 834:0.35335 848:-0.164857 852:-0.139594 863:0.0411311 
500 26:-0.460207 31:-0.00548715 99:-0.0676976 224:-0.41923 467:0.520886 530:0.0278561 598:-0.118645 612:0.222922 642:-0.268292 830:0.330859 834:0.0424425 848:-0.231683 852:-0.176267 863:-0.169003 
500 26:-0.0280956 31:0.182633 99:-0.34671 224:-0.0900461 467:0.252061 530:0.102442 598:0.0336822 612:0.124304 642:0.0603346 830:0.0882665 834:0.0723821 848:-0.147427 852:-0.163201 863:-0.185755 
500 26:-0.21927 31:0.0203962 99:0.095588 224:-0.389301 467:-0.170687 530:-0.125091 598:-0.306175 612:-0.103828 642:0.284554 830:-0.178029 834:-0.269399 848:-0.137172 852:-0.295958 863:-0.0704239 
500 26:0.227272 31:0.0127575 99:0.082113 224:0.362612 467:0.171847 530:-0.0522266 598:-0.0761901 612:-0.00537242 642:-0.0135494 830:-0.0539879 834:-0.0160993 848:0.427175 852:0.203863 863:-0.0811727 
500 26:-0.221496 31:0.206291 99:-0.035199 224:-0.275559 467:-0.443847 530:0.072522 598:0.376386 612:0.164274 642:-0.0806747 830:0.106654 834:0.165808 848:-0.000475653 852:-0.0282726 863:-0.0203597 
500 26:0.0264586 31:-0.157118 99:0.250154 224:0.0467561 467:-0.109985 530:-0.262732 598:0.0280133 612:-0.0385066 642:0.322077 830:-0.28793 834:-0.033475 848:0.0761748 852:0.0600458 863:0.292517 
500 26:-0.54073 31:0.188447 99:-0.309455 224:-0.329442 467:0.21087 530:-0.119677 598:-0.0342563 612:-0.0226022 642:0.105692 830:0.13112 834:-0.255692 848:-0.404371 852:-0.282659 863:-0.280267 
500 26:-0.0365462 31:-0.160125 99:0.181987 224:-0.397578 467:-0.257404 530:0.180386 598:0.103747 612:0.166263 642:-0.0106308 830:0.0915835 834:0.298664 848:-0.449069 852:-0.372001 863:0.164887 
500 26:0.179567 31:0.179706 99:-0.183424 224:0.359009 467:0.0612825 530:0.0619947 598:-0.0962454 612:0.120979 642:-0.355013 830:0.212684 834:0.164476 848:0.344591 852:0.194382 863:-0.113419 
500 26:-0.379196 31:0.00479805 99:-0.0264799 224:-0.414717 467:-0.354962 530:0.174637 598:-0.0950299 612:0.0233438 642:0.517616 830:0.062279 834:0.0152181 848:-0.348753 852:-0.274532 863:-0.060934 
500 26:0.0711716 31:0.00371536 99:0.0282129 224:0.280818 467:-0.211878 530:-0.401207 598:0.425192 612:-0.112065 642:-0.0106309 830:-0.156402 834:-0.188473 848:0.303613 852:0.475385 863:0.0675672 
500 26:0.304899 31:-0.162511 99:0.188328 224:0.308445 467:-0.0861374 530:-0.0557492 598:0.238383 612:-0.00272171 642:0.199501 830:-0.207095 834:-0.000261185 848:0.429269 852:0.210428 863:0.243227 
500 26:0.174185 31:0.18536 99:-0.184217 224:0.27033 467:-0.06229 530:0.0798911 598:0.12254 612:-0.0269096 642:-0.0261962 830:-0.0683357 834:0.107172 848:0.105006 852:0.0237108 863:-0.0509599 
500 26:0.0394537 31:0.176839 99:-0.289639 224:0.596226 467:-0.205374 530:-0.163481 598:0.482872 612:0.0666793 642:-0.306725 830:0.238681 834:0.124375 848:0.579143 852:0.734917 863:-0.0835936 
500 26:0.243859 31:0.179064 99:-0.251592 224:0.304915 467:0.0721222 530:0.296122 598:0.337678 612:-0.0174333 642:-0.271544 830:0.139262 834:0.400889 848:0.101557 852:0.0968063 863:-0.256058 
500 26:-0.276201 31:0.00658238 99:-0.0684903 224:-0.474576 467:0.115481 530:0.236748 598:-0.572103 612:0.539519 642:-0.127371 830:0.428396 834:0.0298774 848:-0.502577 852:-0.504679 863:-0.0844651 
500 26:-0.377991 31:0.195184 99:-0.231776 224:-0.297814 467:-0.253069 530:0.0812677 598:-0.480241 612:0.025111 642:-0.150719 830:0.153237 834:-0.291806 848:-0.417654 852:-0.517608 863:-0.0694555 
500 26:0.531852 31:0.183816 99:-0.021724 224:0.80174 467:-0.142504 530:-0.342464 598:0.431756 612:-0.293971 642:0.115448 830:-0.284642 834:0.0194827 848:0.526276 852:0.596406 863:-0.128622 
500 26:-0.040611 31:0.191294 99:-0.100989 224:0.0937777 467:-0.222718 530:0.258568 598:0.236242 612:0.195903 642:-0.0169985 830:0.230585 834:0.211603 848:-0.237623 852:-0.1001 863:-0.245794 
500 26:0.198649 31:-0.155775 99:-0.021724 224:0.0857664 467:-0.142504 530:0.243064 598:0.233755 612:0.0269334 642:0.157182 830:0.0113194 834:0.349715 848:0.0705202 852:-0.0909311 863:0.201588 
500 26:0.154747 31:0.180488 99:-0.0526373 224:0.202611 467:-0.118656 530:-0.337469 598:0.37149 612:-0.264602 642:0.376202 830:-0.39928 834:-0.170021 848:0.230161 852:0.334334 863:0.00423658 
500 26:-0.104707 31:0.012136 99:-0.10733 224:-0.253986 467:-0.396153 530:0.149371 598:0.100661 612:-0.0297813 642:0.0623315 830:-0.144528 834:0.169806 848:-0.3424 852:-0.45727 863:0.159755 
500 26:-0.104115 31:0.194582 99:0.0575408 224:0.137311 467:-0.0709618 530:0.0904738 598:-0.137891 612:0.235844 642:0.132222 830:0.220444 834:0.217572 848:0.323718 852:0.196105 863:-0.251507 
500 26:-0.0766402 31:-0.167544 99:0.329419 224:-0.3733 467:-0.0362748 530:0.170713 598:-0.185417 612:0.125417 642:-0.244641 830:-0.0495351 834:-0.0588049 848:-0.335635 852:-0.464009 863:0.201588 
500 26:0.0108767 31:0.0166871 99:-0.0756241 224:-0.131285 467:0.256397 530:-0.246698 598:-0.34897 612:-0.283037 642:-0.0281418 830:-0.341363 834:-0.177402 848:-0.0972308 852:-0.145236 863:-0.0435035 
500 26:0.161072 31:0.183856 99:-0.175498 224:0.104389 467:-0.116489 530:-0.607753 598:0.28517 612:-0.505897 642:0.297562 830:-0.628396 834:-0.721741 848:0.326985 852:0.289198 863:-0.0866923 
500 26:0.205108 31:0.185901 99:-0.307077 224:0.21413 467:0.0547786 530:-0.389837 598:-0.167715 612:-0.381843 642:-0.0894302 830:-0.332732 834:-0.294758 848:0.330252 852:0.177487 863:-0.22081 
500 26:-0.127214 31:0.0157649 99:0.00601868 224:-0.169741 467:-0.0254351 530:-0.000116437 598:-0.239671 612:0.179848 642:0.302621 830:0.0523839 834:-0.0754025 848:-0.190845 852:-0.283152 863:0.00104098 
500 26:-0.476225 31:0.176217 99:-0.172327 224:-0.422903 467:0.0959695 530:-0.345817 598:-0.158795 612:-0.457985 642:-0.395872 830:-0.207095 834:-0.526148 848:-0.285715 852:-0.152397 863:-0.208996 
500 26:0.0427179 31:-0.00598838 99:0.0607115 224:0.00531559 467:0.0222596 530:-0.580495 598:0.309068 612:-0.366535 642:-0.0106309 830:-0.490702 834:-0.601802 848:0.194291 852:0.193718 863:0.0675672 
500 26:-0.102261 31:0.193219 99:-0.156474 224:-0.176492 467:0.291084 530:0.0621861 598:0.0970148 612:0.0948734 642:0.0450858 830:0.130195 834:0.172351 848:-0.155947 852:-0.159341 863:-0.261094 
500 26:-0.233332 31:0.172769 99:-0.276957 224:-0.426063 467:0.392977 530:0.27316 598:-0.316103 612:0.234324 642:-0.0693441 830:0.187248 834:0.00212679 848:-0.474791 852:-0.37158 863:-0.406832 
500 26:0.132229 31:0.0166872 99:-0.00111513 224:-0.085911 467:-0.0384427 530:-0.262641 598:-0.143649 612:-0.308509 642:0.522359 830:-0.51151 834:-0.285463 848:0.025598 852:-0.0889928 863:-0.0281066 
500 26:-0.0582253 31:0.166875 99:-0.295188 224:-0.0402689 467:0.195695 530:0.0207276 598:-0.241373 612:-0.0639537 642:-0.309485 830:0.127388 834:-0.297956 848:-0.195746 852:-0.180405 863:-0.22449 
500 26:-0.194736 31:0.194863 99:-0.00666366 224:-0.0854954 467:-0.112153 530:-0.254351 598:-0.254865 612:-0.427502 642:0.195123 830:-0.217256 834:-0.425891 848:-0.0479109 852:0.11077 863:-0.226136 
500 26:0.26712 31:-0.143906 99:0.0313835 224:0.286371 467:-0.0384427 530:0.115994 598:0.418757 612:-0.0226022 642:-0.0559533 830:-0.0149606 834:0.246238 848:-0.0433466 852:0.0738067 863:0.187256 
500 26:-0.426237 31:0.183796 99:-0.196899 224:-0.166257 467:0.236886 530:0.391951 598:0.161087 612:0.171233 642:-0.121951 830:0.413553 834:0.419394 848:-0.462711 852:-0.216164 863:-0.199506 
500 26:0.029846 31:-0.482394 99:0.499839 224:-0.13704 467:-0.120824 530:-0.0601221 598:0.0395836 612:-0.0969056 642:0.337399 830:-0.291098 834:0.0848495 848:-0.00809364 852:-0.100629 863:0.536156 
500 26:0.283491 31:-0.150422 99:0.140769 224:0.191184 467:-0.192366 530:0.0156745 598:-0.082389 612:0.409865 642:-0.24878 830:0.17726 834:0.295343 848:0.156008 852:0.0823251 863:0.250878 
500 26:0.0348786 31:0.00331439 99:-0.0169681 224:-0.123501 467:0.245557 530:0.313447 598:0.439257 612:-0.0373706 642:-0.317073 830:0.136209 834:0.328583 848:-0.234017 852:-0.251628 863:0.0227322 
500 26:-0.10275 31:-0.335294 99:0.138391 224:0.19329 467:0.455847 530:0.224115 598:-0.0573503 612:0.240152 642:0.0370378 830:0.459071 834:0.125829 848:0.139491 852:0.135768 863:0.296584 
500 26:-0.228496 31:0.161942 99:-0.195314 224:-0.120413 467:0.464519 530:0.184111 598:-0.0123778 612:0.115236 642:-0.165311 830:0.312624 834:0.0645265 848:-0.159082 852:-0.0917934 863:-0.287143 
500 26:0.332811 31:0.191475 99:-0.25397 224:-0.000363271 467:-0.122992 530:-0.0146441 598:0.429568 612:-0.180255 642:-0.226016 830:-0.220522 834:-0.189211 848:0.0215141 852:-0.0366272 863:-0.0893069 
500 26:0.227028 31:0.184518 99:-0.288054 224:0.547453 467:0.126321 530:-0.0159074 598:0.137125 612:0.0262155 642:-0.0135494 830:0.145397 834:0.0631938 848:0.280157 852:0.249548 863:-0.166776 
500 26:-0.0929357 31:0.165832 99:-0.36177 224:0.0381339 467:0.618443 530:0.257555 598:-0.0355433 612:0.143108 642:-0.497848 830:0.413553 834:0.218017 848:-0.104844 852:-0.0886497 863:-0.305445 
500 26:-0.227518 31:0.0152837 99:0.124916 224:-0.329363 467:-0.214046 530:0.0388346 598:-0.330832 612:-0.176234 642:0.555557 830:-0.11979 834:-0.0887291 848:-0.202643 852:-0.224538 863:0.0615634 
500 26:0.506605 31:0.179586 99:-0.216716 224:0.601547 467:0.189191 530:-0.504795 598:0.374142 612:-0.267265 642:0.100272 830:-0.414069 834:-0.202005 848:0.445688 852:0.54779 863:-0.281526 
500 26:-0.158039 31:0.189991 99:-0.234154 224:-0.043927 467:-0.207542 530:0.30307 598:0.0769594 612:0.15831 642:-0.0135494 830:0.26958 834:0.435671 848:-0.0996395 852:-0.0573148 863:-0.135207 
500 26:-0.265193 31:-0.144186 99:0.173268 224:-0.302898 467:-0.0319389 530:0.19806 598:-0.202447 612:0.108236 642:-0.27439 830:0.257706 834:0.141821 848:-0.343989 852:-0.151055 863:0.0567216 
500 26:-0.144409 31:0.19759 99:-0.137451 224:-0.256757 467:-0.0536183 530:-0.45264 598:-0.0217543 612:-0.404734 642:0.268294 830:-0.437562 834:-0.497284 848:-0.17451 852:-0.154102 863:-0.259641 
500 26:0.438643 31:0.168458 99:-0.139829 224:0.555489 467:0.100305 530:-0.334885 598:0.518176 612:-0.190592 642:0.0433613 830:-0.258815 834:-0.184014 848:0.548328 852:0.56072 863:-0.0286876 
500 26:0.369259 31:-0.150362 99:0.400758 224:0.377513 467:-0.0644579 530:-0.143207 598:0.420143 612:0.102645 642:-0.343339 830:-0.0974881 834:-0.0796055 848:0.231988 852:0.203266 863:0.146876 
500 26:0.429554 31:0.173571 99:-0.0986109 224:0.436604 467:0.000580173 530:0.0171322 598:-0.0729644 612:0.261689 642:0.164479 830:0.0532212 834:0.246998 848:0.382776 852:0.346487 863:-0.130365 
500 26:0.297205 31:-0.147936 99:0.220826 224:0.182205 467:-0.372305 530:0.00349293 598:0.231411 612:0.346607 642:0.0569114 830:0.0865925 834:0.0955583 848:0.547745 852:0.207188 863:0.219309 
500 26:0.0670316 31:0.010111 99:-0.150926 224:-0.0766274 467:0.156672 530:-0.307514 598:-0.0622122 612:-0.225052 642:-0.038843 830:-0.256342 834:-0.333938 848:0.107728 852:0.149558 863:-0.0774929 
500 26:-0.121729 31:-0.151605 99:-0.0859285 224:0.0112934 467:-0.331115 530:-0.0551355 598:-0.0688013 612:-0.0906144 642:-0.119383 830:0.00764784 834:-0.130883 848:0.00732831 852:0.0981124 863:0.228702 
500 26:-0.0340057 31:0.174593 99:-0.206411 224:-0.163852 467:0.0461069 530:0.144766 598:-0.177834 612:0.00970359 642:-0.317073 830:0.0228225 834:0.050367 848:-0.38789 852:-0.434212 863:-0.122618 
500 26:-0.37654 31:0.179345 99:-0.108915 224:-0.299513 467:-0.255237 530:0.489403 598:-0.326491 612:0.30784 642:-0.0569098 830:0.400831 834:0.282321 848:-0.291191 852:-0.287092 863:-0.0718764 
500 26:-0.0596931 31:0.0194338 99:0.112234 224:-0.0317336 467:-0.127328 530:0.0904184 598:-0.180113 612:0.0161648 642:-0.0135494 830:0.0850376 834:0.0565306 848:-0.152729 852:-0.172819 863:-0.0143559 
500 26:0.079486 31:0.0194739 99:-0.0455035 224:0.174496 467:-0.101313 530:-0.29957 598:0.196462 612:-0.278699 642:-0.182557 830:-0.161259 834:-0.281238 848:0.280652 852:0.444354 863:-0.0131939 
500 26:-0.0947119 31:0.0103116 99:0.00443339 224:0.0375471 467:0.245557 530:0.172682 598:0.0298164 612:-0.137057 642:0.495936 830:-0.0724351 834:0.230918 848:0.0681866 852:0.122961 863:-0.0840778 
500 26:0.155178 31:0.18528 99:-0.18818 224:0.0137572 467:0.117649 530:0.317403 598:0.0785021 612:0.245785 642:0.041902 830:0.150497 834:0.365092 848:0.162878 852:0.134043 863:-0.297407 
500 26:0.136922 31:-0.159504 99:0.150281 224:0.364668 467:-0.188031 530:0.117402 598:0.0290762 612:0.15695 642:-0.0594772 830:0.249504 834:0.284485 848:0.409693 852:0.49825 863:0.0775413 
500 26:-0.0385388 31:-0.15391 99:0.154244 224:-0.285806 467:0.0677863 530:-0.18162 598:-0.335407 612:-0.0210819 642:-0.163079 830:-0.128113 834:-0.566526 848:-0.148085 852:-0.283963 863:0.159464 
500 26:0.0190064 31:0.00594085 99:-0.175498 224:-0.00542824 467:0.000580125 530:0.0244203 598:-0.286701 612:-0.163754 642:0.18199 830:-0.0659761 834:0.0145006 848:0.274712 852:0.286811 863:-0.0566732 
500 26:0.101954 31:0.0134191 99:-0.0090416 224:0.292569 467:0.106809 530:0.0121216 598:0.492195 612:-0.0112952 642:-0.189024 830:0.0929536 834:0.212285 848:0.0266189 852:0.182529 863:-0.145181 
500 26:0.0988351 31:0.0111937 99:0.123331 224:-0.0771817 467:-0.140336 530:0.191481 598:-0.182544 612:0.500034 642:-0.203251 830:0.312624 834:0.445666 848:-0.0556248 852:-0.0245598 863:0.0704723 
500 26:0.0674764 31:-0.326472 99:0.334968 224:-0.217305 467:-0.172855 530:0.0535728 598:-0.553373 612:-0.0742915 642:-0.0376932 830:-0.145067 834:-0.207093 848:-0.124761 852:-0.243971 863:0.411528 
500 26:-0.095526 31:-0.152266 99:0.128879 224:-0.250008 467:0.0352672 530:0.00898659 598:-0.191267 612:0.0199655 642:-0.17647 830:-0.0516305 834:-0.240574 848:-0.191325 852:-0.287614 863:0.207205 
500 26:-0.272113 31:0.182573 99:-0.125561 224:-0.144166 467:0.0916336 530:-0.0668896 598:-0.204596 612:-0.092752 642:-0.0406496 830:-0.0953351 834:-0.110052 848:-0.147673 852:-0.0676586 863:-0.20764 
500 26:-0.34886 31:-0.151143 99:0.116197 224:-0.146304 467:-0.0406107 530:0.0928246 598:0.0454439 612:-0.0466008 642:-0.10569 830:0.100587 834:-0.103198 848:-0.290024 852:-0.129721 863:0.141744 
500 26:-0.40238 31:0.0160456 99:-0.0304431 224:-0.238723 467:-0.218382 530:-0.296258 598:-0.131868 612:-0.15779 642:0.164479 830:-0.172843 834:-0.568588 848:-0.288229 852:-0.22162 863:0.0255405 
500 26:-0.0229968 31:-0.156918 99:0.079735 224:0.056593 467:0.21087 530:0.201721 598:0.102982 612:-0.0930876 642:0.127865 830:-0.0284857 834:0.279205 848:0.00592151 852:0.0465923 863:0.165856 
500 26:0.5091 31:-0.326312 99:0.45228 224:0.356792 467:0.104641 530:0.143581 598:0.447071 612:0.246613 642:-0.677507 830:0.0424889 834:0.373703 848:-0.101001 852:-0.0340411 863:0.252524 
500 26:0.186026 31:0.194582 99:-0.259519 224:0.247717 467:-0.0948092 530:-0.588172 598:0.237037 612:-0.482637 642:0.1458 830:-0.50075 834:-0.440284 848:0.337875 852:0.342985 863:-0.138887 
500 26:0.175897 31:0.0180906 99:0.147903 224:0.109876 467:-0.287756 530:0.249381 598:0.226463 612:0.421064 642:-0.279132 830:0.371994 834:0.295742 848:0.157642 852:0.229723 863:0.019343 
500 26:-0.25022 31:0.0137199 99:0.11699 224:-0.201222 467:-0.0319389 530:-0.181397 598:-0.194699 612:0.0842224 642:0.418971 830:-0.11128 834:-0.187612 848:-0.160897 852:-0.184542 863:-0.0572542 
500 26:0.0265433 31:0.0105922 99:-0.0137975 224:-0.0603465 467:-0.250901 530:0.128185 598:-0.173732 612:0.108236 642:-0.217479 830:0.066237 834:-0.0785676 848:-0.199013 852:-0.321725 863:0.0428741 
500 26:-0.0927199 31:0.17736 99:-0.32293 224:0.146456 467:0.269405 530:-0.398049 598:0.149888 612:-0.332738 642:0.00542084 830:-0.22913 834:-0.210001 848:0.065075 852:0.196105 863:-0.158157 
500 26:0.179567 31:0.184879 99:-0.0732462 224:0.114637 467:-0.099145 530:-0.137641 598:-0.29282 612:-0.473709 642:0.231339 830:-0.237361 834:-0.375008 848:0.258376 852:0.213031 863:-0.178202 
500 26:-0.197285 31:-0.14976 99:0.162963 224:-0.315828 467:-0.500214 530:-0.247619 598:0.0325307 612:-0.374905 642:0.383826 830:-0.412319 834:-0.327836 848:-0.288427 852:-0.275893 863:0.327959 
500 26:0.0692462 31:-0.32964 99:0.346858 224:-0.161981 467:0.163176 530:0.329831 598:0.0647727 612:0.264409 642:-0.251176 830:0.320748 834:0.29711 848:-0.386439 852:-0.311823 863:0.240032 
500 26:0.353948 31:0.0105922 99:-0.118427 224:0.618174 467:0.0157557 530:-0.0677017 598:0.517082 612:0.30304 642:0.115448 830:0.0537692 834:0.34092 848:0.411928 852:0.4909 863:0.0174063 
500 26:0.0107638 31:-0.139936 99:0.125709 224:-0.0805072 467:-0.315939 530:-0.0474893 598:0.1116 612:0.0786226 642:-0.165311 830:0.0276463 834:-0.0700719 848:0.0963842 852:0.188347 863:0.272762 
500 26:0.0380659 31:-0.156116 99:0.269178 224:-0.005019 467:0.0591146 530:0.0283073 598:-0.0503005 612:0.0652696 642:0.312738 830:-0.0792203 834:0.0330758 848:0.242041 852:0.0264691 863:0.15685 
500 26:-0.443706 31:0.0217194 99:-0.131902 224:-0.547992 467:0.34745 530:0.339268 598:-0.318677 612:0.353139 642:-0.238273 830:0.421774 834:0.0274171 848:-0.529489 852:-0.431677 863:-0.130268 
500 26:0.0984488 31:0.18971 99:-0.051052 224:0.19822 467:0.00491607 530:-0.354333 598:0.215619 612:-0.202155 642:0.240052 830:-0.314827 834:-0.192747 848:0.0933036 852:0.225503 863:-0.177331 
500 26:-0.188478 31:0.166133 99:-0.420426 224:-0.221315 467:0.15884 530:0.0675354 598:0.16265 612:-0.173589 642:0.0483534 830:-0.0120381 834:-0.0765949 848:-0.199013 852:-0.197499 863:-0.151669 
500 26:0.404926 31:0.0021315 99:-0.0684903 224:0.472401 467:0.432 530:-0.144836 598:0.206407 612:-0.071251 642:0.265424 830:-0.138591 834:0.229306 848:0.526468 852:0.407847 863:-0.192147 
500 26:0.101658 31:0.173451 99:-0.292017 224:0.0198965 467:0.28458 530:-0.156325 598:-0.0376222 612:-0.165742 642:0.357099 830:-0.229016 834:-0.192164 848:0.175443 852:0.126882 863:-0.273973 
500 26:-0.268715 31:0.0243659 99:0.186743 224:-0.547071 467:-0.179359 530:0.436346 598:-0.119582 612:0.140219 642:-0.112194 830:0.141044 834:0.225778 848:-0.484881 852:-0.377969 863:-0.000992559 
500 26:0.108183 31:-0.164837 99:0.0836983 224:-0.0296625 467:0.416824 530:0.409617 598:-0.186254 612:0.403154 642:-0.239195 830:0.370432 834:0.319836 848:0.137151 852:-0.110938 863:-0.0351756 
500 26:0.0928864 31:0.0100308 99:0.137598 224:0.00919303 467:-0.101313 530:-0.029205 598:0.0313792 612:0.253527 642:0.347883 830:-0.0542223 834:0.0749072 848:0.0236636 852:-0.156668 863:-0.017842 
500 26:0.107852 31:0.00882787 99:-0.172327 224:0.114508 467:0.102473 530:-0.541972 598:0.273605 612:-0.624413 642:-0.268292 830:-0.45919 834:-0.558967 848:0.362222 852:0.433271 863:-0.0311085 
500 26:-0.0290517 31:-0.0081737 99:-0.0637344 224:-0.00672328 467:0.512214 530:0.297543 598:0.154446 612:0.0371635 642:-0.0752025 830:0.188688 834:0.233274 848:-0.00911459 852:0.00216171 863:-0.234367 
500 26:-0.0776009 31:0.185239 99:-0.147755 224:-0.047585 467:-0.105649 530:-0.17508 598:0.276418 612:-0.35686 642:-0.218428 830:-0.231208 834:-0.405102 848:-0.22406 852:-0.114205 863:-0.189048 
500 26:0.0768173 31:0.00179068 99:0.173268 224:0.0824409 467:-0.177191 530:-0.344359 598:0.0806058 612:-0.315508 642:0.384825 830:-0.425052 834:-0.261975 848:0.216177 852:0.196105 863:-0.0410826 
500 26:0.0499765 31:-0.00344216 99:-0.11922 224:0.217123 467:0.208702 530:-0.264502 598:-0.165527 612:0.101083 642:0.479676 830:-0.185663 834:-0.158027 848:0.394893 852:0.149559 863:-0.0391459 
500 26:-0.250381 31:0.184437 99:-0.208789 224:0.0257567 467:-0.22055 530:-0.135919 598:-0.131715 612:0.0455337 642:0.376202 830:-0.0641079 834:-0.156937 848:0.157394 852:0.12558 863:-0.0621928 
500 26:0.041055 31:0.0102113 99:-0.177083 224:-0.175585 467:0.0439389 530:-0.158313 598:-0.314699 612:-0.234058 642:0.189949 830:-0.242219 834:-0.22672 848:-0.274749 852:-0.131131 863:-0.055027 
500 26:0.358912 31:0.0213184 99:0.0813203 224:0.526391 467:-0.190198 530:0.143151 598:0.634032 612:0.0666793 642:0.10717 830:0.0767617 834:0.346807 848:0.628149 852:0.650287 863:0.0070448 
500 26:-0.107923 31:0.178764 99:-0.066905 224:-0.0885833 467:-0.250901 530:-0.364662 598:-0.0342563 612:-0.323508 642:0.105692 830:-0.349779 834:-0.303668 848:0.172033 852:0.275899 863:-0.0238458 
500 26:0.385239 31:-0.155314 99:0.148695 224:0.417825 467:-0.00158779 530:0.119338 598:0.0095007 612:0.0366885 642:0.0645633 830:-0.0023881 834:0.258938 848:0.465931 852:0.207058 863:0.0938098 
500 26:0.02382 31:0.0341699 99:-0.0708682 224:0.188243 467:-0.0883053 530:-0.453068 598:0.360708 612:-0.147745 642:0.144203 830:-0.30639 834:-0.133408 848:0.204212 852:0.217337 863:-0.0765245 
500 26:0.133499 31:0.182954 99:-0.145377 224:-0.0652867 467:-0.0774657 530:-0.313749 598:-0.165527 612:-0.332738 642:0.287055 830:-0.490702 834:-0.526148 848:0.0925101 852:-0.0330472 863:-0.201249 
500 26:-0.0620784 31:-0.326853 99:0.237472 224:-0.345921 467:-0.287756 530:0.267935 598:0.0696666 612:-0.0355245 642:-0.189024 830:-0.0495351 834:0.087848 848:-0.32459 852:-0.329483 863:0.35149 
500 26:-0.250128 31:0.215393 99:-0.154096 224:-0.187185 467:-0.439511 530:0.437542 598:-0.118316 612:0.358266 642:-0.347026 830:0.541043 834:0.375386 848:-0.0623118 852:-0.030911 863:-0.136853 
500 26:-0.24642 31:0.162604 99:-0.352258 224:-0.206087 467:-0.144672 530:-0.275544 598:-0.154012 612:-0.279688 642:0.311939 830:-0.192024 834:-0.268498 848:-0.13711 852:-0.0750083 863:-0.179461 
500 26:-0.154303 31:0.0213385 99:-0.00745633 224:-0.231816 467:-0.27258 530:0.265459 598:-0.0581238 612:0.151262 642:-0.203251 830:0.177152 834:0.128736 848:-0.230198 852:-0.359632 863:0.0963275 
500 26:0.0698167 31:0.00780539 99:0.036932 224:-0.224142 467:0.349618 530:0.0462847 598:-0.209284 612:0.112585 642:-0.0981856 830:-0.161882 834:-0.0187133 848:-0.220374 852:-0.34097 863:-0.104704 
500 26:0.0816525 31:0.0010088 99:-0.11922 224:0.0868423 467:-0.0145954 530:0.0112159 598:0.0867189 612:0.0686142 642:0.252033 830:0.000755027 834:0.205318 848:0.110398 852:0.0719811 863:-0.00118624 
500 26:-0.206845 31:0.00349483 99:-0.0328211 224:-0.233063 467:0.0634504 530:-0.446211 598:-0.0342563 612:-0.439347 642:-0.0609748 830:-0.49036 834:-0.337936 848:-0.138776 852:-0.0986898 863:-0.0488295 
500 26:-0.0246481 31:0.165611 99:-0.0946477 224:-0.024182 467:0.00708401 530:-0.238955 598:0.0737688 612:-0.429655 642:0.750001 830:-0.519303 834:-0.137038 848:-0.212285 852:-0.121963 863:-0.191662 
500 26:-0.095526 31:0.0203761 99:0.151073 224:-0.00235858 467:-0.326779 530:0.0937004 598:-0.0548478 612:-0.0925348 642:-0.230033 830:0.124385 834:-0.0867693 848:0.0248773 852:0.0829334 863:0.144649 
500 26:-0.0345561 31:-0.147976 99:0.123331 224:0.073088 467:0.202198 530:0.187401 598:-0.224326 612:0.230998 642:-0.317073 830:0.324498 834:0.0473686 848:-0.0642462 852:-0.036627 863:0.0605951 
500 26:0.093383 31:0.00146988 99:0.0290055 224:0.158689 467:0.0634504 530:-0.227957 598:0.0813872 612:-0.465653 642:-0.398374 830:-0.161491 834:-0.48529 848:-0.0496611 852:0.114095 863:-0.0631612 
500 26:0.0236292 31:0.0210979 99:-0.0320284 224:0.00174933 467:-0.116489 530:0.33781 598:-0.29165 612:0.241925 642:-0.0827348 830:0.329736 834:0.126299 848:0.231471 852:0.059204 863:0.0314475 
500 26:-0.176344 31:-0.324808 99:0.231924 224:-0.0540012 467:0.0916336 530:-0.0400583 598:-0.184832 612:0.0336479 642:0.0645633 830:0.0122798 834:0.0261146 848:0.116163 852:0.103012 863:0.314886 
500 26:0.0215569 31:0.179505 99:-0.0566005 224:0.095645 467:0.0135878 530:0.0914711 598:0.0493968 612:0.0260465 642:0.18508 830:0.0520929 834:-0.0331495 848:0.117124 852:0.0117447 863:-0.153122 
500 26:-0.254498 31:-0.00338198 99:-0.120805 224:-0.411392 467:0.488366 530:-0.0344054 598:-0.317114 612:-0.0170641 642:-0.00812929 830:-0.0100963 834:-0.295101 848:-0.292357 852:-0.362453 863:-0.197473 
500 26:0.0536252 31:-0.16209 99:0.181194 224:0.198167 467:-0.179359 530:-0.202241 598:0.357369 612:-0.128565 642:-0.0894302 830:-0.179556 834:-0.0428857 848:0.171799 852:0.286095 863:0.315564 
500 26:0.23241 31:0.198692 99:0.0107746 224:0.40214 467:-0.231389 530:-0.308184 598:0.445082 612:-0.281049 642:0.127865 830:-0.272983 834:-0.0697085 848:0.255406 852:0.382291 863:-0.132883 
500 26:-0.321975 31:-0.000956063 99:-0.0581858 224:-0.369911 467:0.0547786 530:0.102442 598:-0.368191 612:0.0984596 642:0.21609 830:0.140762 834:-0.146033 848:-0.494768 852:-0.408184 863:0.0704723 
500 26:0.0247471 31:0.0192935 99:0.0995512 224:-0.260695 467:-0.144672 530:-0.07209 598:-0.293344 612:-0.00491905 642:-0.119383 830:-0.0354737 834:-0.340461 848:-0.27811 852:-0.235063 863:0.155785 
500 26:0.185972 31:0.188287 99:-0.143792 224:0.257028 467:-0.315939 530:-0.147977 598:-0.125748 612:-0.17767 642:0.231339 830:-0.247076 834:-0.0413592 848:0.0727478 852:0.0240241 863:0.0171158 
500 26:-0.245377 31:0.0367963 99:-0.035199 224:-0.0815464 467:-0.170687 530:0.23359 598:0.109321 612:0.190616 642:-0.373983 830:0.343422 834:0.125329 848:-0.00400974 852:0.11271 863:-0.0541554 
500 26:0.0526408 31:0.00786556 99:-0.0558079 224:0.247639 467:0.0439389 530:0.183988 598:0.102163 612:0.246486 642:0.118126 830:0.276303 834:0.244827 848:0.0834921 852:0.132218 863:0.0376449 
500 26:-0.0359139 31:0.00646209 99:-0.0581858 224:0.0634857 467:0.141496 530:-0.0234871 598:0.124727 612:-0.374089 642:-0.218428 830:-0.218147 834:-0.187612 848:-0.119514 852:-0.0769677 863:-0.0342073 
500 26:-0.359429 31:0.19767 99:-0.232569 224:-0.122076 467:-0.20971 530:0.049783 598:0.0685727 612:0.0549317 642:-0.0666659 830:0.351214 834:0.0122863 848:-0.225149 852:0.0533625 863:-0.165517 
500 26:-0.395298 31:0.0277141 99:-0.0383696 224:-0.348812 467:-0.341954 530:-0.201379 598:-0.0123778 612:-0.22466 642:0.127865 830:-0.156402 834:-0.292141 848:-0.200498 852:-0.0831744 863:0.0958433 
500 26:0.181599 31:0.0174089 99:0.0860762 224:0.37828 467:0.180519 530:-0.0601221 598:0.337678 612:-0.229359 642:-0.378361 830:-0.113929 834:0.204558 848:0.0925101 852:0.129269 863:-0.086886 
500 26:0.00531182 31:-0.141801 99:0.211315 224:-0.0672053 467:-0.257405 530:-0.0831317 598:-0.251479 612:0.0106266 642:0.219513 830:-0.0291796 834:-0.168308 848:0.0705202 852:0.0653317 863:0.263466 
500 26:0.465065 31:0.00283325 99:0.0305908 224:0.255365 467:0.360458 530:0.0741011 598:0.335855 612:-0.0915213 642:-0.07046 830:-0.120779 834:0.119832 848:0.161726 852:0.146973 863:-0.17336 
500 26:-0.0421652 31:0.163887 99:-0.377623 224:-0.207755 467:0.412489 530:0.340039 598:-0.447374 612:0.293615 642:-0.149688 830:0.353834 834:0.192618 848:-0.163459 852:-0.262058 863:-0.258576 
500 26:0.0281946 31:0.0217996 99:-0.244458 224:0.177217 467:0.297588 530:-0.379889 598:0.408783 612:-0.358583 642:0.308944 830:-0.403531 834:-0.259976 848:0.154239 852:0.221318 863:0.0028809 
500 26:0.139446 31:-0.151163 99:0.262837 224:-0.115425 467:-0.309435 530:-0.268563 598:-0.0391182 612:-0.0211664 642:0.176153 830:-0.334513 834:-0.0634086 848:0.0305895 852:-0.184887 863:0.250684 
500 26:0.149623 31:-0.142522 99:0.063882 224:0.0555046 467:-0.201038 530:0.356759 598:0.258916 612:0.383159 642:0.206505 830:0.221193 834:0.597589 848:-0.0291254 852:-0.064555 863:0.234028 
500 26:0.145139 31:0.177601 99:-0.169157 224:0.235261 467:0.0287634 530:0.334365 598:-0.384312 612:0.470796 642:0.293423 830:0.318021 834:0.556156 848:0.375694 852:0.125581 863:-0.0440845 
500 26:0.230648 31:0.0074846 99:0.0511997 224:0.478505 467:0.0547786 530:0.351074 598:0.361745 612:0.101452 642:-0.317073 830:0.333403 834:0.554411 848:0.28778 852:0.248859 863:-0.0897911 
500 26:0.106792 31:-0.156316 99:0.252532 224:0.30481 467:-0.18803 530:-0.26956 598:0.126954 612:-0.0783723 642:0.000428687 830:-0.134841 834:-0.0248317 848:0.298785 852:0.362693 863:0.0839325 
500 26:-0.107823 31:0.00742447 99:-0.0566005 224:-0.15358 467:-0.175023 530:0.178238 598:-0.0711043 612:0.150149 642:-0.143345 830:0.26544 834:0.182221 848:-0.180958 852:-0.0586757 863:0.00646379 
500 26:-0.312374 31:0.193199 99:-0.142999 224:-0.371486 467:-0.415664 530:-0.0506475 598:-0.349932 612:0.0604699 642:0.154472 830:0.0840481 834:-0.252265 848:-0.277189 852:-0.191783 863:-0.0794296 
500 26:0.122659 31:0.0113941 99:-0.00190779 224:-0.132052 467:-0.0666259 530:-0.192766 598:-0.236212 612:-0.135921 642:-0.168229 830:-0.196134 834:-0.384066 848:-0.122362 852:-0.123753 863:-0.0307212 
500 26:-0.0372237 31:-0.145169 99:0.150281 224:-0.17119 467:-0.029771 530:0.474827 598:-0.221065 612:0.599657 642:-0.0456528 830:0.424514 834:0.569911 848:-0.330952 852:-0.453159 863:0.196843 
500 26:-0.0792645 31:0.184117 99:-0.123183 224:-0.113762 467:0.171847 530:0.143055 598:-0.298014 612:0.108057 642:-0.241192 830:0.121649 834:-0.160693 848:-0.17451 852:-0.288324 863:-0.172876 
500 26:-0.0861145 31:0.019093 99:-0.131109 224:-0.18526 467:-0.207542 530:-0.0106438 598:0.00585431 612:0.301892 642:0.0117443 830:0.0880061 834:-0.0780678 848:-0.0202318 852:-0.0642106 863:0.159271 
500 26:0.170026 31:0.205469 99:-0.0573932 224:-0.0256369 467:-0.433008 530:0.301491 598:-0.141826 612:0.367221 642:-0.355013 830:0.274033 834:0.257762 848:-0.181316 852:-0.235743 863:-0.148861 
500 26:0.181121 31:-0.160667 99:0.0718085 224:0.384961 467:0.0938016 530:-0.0578928 598:0.0995886 612:0.117263 642:0.024391 830:0.110765 834:0.126299 848:0.329483 852:0.274596 863:0.265984 
500 26:-0.0029806 31:0.0138001 99:-0.121598 224:0.186286 467:0.288916 530:-0.373644 598:0.0910478 612:-0.288097 642:-0.0997776 830:-0.211454 834:-0.532019 848:0.105418 852:0.246883 863:0.0164379 
500 26:0.0863969 31:0.0140206 99:0.0123599 224:0.272255 467:-0.0926412 530:0.0366183 598:0.255922 612:0.129745 642:-0.0355149 830:0.0235841 834:0.177171 848:0.0391391 852:0.00175322 863:0.113661 
500 26:0.00742778 31:0.00543963 99:-0.0470888 224:0.0910569 467:-0.0536183 530:0.106975 598:0.0572356 612:0.195903 642:0.0657806 830:0.169056 834:-0.00210639 848:0.046017 852:0.100191 863:0.00607645 
500 26:0.0771842 31:0.00668265 99:-0.0756241 224:0.037547 467:0.260733 530:0.259645 598:0.16265 612:0.48783 642:0.223578 830:0.261046 834:0.561608 848:0.0439751 852:0.000221961 863:-0.0229743 
500 26:0.0181031 31:0.162524 99:-0.101781 224:0.260354 467:0.163176 530:0.0346237 598:0.0167935 612:-0.108751 642:0.0813017 830:0.066237 834:-0.124045 848:0.212093 852:0.242652 863:0.0261215 
500 26:-0.243175 31:-0.169769 99:-0.0684903 224:-0.106557 467:0.356122 530:0.0346237 598:-0.0439801 612:0.283226 642:0.454382 830:0.129565 834:0.20179 848:-0.0401971 852:-0.129721 863:0.122957 
500 26:0.0806164 31:-0.320939 99:0.321493 224:-0.0592828 467:0.106809 530:0.149433 598:-0.0226736 612:-0.0651699 642:-0.0157811 830:-0.0914436 834:0.146054 848:-0.0952352 852:-0.0776979 863:0.300361 
500 26:-0.499756 31:-0.164476 99:0.109856 224:-0.732632 467:0.204366 530:0.0257807 598:-0.260334 612:-0.101859 642:-0.157723 830:0.018147 834:-0.331539 848:-0.643333 852:-0.623114 863:0.114436 
500 26:0.14674 31:0.00820641 99:-0.0367843 224:0.346816 467:-0.0492825 530:0.0191198 598:0.0890589 612:-0.102486 642:-0.203251 830:0.0379011 834:0.0175201 848:0.345993 852:0.306125 863:0.0532355 
500 26:-0.259398 31:0.175997 99:-0.196107 224:-0.505905 467:-0.170687 530:0.272984 598:-0.286435 612:0.0658137 642:0.0124099 830:0.125764 834:0.0307191 848:-0.31164 852:-0.337955 863:-0.0539618 
500 26:-0.0983466 31:0.00159022 99:-0.129524 224:-0.0915921 467:0.512214 530:0.15253 598:-0.0561348 612:0.0247796 642:-0.266485 830:0.165188 834:0.237772 848:-0.219886 852:-0.133168 863:-0.193987 
500 26:-0.215717 31:0.0189928 99:-0.0288578 224:-0.173131 467:-0.0536183 530:0.0847832 598:0.0429619 612:0.165912 642:-0.0559533 830:0.219727 834:0.0882007 848:-0.171147 852:-0.103253 863:0.00559227 
500 26:0.0603321 31:-0.163313 99:0.0876615 224:0.141916 467:0.0482748 530:0.119166 598:-0.10999 612:0.180179 642:-0.325828 830:0.312167 834:-0.0611533 848:-0.0645605 852:-0.169106 863:0.153654 
500 26:-0.0610065 31:0.016226 99:-0.0185534 224:0.0312462 467:-0.144672 530:-0.0700953 598:-0.0883768 612:0.186875 642:0.0363722 830:0.1417 834:0.0925825 848:-0.036519 852:0.00175311 863:-0.0326579 
500 26:-0.451765 31:0.00349488 99:-0.141414 224:-0.482802 467:0.180519 530:0.39366 598:-0.581219 612:0.411316 642:-0.119383 830:0.567291 834:0.0824824 848:-0.466396 852:-0.514342 863:-0.122909 
500 26:-0.310696 31:0.210622 99:-0.0407476 224:-0.579328 467:-0.541405 530:0.00304175 598:-0.351495 612:-0.11952 642:0.252034 830:-0.16976 834:-0.649778 848:-0.401843 852:-0.530538 863:-0.0768151 
500 26:0.370021 31:0.00241221 99:-0.214338 224:0.0680998 467:0.312763 530:-0.172633 598:0.471684 612:-0.335969 642:-0.174796 830:-0.381267 834:-0.206003 848:0.250209 852:0.14568 863:-0.0399206 
500 26:-0.434179 31:0.184858 99:-0.131109 224:-0.73126 467:-0.00592361 530:0.18148 598:-0.373373 612:-0.0726762 642:0.138212 830:-0.0862705 834:-0.23149 848:-0.641087 852:-0.758099 863:-0.0683903 
500 26:-0.0659315 31:0.0442345 99:-0.115257 224:-0.0784287 467:-0.166351 530:-0.243692 598:-0.187406 612:-0.276203 642:-0.27439 830:-0.168647 834:-0.331939 848:-0.0652669 852:-0.189843 863:-0.0209407 
500 26:-0.175863 31:-0.324287 99:0.240643 224:0.0760275 467:-0.00158781 530:-0.168403 598:-0.392126 612:0.101083 642:0.284554 830:0.0738703 834:-0.247125 848:0.215204 852:0.105229 863:0.295616 
500 26:-0.0784299 31:0.174654 99:-0.223057 224:-0.116207 467:0.334443 530:0.202937 598:-0.237598 612:0.0549317 642:-0.310377 830:0.179914 834:0.0783234 848:-0.131749 852:-0.318644 863:-0.33924 
500 26:-0.441103 31:-0.158361 99:0.0218717 224:-0.596218 467:0.161008 530:0.066538 598:-0.238072 612:0.128385 642:-0.0115525 830:0.171697 834:0.0155689 848:-0.508524 852:-0.53884 863:0.107367 
500 26:0.0210388 31:0.00559999 99:-0.13428 224:-0.235379 467:0.0504427 530:0.198398 598:0.120456 612:-0.173978 642:-0.0569098 830:-0.0444462 834:-0.0637894 848:-0.306359 852:-0.278226 863:-0.012516 
500 26:-0.23712 31:0.186863 99:-0.0486741 224:-0.540461 467:-0.140336 530:0.150687 598:-0.113566 612:0.0581623 642:-0.0182919 830:-0.0339504 834:-0.0635752 848:-0.34501 852:-0.430334 863:-0.115937 
500 26:-0.19865 31:0.00279312 99:-0.0962329 224:-0.0505779 467:-0.34629 530:-0.0706494 598:0.000992405 612:-0.0829064 642:-0.266485 830:-0.00302839 834:-0.223327 848:-0.0746828 852:0.0133669 863:0.148716 
500 26:-0.0878492 31:0.0134392 99:-0.0558079 224:-0.00326553 467:0.555572 530:0.00533862 598:-0.249063 612:0.20765 642:-0.265336 830:0.356882 834:-0.146033 848:-0.285144 852:-0.0239327 863:-0.156511 
500 26:0.184704 31:0.0130983 99:0.0250423 224:-0.0364447 467:0.0135878 530:0.30307 598:-0.0725437 612:0.162618 642:0.195123 830:-0.0391453 834:0.49764 848:-0.128226 852:-0.220228 863:0.0133391 
500 26:-0.335356 31:-0.153108 99:0.188328 224:-0.263076 467:0.282412 530:-0.0588588 598:-0.159693 612:-0.00709545 642:-0.370189 830:0.107202 834:-0.107653 848:-0.258909 852:-0.10593 863:-0.00573752 
500 26:0.108229 31:0.185961 99:0.052785 224:0.37874 467:-0.181527 530:0.142634 598:0.230474 612:0.212584 642:-0.157723 830:0.340528 834:0.338521 848:0.37109 852:0.525035 863:-0.12562 
500 26:0.0799364 31:0.190713 99:-0.133487 224:0.0649822 467:-0.0427786 530:-0.272116 598:-0.0410933 612:-0.258435 642:0.0528464 830:-0.176439 834:-0.337936 848:-0.0254498 852:0.0564655 863:-0.0864987 
500 26:0.138313 31:-0.00175801 99:-0.0851359 224:0.0995058 467:0.28458 530:-0.233656 598:0.0866512 612:0.122944 642:0.41977 830:-0.168588 834:-0.10437 848:0.326297 852:0.194472 863:-0.068584 
500 26:-0.532256 31:0.182513 99:-0.247629 224:-0.465968 467:-0.0362748 530:0.35453 598:-0.528453 612:0.435 642:-0.0961256 830:0.554994 834:0.0628019 848:-0.494009 852:-0.466498 863:-0.185562 
500 26:-0.112536 31:0.00962988 99:0.210522 224:-0.0550119 467:0.0222595 530:0.193586 598:-0.148511 612:0.0333945 642:0.378502 830:0.0988907 834:-0.0434188 848:0.0650751 852:0.00991947 863:-0.00515652 
500 26:0.309356 31:0.190913 99:-0.321345 224:0.324763 467:-0.129496 530:-0.251608 598:0.0313792 612:-0.0239625 642:0.180146 830:-0.110468 834:-0.146033 848:0.511144 852:0.537447 863:-0.203961 
500 26:0.384203 31:0.206612 99:-0.257933 224:0.451275 467:-0.19887 530:-0.220633 598:0.519141 612:-0.347941 642:0.131517 830:-0.412043 834:-0.0119837 848:0.432299 852:0.453481 863:-0.238725 
500 26:-0.00195757 31:0.0209977 99:-0.000322482 224:0.21934 467:-0.177191 530:0.0935766 598:0.416684 612:0.274611 642:-0.342366 830:0.353193 834:0.325727 848:0.245671 852:0.380568 863:0.0137265 
500 26:-0.121429 31:-0.316007 99:0.376186 224:-0.0704329 467:-0.120824 530:-0.649775 598:-0.0278214 612:-0.56382 642:-0.203251 830:-0.461286 834:-0.548182 848:0.0710007 852:0.316578 863:0.25049 
500 26:0.127605 31:0.0233835 99:0.0091893 224:0.515417 467:-0.00158775 530:0.0384135 598:0.123269 612:-0.0923828 642:0.616261 830:0.00389816 834:0.211385 848:0.472369 852:0.404014 863:-0.0781708 
500 26:0.204633 31:-0.144387 99:0.300091 224:0.243215 467:-0.00375566 530:-0.393919 598:-0.00732889 612:-0.360571 642:0.0944349 830:-0.408497 834:-0.326865 848:0.237015 852:0.363195 863:0.139129 
500 26:-0.0332718 31:0.0285161 99:0.160585 224:-0.043927 467:-0.543572 530:-0.0995995 598:-0.0780133 612:0.19277 642:-0.222222 830:0.131544 834:-0.162025 848:-0.00571129 852:0.0176766 863:0.0757014 
500 26:-0.450876 31:0.163546 99:-0.318967 224:-0.250938 467:0.405985 530:0.0488355 598:-0.0798365 612:0.0118573 642:0.0243911 830:0.177556 834:0.111836 848:-0.408649 852:-0.230571 863:-0.371099 
500 26:-0.277914 31:-0.338522 99:0.211315 224:-0.253432 467:0.304092 530:0.159899 598:-0.246964 612:0.241588 642:-0.443541 830:0.247316 834:-0.096725 848:-0.584708 852:-0.464166 863:0.205268 
500 26:0.323071 31:0.184578 99:0.0123599 224:0.0410682 467:0.100305 530:-0.154868 598:0.0674144 612:-0.256724 642:0.466285 830:-0.449761 834:-0.203886 848:0.00277666 852:-0.185394 863:-0.191275 
500 26:-0.0291618 31:-0.14154 99:-0.0621491 224:0.0415376 467:-0.248733 530:-0.285617 598:-0.169903 612:0.0497628 642:-0.112194 830:-0.0441918 834:-0.333138 848:-0.0683301 852:0.00991875 863:0.102622 
500 26:0.426795 31:-0.165238 99:0.199425 224:0.421639 467:-0.313771 530:0.201105 598:0.386123 612:0.22846 642:0.105692 830:0.0687814 834:0.520486 848:0.408895 852:0.426622 863:0.318082 
500 26:-0.360603 31:-0.151765 99:0.241435 224:-0.405406 467:-0.0861374 530:0.0333604 598:-0.484953 612:0.0738845 642:0.130624 830:0.120264 834:-0.147633 848:-0.269799 852:-0.261085 863:0.12073 
500 26:0.160191 31:0.0318041 99:0.0868688 224:0.16192 467:-0.207542 530:-0.00959101 598:0.120352 612:0.154864 642:-0.00596124 830:-0.0329114 834:0.0314766 848:0.0841329 852:-0.0293865 863:-0.00825524 
500 26:0.167614 31:0.0015902 99:-0.110501 224:0.24919 467:0.139328 530:0.0941782 598:-0.0811388 612:0.195231 642:0.463416 830:0.0357037 834:0.186369 848:0.322551 852:0.233786 863:-0.106737 
500 26:-0.123398 31:0.00193098 99:-0.0819653 224:0.0149338 467:-0.0319389 530:-0.10181 598:-0.166986 612:-0.0329401 642:-0.112194 830:0.0739551 834:-0.123645 848:-0.0454606 852:0.113356 863:0.0437456 
500 26:0.236813 31:-0.339284 99:0.250947 224:0.361781 467:0.191359 530:-0.376573 598:0.0751362 612:-0.286218 642:-0.0894302 830:-0.31492 834:-0.110052 848:0.304115 852:0.484694 863:0.178154 
500 26:-0.0253454 31:0.0271527 99:-0.100196 224:0.186528 467:0.161008 530:-0.221821 598:-0.164069 612:-0.158717 642:0.130624 830:-0.0720958 834:-0.216398 848:0.167988 852:0.0823249 863:-0.0260731 
500 26:0.134981 31:0.179566 99:-0.292017 224:0.27324 467:0.0179237 530:-0.355018 598:0.144874 612:-0.0920597 642:0.0101634 830:-0.167534 834:-0.295957 848:0.177721 852:0.184469 863:-0.166872 
500 26:-0.312531 31:-0.153369 99:0.0781497 224:-0.295416 467:-0.0254351 530:0.257276 598:-0.716592 612:0.376375 642:0.0101634 830:0.33229 834:-0.162525 848:-0.364408 852:-0.482698 863:0.132447 
500 26:-0.105784 31:0.178202 99:-0.112879 224:0.0235801 467:0.130657 530:-0.062017 598:-0.067074 612:0.0420094 642:-0.0211374 830:0.0288337 834:-0.0860638 848:0.322084 852:0.0999093 863:-0.25296 
500 26:-0.0516199 31:0.0172485 99:-0.0280652 224:0.101562 467:-0.0059236 530:0.0314655 598:0.210054 612:0.246613 642:-0.260162 830:0.167167 834:0.171805 848:0.107275 852:0.234894 863:-0.0396301 
500 26:-0.170516 31:0.167857 99:-0.301529 224:-0.231193 467:0.0569466 530:-0.0281454 598:-0.113566 612:0.0888528 642:-0.132113 830:-0.0395164 834:-0.141536 848:-0.307234 852:-0.37409 863:-0.204929 
500 26:0.133644 31:-0.158722 99:0.301677 224:0.0867165 467:-0.0319389 530:-0.378197 598:-0.187406 612:-0.441655 642:0.235773 830:-0.359957 834:-0.49557 848:0.135862 852:0.231569 863:0.0847072 
500 26:0.375396 31:-0.0134466 99:-0.174705 224:0.406088 467:0.145832 530:-0.190537 598:0.622099 612:-0.229359 642:0.118126 830:-0.311463 834:0.095256 848:0.167091 852:0.281897 863:-0.0706176 
500 26:0.0802867 31:0.171827 99:-0.3047 224:0.11101 467:0.171847 530:0.00533863 598:-0.326633 612:0.231145 642:0.00369627 830:0.211155 834:-0.0217328 848:-0.0534798 852:0.0889073 863:-0.189823 
500 26:0.0659551 31:0.176518 99:-0.369697 224:0.0285683 467:0.343115 530:0.0554678 598:-0.281483 612:0.0497628 642:-0.24878 830:0.0270526 834:-0.182015 848:-0.249652 852:-0.303494 863:-0.172779 
500 26:0.00782815 31:0.171907 99:-0.311833 224:-0.224833 467:-0.0839695 530:0.00619995 598:0.545524 612:0.0497628 642:-0.134959 830:-0.147496 834:-0.0141003 848:-0.207181 852:-0.303494 863:-0.120294 
500 26:0.120266 31:0.00533936 99:0.0567482 224:-0.0369435 467:0.0287634 530:0.0194643 598:-0.229704 612:0.118682 642:0.191329 830:-0.167088 834:0.141821 848:-0.010612 852:-0.0583495 863:0.0176968 
500 26:-0.106958 31:-0.143364 99:0.166926 224:-0.332245 467:-0.122992 530:-0.0702283 598:-0.0269635 612:-0.0536158 642:-0.0970182 830:-0.127904 834:-0.00370557 848:-0.0792202 852:-0.120411 863:0.135546 
500 26:-0.224883 31:-0.00139713 99:-0.106537 224:-0.125913 467:0.271573 530:0.0768948 598:-0.101575 612:0.114573 642:-0.273295 830:0.284765 834:-0.0851411 848:-0.057021 852:-0.0234986 863:-0.0761372 
500 26:-0.139091 31:-0.155574 99:0.221619 224:-0.24542 467:-0.276916 530:-0.497675 598:0.156683 612:-0.248156 642:0.189949 830:-0.434902 834:-0.353201 848:0.0148316 852:-0.0803532 863:0.169729 
500 26:0.00808716 31:-0.135866 99:0.296128 224:-0.310454 467:-0.480702 530:0.214083 598:-0.184832 612:0.0594926 642:-0.256814 830:-0.0034358 834:0.284337 848:-0.418098 852:-0.477451 863:0.186191 
500 26:-0.221157 31:-0.324447 99:0.403136 224:-0.413529 467:-0.0210992 530:0.180803 598:-0.0592603 612:0.132466 642:-0.186991 830:0.0942258 834:-0.0535088 848:-0.23285 852:-0.326989 863:0.394195 
500 26:0.114394 31:-0.145289 99:0.178816 224:0.0501839 467:-0.127328 530:0.226642 598:-0.210743 612:-0.0415549 642:-0.127371 830:0.119077 834:-0.0388877 848:0.00790146 852:-0.0914486 863:0.0599172 
500 26:-0.0908635 31:0.16112 99:-0.245251 224:-0.0757146 467:0.134992 530:-0.0556634 598:-0.20285 612:-0.113819 642:-0.136298 830:0.0279955 834:-0.0839472 848:0.221862 852:0.210708 863:-0.235239 
500 26:-0.257853 31:-0.00719132 99:-0.037577 224:0.0619338 467:0.395145 530:0.0493619 598:-0.0877371 612:-0.108751 642:0.100272 830:0.146387 834:0.15648 848:0.0378497 852:0.0530178 863:-0.0658726 
500 26:-0.342643 31:0.0136196 99:-0.00904161 224:-0.26468 467:-0.099145 530:0.244179 598:-0.354712 612:0.314898 642:-0.0961255 830:0.509943 834:-0.0557262 848:0.0152683 852:0.00626881 863:0.121892 
500 26:-0.0479503 31:0.000728095 99:-0.0256872 224:0.319381 467:-0.0124275 530:0.396237 598:0.0240864 612:0.48783 642:0.138212 830:0.563463 834:0.683546 848:0.244763 852:0.312472 863:-0.0881449 
500 26:0.199214 31:-0.144267 99:0.0448585 224:0.0966382 467:0.282412 530:0.0594033 598:0.0111836 612:-0.0106739 642:0.0769239 830:-0.0125428 834:0.0809284 848:0.351362 852:0.334552 863:0.0822863 
500 26:-0.135728 31:0.0279146 99:0.14711 224:-0.0692005 467:-0.0514504 530:-0.0923356 598:0.344242 612:0.178986 642:0.0243911 830:0.0163659 834:0.081851 848:0.20937 852:0.251961 863:-0.104316 
500 26:0.156772 31:0.173972 99:-0.315004 224:-0.0187903 467:0.425496 530:-0.184964 598:-0.0123778 612:-0.293211 642:0.439504 830:-0.441379 834:-0.164377 848:0.12385 852:0.0774571 863:-0.23979 
500 26:0.0112531 31:0.194783 99:-0.129524 224:-0.0173232 467:-0.400488 530:0.16411 598:0.0192245 612:0.221486 642:0.150859 830:0.196852 834:0.179135 848:0.112266 852:0.0823248 863:-0.16755 
500 26:-0.0929357 31:0.167656 99:-0.051052 224:-0.0563486 467:-0.0210992 530:-0.278595 598:-0.202849 612:-0.252163 642:0.0110003 830:-0.214026 834:-0.318181 848:-0.049112 852:-0.06127 863:-0.138887 
500 26:0.29406 31:-0.320618 99:0.496668 224:-0.0480838 467:-0.0774656 530:0.0472564 598:-0.123594 612:0.0290871 642:0.138212 830:-0.122264 834:-0.144034 848:0.163087 852:0.11077 863:0.311206 
500 26:-0.298219 31:-0.165037 99:0.238265 224:-0.484344 467:0.0656183 530:0.0914711 598:0.0190726 612:0.109852 642:-0.132113 830:0.031728 834:0.138822 848:-0.413414 852:-0.436152 863:0.203622 
500 26:-0.0900664 31:0.193159 99:-0.223849 224:-0.0936811 467:-0.101313 530:-0.354563 598:0.226603 612:-0.551424 642:0.0243911 830:-0.438639 834:-0.360079 848:0.0384779 852:0.143591 863:-0.218583 
500 26:-0.0276594 31:-0.164797 99:0.0044334 224:0.170761 467:0.0569466 530:-0.235123 598:0.181955 612:-0.355542 642:0.211861 830:-0.167927 834:-0.133334 848:-0.058721 852:0.24539 863:0.052364 
500 26:0.51627 31:-0.486764 99:0.66471 224:0.599296 467:-0.00375567 530:-0.0222238 598:0.201358 612:-0.199539 642:0.199501 830:-0.356434 834:0.328188 848:0.701943 852:0.518351 863:0.374537 
500 26:-0.0689196 31:-0.163494 99:0.123331 224:-0.348683 467:0.23255 530:-0.0262843 598:-0.259292 612:-0.0724455 642:0.333334 830:-0.0826128 834:-0.363637 848:-0.190845 852:-0.322556 863:0.0942939 
500 26:-0.150361 31:0.0178901 99:-0.140621 224:0.0229661 467:0.239053 530:-0.248156 598:-0.0174267 612:-0.0404947 642:-0.0281418 830:-0.185173 834:-0.415435 848:-0.094718 852:-0.128527 863:-0.117583 
500 26:0.19131 31:0.00427678 99:0.0646747 224:0.267005 467:-0.0904733 530:0.0156745 598:-0.110831 612:0.186309 642:0.119242 830:0.104828 834:0.0338754 848:0.300576 852:0.121114 863:0.0173094 
500 26:0.205988 31:-0.155474 99:-0.0122122 224:0.0593138 467:0.317099 530:0.234451 598:-0.27492 612:0.308679 642:-0.0997775 830:0.0945728 834:0.233411 848:0.155909 852:0.0578764 863:0.101653 
500 26:0.00497877 31:-0.148417 99:0.268385 224:-0.357402 467:-0.415664 530:0.168382 598:-0.515583 612:0.298176 642:-0.203251 830:0.152673 834:-0.0458489 848:-0.404645 852:-0.457372 863:0.144745 
500 26:0.193979 31:-0.160406 99:0.256496 224:0.276981 467:-0.398321 530:0.0828579 598:0.0771252 612:0.233495 642:0.272728 830:0.114003 834:0.427494 848:0.245011 852:0.342798 863:0.241097 
500 26:0.0908667 31:0.0233234 99:-0.0241019 224:0.0938426 467:0.0938015 530:0.0968852 598:0.232974 612:-0.303201 642:0.0894318 830:-0.139863 834:0.155528 848:-0.309859 852:-0.324772 863:-0.107996 
500 26:0.619042 31:0.0091487 99:0.0527849 224:0.506438 467:-0.19887 530:-0.0695966 598:0.352993 612:-0.190592 642:0.160977 830:-0.371916 834:0.266557 848:0.460934 852:0.494003 863:-0.0228775 
500 26:0.0831522 31:0.172027 99:-0.142207 224:0.146763 467:0.228214 530:0.251043 598:0.275497 612:0.169192 642:-0.251176 830:0.208257 834:0.145608 848:-0.0296412 852:-0.102772 863:-0.0722638 
500 26:0.0445245 31:0.0184314 99:-0.0502593 224:-0.0502454 467:0.128489 530:-0.0942306 598:-0.143649 612:-0.0174333 642:0.403795 830:-0.264456 834:-0.0484828 848:0.0939341 852:-0.0707617 863:-0.0117414 
500 26:-0.140635 31:0.00317404 99:-0.00666365 224:-0.0672053 467:0.041771 530:-0.0371124 598:0.22516 612:-0.310585 642:0.0406512 830:-0.166579 834:-0.0483686 848:-0.134838 852:-0.0654418 863:0.134481 
500 26:0.276445 31:-0.154852 99:0.0876615 224:0.267836 467:-0.339786 530:-0.473845 598:0.288452 612:-0.38012 642:-0.317073 830:-0.442863 834:-0.287961 848:0.14539 852:0.162488 863:0.133125 
500 26:-0.200118 31:0.179826 99:-0.297566 224:-0.210755 467:0.286748 530:0.0893657 598:-0.384312 612:0.0348303 642:0.112919 830:0.0316043 834:-0.0407534 848:-0.217163 852:-0.371073 863:-0.258479 
500 26:0.268565 31:0.18121 99:-0.127146 224:0.132586 467:0.108977 530:-0.029205 598:-0.0365593 612:0.0413293 642:0.108259 830:-0.213585 834:-0.081645 848:0.199053 852:0.00991924 863:-0.17859 
500 26:-0.13015 31:0.00674279 99:0.0321762 224:0.101285 467:-0.0145954 530:-0.12855 598:-0.0148087 612:0.0104215 642:-0.177958 830:0.191904 834:-0.293958 848:-0.00298884 852:0.142663 863:-0.0350788 
500 26:-0.34806 31:0.183415 99:-0.136658 224:-0.548341 467:0.0612825 530:0.325752 598:-0.551385 612:0.355669 642:-0.348115 830:0.394123 834:-0.0915155 848:-0.614821 852:-0.819456 863:-0.271455 
500 26:0.228006 31:0.181891 99:-0.299151 224:0.35608 467:0.0742901 530:-0.341652 598:0.300172 612:-0.0909059 642:0.00813089 830:-0.198385 834:-0.21457 848:0.628254 852:0.617241 863:-0.212773 
500 26:-0.0765734 31:-0.313781 99:0.12016 224:-0.0796758 467:0.230382 530:0.280963 598:-0.418953 612:0.554595 642:-0.222222 830:0.619865 834:0.189796 848:-0.218071 852:-0.19954 863:0.158302 
500 26:-0.442069 31:0.192497 99:-0.272201 224:-0.511987 467:-0.181527 530:0.175163 598:-0.382489 612:0.171233 642:0.593497 830:0.00538242 834:0.131826 848:-0.586976 852:-0.628803 863:-0.166001 
500 26:-0.340053 31:0.00856728 99:-0.0994036 224:-0.592214 467:0.234718 530:0.156609 598:-0.187406 612:-0.0129105 642:0.337399 830:0.00501136 834:0.00538981 848:-0.542054 852:-0.523427 863:-0.010192 
500 26:-0.116572 31:-0.307987 99:0.444353 224:-0.28731 467:-0.151175 530:-0.189213 598:-0.0301541 612:-0.289125 642:0.223578 830:-0.370135 834:-0.295957 848:-0.175531 852:-0.249966 863:0.349747 
500 26:0.507192 31:-0.155414 99:0.346065 224:0.500453 467:-0.255237 530:-0.323515 598:-0.233351 612:0.269442 642:0.115448 830:-0.156402 834:0.0314766 848:0.536077 852:0.422632 863:0.377733 
500 26:0.404149 31:0.180969 99:-0.355429 224:0.464039 467:0.351786 530:0.151477 598:0.241048 612:0.199231 642:-0.165311 830:0.0335833 834:0.521628 848:0.25157 852:0.359018 863:-0.138596 
500 26:0.124376 31:0.0155042 99:0.101929 224:0.223773 467:-0.268244 530:-0.555327 598:0.0211693 612:-0.349968 642:0.160976 830:-0.370135 834:-0.502652 848:0.306293 852:0.41746 863:0.123345 
500 26:-0.408192 31:-0.00404359 99:-0.239702 224:-0.229716 467:0.152336 530:-0.0461595 598:-0.0112263 612:0.039969 642:-0.0954208 830:0.16701 834:0.0887949 848:-0.274671 852:-0.140337 863:-0.0694555 
500 26:-0.214436 31:0.0217796 99:0.052785 224:-0.36571 467:-0.027603 530:0.0146772 598:-0.0676498 612:0.288894 642:0.287977 830:0.0470197 834:0.212522 848:-0.228244 852:-0.429415 863:-0.0114508 
500 26:-0.274777 31:0.0144216 99:-0.00507839 224:-0.316909 467:-0.166351 530:-0.0110772 598:-0.00980384 612:0.0944588 642:0.0110003 830:0.0919059 834:0.065624 848:-0.243214 852:-0.351501 863:-0.0207471 
500 26:0.316077 31:0.179064 99:-0.0225166 224:0.427625 467:-0.315939 530:-0.11697 598:0.552088 612:-0.0458624 642:-0.157723 830:-0.0887196 834:0.144219 848:0.28778 852:0.528138 863:-0.145278 
500 26:0.167824 31:-0.135004 99:0.245399 224:-0.274216 467:-0.400488 530:-0.0443311 598:0.00220786 612:-0.225052 642:0.233063 830:-0.267721 834:0.0158845 848:-0.163619 852:-0.184025 863:0.302297 
500 26:0.115569 31:0.17327 99:-0.184217 224:0.363443 467:-0.0536183 530:-0.286249 598:0.0970147 612:-0.303447 642:-0.370189 830:-0.101781 834:-0.293159 848:0.0710647 852:0.1568 863:-0.0946329 
500 26:-0.118407 31:0.181971 99:0.00284811 224:-0.177777 467:-0.255237 530:-0.145393 598:-0.300445 612:-0.401657 642:0.289974 830:-0.34045 834:-0.441883 848:-0.0737752 852:-0.137478 863:-0.121747 
500 26:0.116881 31:0.0165067 99:0.0860762 224:0.112664 467:-0.402656 530:0.148319 598:-0.0123778 612:0.0838169 642:0.118126 830:0.0101844 834:0.19544 848:0.120967 852:0.157773 863:0.0530418 
500 26:0.144339 31:-0.312057 99:0.256496 224:0.166243 467:-0.0384427 530:0.459085 598:-0.666545 612:0.504629 642:0.0699196 830:0.499047 834:0.573602 848:0.225706 852:-0.0273178 863:0.379476 
500 26:-0.296507 31:0.16082 99:-0.242873 224:-0.182488 467:0.280244 530:-0.241192 598:-0.138787 612:-0.348532 642:0.214093 830:-0.0792203 834:-0.315281 848:-0.169064 852:-0.207298 863:-0.357155 
500 26:0.325662 31:-0.164857 99:0.168512 224:0.302215 467:0.280244 530:-0.171588 598:0.116319 612:-0.151826 642:-0.256814 830:-0.230789 834:-0.02045 848:0.0585091 852:0.176026 863:0.0325126 
500 26:0.0650744 31:0.178643 99:-0.0201387 224:0.280722 467:-0.0276031 530:-0.105126 598:-0.0274193 612:-0.0888291 642:-0.174796 830:0.0406336 834:-0.0620759 848:0.388038 852:0.322169 863:-0.119326 
500 26:0.301265 31:-0.326613 99:0.457036 224:0.14366 467:-0.240061 530:-0.192766 598:0.100993 612:-0.0507964 642:-0.410199 830:-0.232504 834:-0.296502 848:0.332628 852:0.173537 863:0.281478 
500 26:0.0338491 31:-0.141801 99:0.154244 224:0.0792666 467:0.00925196 530:-0.0807939 598:-0.161549 612:0.0737279 642:-0.0997776 830:0.0751426 834:0.0545921 848:-0.0594199 852:0.128401 863:0.096618 
500 26:-0.195616 31:0.00355501 99:0.0995512 224:-0.324264 467:0.0851298 530:0.00809485 598:-0.13198 612:0.0394249 642:-0.112194 830:-0.0994062 834:-0.355527 848:-0.269799 852:-0.329353 863:-0.0136781 
500 26:0.0621387 31:0.187585 99:-0.321345 224:0.185198 467:0.161008 530:0.229168 598:-0.0109192 612:0.208277 642:0.160977 830:0.296 834:0.290545 848:0.200658 852:0.18783 863:-0.179752 
500 26:-0.126725 31:0.0146822 99:0.168512 224:0.053066 467:-0.099145 530:-0.378047 598:-0.19713 612:-0.159005 642:0.201446 830:-0.252384 834:-0.323277 848:0.137676 852:0.144387 863:-0.062677 
500 26:0.225675 31:0.0128979 99:-0.0225166 224:0.286957 467:0.288916 530:0.0636047 598:0.538446 612:-0.139663 642:-0.149688 830:-0.0788711 834:0.247649 848:-0.0423857 852:0.0957111 863:-0.0814632 
500 26:0.209992 31:0.184097 99:-0.306285 224:-0.0440781 467:-0.107817 530:-0.6441 598:-0.0998918 612:-0.407922 642:0.355507 830:-0.677781 834:-0.822054 848:0.0935381 852:-0.0211124 863:-0.205026 
500 26:-0.350118 31:0.0113942 99:0.00126283 224:-0.662227 467:0.115481 530:0.113127 598:-0.454636 612:0.0143187 642:0.105692 830:0.0293426 834:-0.223137 848:-0.627231 852:-0.661681 863:-0.057351 
500 26:-0.103519 31:0.0136598 99:-0.0367843 224:-0.0821699 467:-0.181527 530:0.0481588 598:-0.12177 612:-0.185054 642:0.121952 830:0.0242537 834:-0.0415149 848:-0.0519947 852:0.0298676 863:-0.0203597 
500 26:-0.332897 31:0.0134191 99:0.114612 224:-0.312251 467:-0.328947 530:-0.471082 598:-0.105361 612:-0.398965 642:-0.0325196 830:-0.328947 834:-0.588309 848:-0.104064 852:0.0409495 863:0.103784 
500 26:0.0127821 31:0.176939 99:-0.16123 224:0.00200611 467:0.559908 530:-0.00090599 598:-0.00964298 612:0.10339 642:0.166668 830:0.0807085 834:0.0983427 848:-0.0172822 852:-0.0133539 863:-0.324231 
500 26:-0.30076 31:0.0105521 99:0.023457 224:-0.589432 467:-0.222718 530:0.100217 598:-0.562706 612:-0.273096 642:-0.168229 830:-0.113929 834:-0.640552 848:-0.569699 852:-0.601153 863:0.115307 
500 26:-0.0893438 31:0.0181707 99:0.068638 224:-0.104118 467:-0.175023 530:-0.115706 598:-0.0969747 612:0.154864 642:-0.172899 830:-0.0210374 834:-0.210001 848:-0.169609 852:-0.28591 863:0.0958433 
500 26:-0.634211 31:0.166654 99:-0.162023 224:-0.569019 467:0.455847 530:0.33402 598:-0.277108 612:0.140219 642:0.297562 830:0.333403 834:0.120232 848:-0.377068 852:-0.170061 863:-0.18808 
500 26:-0.426167 31:0.182553 99:-0.0177607 224:-0.460719 467:-0.109985 530:0.0977875 598:-0.217793 612:-0.039832 642:-0.355013 830:0.223568 834:-0.0527473 848:-0.489418 852:-0.265913 863:-0.223231 
500 26:0.0859334 31:0.0145418 99:0.0519923 224:-0.00865948 467:-0.096977 530:-0.163844 598:-0.0204383 612:-0.0702108 642:0.084297 830:-0.177025 834:-0.248297 848:0.123395 852:0.168341 863:0.320406 
500 26:0.0196839 31:0.175636 99:-0.223057 224:0.0436864 467:0.22171 530:-0.348732 598:0.0801851 612:-0.348642 642:0.339588 830:-0.301631 834:-0.339781 848:0.195548 852:0.219976 863:-0.190307 
500 26:-0.514641 31:0.00958977 99:-0.0550152 224:-0.724181 467:0.195695 530:0.0736366 598:-0.509149 612:-0.103177 642:0.0511725 830:0.0332341 834:-0.391556 848:-0.661206 852:-0.725699 863:-0.0956981 
500 26:0.400423 31:-0.157278 99:0.188328 224:0.602366 467:0.0938015 530:-0.181105 598:0.701198 612:-0.169718 642:-0.0631637 830:-0.29752 834:0.195332 848:0.304869 852:0.37513 863:0.135449 
500 26:-0.0362075 31:0.00461757 99:-0.0566005 224:-0.186922 467:-0.0687939 530:0.26066 598:0.115768 612:0.0973908 642:-0.121951 830:0.174376 834:0.0955584 848:-0.295858 852:-0.238329 863:0.0902268 
500 26:-0.220757 31:0.0145218 99:0.0448585 224:-0.0848907 467:-0.376641 530:0.231006 598:0.254142 612:0.226446 642:-0.389504 830:0.376312 834:0.318458 848:-0.193072 852:0.00991941 863:0.0686325 
500 26:0.278962 31:-0.0114618 99:0.0710159 224:-0.0166106 467:0.536061 530:-0.118323 598:-0.135835 612:-0.214591 642:0.447156 830:-0.45919 834:-0.108338 848:0.222205 852:0.0232179 863:-0.234754 
500 26:0.0109735 31:0.173832 99:-0.330064 224:0.0346967 467:0.0222596 530:-0.145393 598:-0.085827 612:0.0438555 642:0.382115 830:-0.0508073 834:-0.120332 848:0.228039 852:0.0320841 863:-0.289951 
500 26:0.00166316 31:0.00207136 99:0.0305908 224:0.12667 467:-0.0341068 530:0.1799 598:-0.118853 612:-0.181116 642:0.191329 830:0.00983519 834:0.0970433 848:0.0699757 852:0.0719812 863:-0.0728448 
500 26:-0.181525 31:0.0197145 99:-0.0106269 224:-0.209993 467:-0.441679 530:0.180295 598:-0.266715 612:0.10016 642:0.180895 830:0.0740293 834:0.22278 848:0.0623526 852:0.0545261 863:0.10514 
500 26:0.250024 31:0.18945 99:-0.165986 224:0.0320046 467:-0.029771 530:0.0777856 598:-0.00508496 612:0.21 642:0.429089 830:-0.0792203 834:0.200458 848:0.254746 852:0.0788771 863:-0.0799138 
500 26:0.174674 31:-0.155253 99:0.143147 224:0.167795 467:-0.0774656 530:0.15253 598:0.409391 612:0.102314 642:-0.165311 830:0.0563419 834:0.337721 848:0.0505548 852:0.103013 863:0.153461 
500 26:0.063313 31:0.182773 99:-0.112086 224:0.0495188 467:-0.19887 530:-0.630491 598:0.45801 612:-0.715239 642:-0.157723 830:-0.687172 834:-0.738533 848:0.228973 852:0.307817 863:0.00452709 
500 26:-0.0865339 31:0.0152035 99:-0.0130049 224:-0.255332 467:-0.0687939 530:-0.0641826 598:-0.249916 612:-0.284741 642:0.593497 830:-0.214924 834:-0.183728 848:-0.0753308 852:-0.149669 863:-0.0518314 
500 26:-0.0467083 31:0.178643 99:-0.262689 224:-0.0936812 467:-0.00592369 530:-0.370597 598:-0.0847451 612:0.0350512 642:0.392121 830:-0.276969 834:-0.313948 848:0.0824573 852:0.0314016 863:-0.12562 
500 26:0.266037 31:0.00309386 99:-0.0130049 224:0.655178 467:-0.287756 530:-0.0756259 598:1 612:-0.175321 642:-0.596452 830:0.0314244 834:0.167989 848:0.399454 852:0.613614 863:0.0176968 
500 26:0.449385 31:0.171406 99:-0.313419 224:0.411209 467:0.562076 530:0.125924 598:0.321767 612:0.155961 642:-0.36881 830:0.0864769 834:0.213784 848:0.086113 852:0.20739 863:-0.316 
500 26:0.120853 31:0.181971 99:-0.458473 224:0.053343 467:0.0721221 530:0.0946293 598:-0.194699 612:0.313378 642:-0.165311 830:0.241379 834:0.111836 848:0.237957 852:0.356432 863:-0.245891 
500 26:0.0733635 31:0.0120959 99:-0.0724535 224:0.0463498 467:0.200031 530:-0.256301 598:-0.178397 612:-0.0682104 642:-0.0291718 830:-0.21193 834:-0.232107 848:0.0517825 852:0.0555528 863:-0.0450529 
500 26:-0.507976 31:0.188026 99:-0.177876 224:-0.549731 467:0.0461069 530:0.332757 598:-0.235539 612:0.242736 642:-0.142547 830:0.358933 834:0.279351 848:-0.399393 852:-0.48244 863:-0.0834967 
500 26:-0.0883549 31:0.0167272 99:-0.093855 224:0.0716769 467:0.0222595 530:0.476438 598:0.249013 612:0.548701 642:-0.323063 830:0.6151 834:0.63294 848:0.119096 852:0.127511 863:0.0496526 
500 26:-0.370249 31:-0.338261 99:0.325456 224:-0.556762 467:-0.190198 530:0.00619996 598:-0.315551 612:-0.190592 642:-0.0406496 830:-0.0253629 834:-0.408186 848:-0.516385 852:-0.380185 863:0.432348 
500 26:0.346902 31:0.175877 99:-0.316589 224:0.518909 467:0.440672 530:-0.313567 598:0.367761 612:-0.0193717 642:0.209351 830:-0.153062 834:0.0458693 848:0.421729 852:0.539386 863:-0.338466 
500 26:0.0697715 31:0.182773 99:-0.21196 224:0.129995 467:-0.0189313 530:0.049783 598:-0.17282 612:-0.117366 642:0.0699195 830:0.0513944 834:-0.00370551 848:0.0765099 852:0.136112 863:-0.209287 
500 26:0.0949208 31:-0.00352232 99:0.0638821 224:0.048632 467:0.252061 530:0.188322 598:-0.025748 612:0.230101 642:-0.000902542 830:0.205757 834:0.331058 848:0.134954 852:0.0737052 863:-0.0985063 
500 26:-0.180975 31:0.179987 99:-0.131109 224:-0.339686 467:0.215206 530:-0.160789 598:-0.0205822 612:-0.0468316 642:0.166668 830:-0.0450823 834:-0.285463 848:-0.28171 852:-0.251905 863:-0.201927 
500 26:0.0136996 31:0.170283 99:-0.157267 224:-0.268396 467:0.145832 530:0.00777905 598:-0.189229 612:0.255228 642:0.233063 830:0.000929673 834:0.08385 848:-0.385507 852:-0.553811 863:-0.135982 
500 26:-0.189814 31:0.179946 99:-0.369697 224:-0.113273 467:0.0287633 530:0.0981591 598:-0.170675 612:0.188716 642:0.024391 830:0.201916 834:-0.0825361 848:-0.152889 852:-0.136109 863:-0.0842714 
500 26:0.0535574 31:0.00640194 99:0.0718086 224:0.297701 467:0.271573 530:-0.23941 598:-0.337189 612:0.0231229 642:-0.0631637 830:0.00389817 834:-0.0906768 848:0.306126 852:0.169848 863:-0.110804 
500 26:0.0997158 31:0.196768 99:-0.223849 224:0.0335565 467:0.152336 530:0.0523096 598:0.0809705 612:0.0721615 642:0.176153 830:-0.0614092 834:0.10344 848:0.0765099 852:-0.0645552 863:-0.259932 
500 26:0.120433 31:0.20575 99:-0.215923 224:0.297646 467:-0.099145 530:0.209227 598:0.154836 612:0.125081 642:-0.0406496 830:0.122215 834:0.287461 848:0.296881 852:0.22492 863:-0.205704 
500 26:-0.0106668 31:0.00862742 99:0.0290055 224:0.0425353 467:-0.250901 530:0.303702 598:-0.134897 612:0.300456 642:-0.385365 830:0.390399 834:0.146618 848:-0.0552618 852:-0.036627 863:0.0287361 
500 26:-0.199139 31:-0.13759 99:-0.0439182 224:-0.0766274 467:-0.331115 530:-0.533851 598:0.0508268 612:-0.193464 642:0.22674 830:-0.325607 834:-0.405901 848:0.0133465 852:0.0857723 863:0.114242 
500 26:-0.0662317 31:0.178383 99:-0.280127 224:-0.120262 467:0.0959695 530:-0.263395 598:-0.004422 612:-0.351534 642:0.396897 830:-0.363658 834:-0.460056 848:-0.0252641 852:0.043771 863:-0.111289 
500 26:-0.153452 31:0.00864748 99:0.123331 224:0.0469 467:-0.0384427 530:0.0215961 598:-0.253041 612:0.0904682 642:-0.203251 830:0.190915 834:-0.0455843 848:0.189972 852:0.0836178 863:-0.107125 
500 26:0.270574 31:-0.160847 99:0.112234 224:0.393373 467:0.106809 530:-0.110653 598:0.242871 612:0.0506243 642:0.707318 830:-0.160854 834:0.171805 848:0.589166 852:0.506416 863:0.114726 
500 26:-0.0846466 31:-0.32128 99:0.268385 224:0.102061 467:-0.0579542 530:-0.298881 598:0.206407 612:-0.139765 642:-0.294308 830:-0.00203886 834:-0.374717 848:0.0786877 852:0.142318 863:0.334834 
500 26:-0.173892 31:-0.323866 99:0.373808 224:-0.532439 467:-0.34629 530:0.238011 598:-0.344931 612:0.344392 642:-0.112194 830:0.23663 834:0.085849 848:-0.329695 852:-0.546571 863:0.323601 
500 26:0.0677166 31:-0.319796 99:0.44039 224:-0.266734 467:0.134992 530:0.152108 598:-0.239914 612:0.328885 642:0.160977 830:0.050207 834:0.278551 848:0.0247814 852:-0.157649 863:0.257462 
500 26:-0.0367579 31:-0.150602 99:0.120953 224:0.096782 467:-0.183695 530:0.147134 598:0.332209 612:0.0726999 642:-0.189024 830:0.0885008 834:0.252764 848:-0.0203451 852:-0.013354 863:0.283027 
500 26:-0.567277 31:0.182433 99:-0.167571 224:-0.521132 467:0.0461069 530:0.203271 598:-0.0626984 612:-0.0691226 642:-0.521951 830:0.26394 834:-0.0764686 848:-0.533887 852:-0.322113 863:-0.121553 
500 26:0.216263 31:-0.134603 99:0.239057 224:0.147842 467:-0.259572 530:-0.0822294 598:0.115247 612:-0.121673 642:0.391148 830:-0.171244 834:-0.107386 848:0.109543 852:0.118528 863:0.259109 
500 26:0.0712912 31:-0.148256 99:0.141562 224:0.425454 467:0.0179237 530:-0.330983 598:0.117606 612:-0.469563 642:0.305596 830:-0.262221 834:-0.281494 848:0.37945 852:0.444354 863:0.136999 
500 26:0.0182866 31:0.206391 99:-0.0708682 224:0.0917938 467:-0.636794 530:-0.423709 598:0.155813 612:-0.240666 642:0.138212 830:-0.30557 834:-0.334938 848:0.216517 852:0.399746 863:-0.0456339 
500 26:0.108621 31:0.0163062 99:-0.0526373 224:0.196615 467:-0.0839695 530:-0.0653857 598:0.321877 612:-0.141775 642:0.479676 830:-0.164318 834:0.081851 848:0.367278 852:0.275407 863:0.0374513 
500 26:0.222344 31:-0.138352 99:0.185157 224:0.299072 467:-0.235725 530:-0.0303448 598:-0.12177 612:-0.164748 642:0.170733 830:-0.138591 834:0.210357 848:0.364556 852:0.158425 863:0.168664 
500 26:0.0029065 31:0.0152236 99:-0.093855 224:-0.0463722 467:0.28458 530:0.00118401 598:-0.18998 612:-0.0803726 642:0.0110003 830:0.00180273 834:0.0345809 848:-0.085626 852:-0.136109 863:-0.118261 
500 26:-0.159907 31:0.00792568 99:0.120953 224:-0.14747 467:0.0179237 530:0.00533862 598:-0.469837 612:0.15831 642:-0.306725 830:0.204678 834:-0.0260942 848:0.0133468 852:-0.0775318 863:0.0233132 
500 26:0.227517 31:-0.00199857 99:-0.181046 224:0.595118 467:0.418992 530:0.0809438 598:0.292706 612:-0.016859 642:-0.000902562 830:0.145397 834:0.395025 848:0.185775 852:0.363328 863:-0.207931 
500 26:0.0752365 31:0.186302 99:-0.08038 224:-0.0476361 467:-0.153344 530:-0.235037 598:0.201358 612:-0.4222 642:0.129457 830:-0.429049 834:-0.118355 848:-0.178908 852:-0.157171 863:-0.0484422 
500 26:-0.284893 31:0.00814624 99:0.141562 224:-0.550011 467:-0.0774656 530:-0.0501488 598:-0.0860738 612:-0.11918 642:-0.047496 830:-0.125467 834:-0.115733 848:-0.343451 852:-0.370619 863:-0.0634517 
500 26:0.226355 31:-0.314202 99:0.330212 224:0.225228 467:-0.185863 530:0.112789 598:0.0368488 612:0.26492 642:-0.00406426 830:0.169764 834:0.164309 848:0.201203 852:0.103012 863:0.375796 
500 26:-0.108996 31:0.176518 99:-0.282505 224:-0.286393 467:-0.0709618 530:0.0580314 598:-0.0793003 612:0.167432 642:-0.203251 830:0.0185661 834:-0.0317384 848:-0.24994 852:-0.179918 863:-0.147215 
500 26:-0.0285012 31:0.0140406 99:0.136806 224:-0.35278 467:-0.116489 530:0.100946 598:-0.384312 612:0.0759305 642:-0.160568 830:0.133029 834:-0.267472 848:-0.364408 852:-0.249966 863:0.148716 
500 26:0.432331 31:0.0103917 99:0.172475 224:0.307908 467:-0.0709618 530:-0.00895935 598:0.204219 612:-0.138903 642:0.34309 830:-0.249019 834:0.0410717 848:0.413562 852:0.18059 863:0.115211 
500 26:-0.0730583 31:-0.150301 99:0.263629 224:-0.0916212 467:-0.413496 530:-0.323416 598:-0.335949 612:-0.238881 642:0.275996 830:-0.282954 834:-0.521001 848:0.0657915 852:-0.0586762 863:0.306946 
500 26:0.351306 31:0.186503 99:-0.278542 224:0.0617755 467:-0.0362748 530:-0.0790712 598:0.0173145 612:-0.0170641 642:-0.0569098 830:-0.161491 834:-0.0483686 848:-0.0916662 852:0.00770276 863:-0.247053 
500 26:0.190692 31:0.184959 99:-0.242873 224:0.37832 467:0.0938015 530:-0.369292 598:0.418283 612:-0.581663 642:-0.251176 830:-0.40482 834:-0.225572 848:0.0597734 852:0.191206 863:-0.228944 
500 26:-0.184115 31:0.195505 99:-0.194521 224:-0.253529 467:-0.159847 530:-0.0255677 598:-0.0587087 612:-0.106217 642:0.292206 830:-0.0945867 834:0.0543356 848:-0.305673 852:-0.11238 863:-0.207156 
500 26:-0.202342 31:0.0302202 99:-0.0478814 224:-0.12661 467:0.0504427 530:0.0639087 598:-0.137682 612:-0.269301 642:-0.0997776 830:0.102669 834:-0.233262 848:-0.191587 852:-0.00982789 863:0.0137265 
500 26:0.18277 31:0.0139805 99:0.0448585 224:-0.0712865 467:0.128489 530:0.341255 598:-0.555362 612:0.543631 642:-0.223946 830:0.352024 834:0.351169 848:0.124724 852:-0.057785 863:-0.11371 
500 26:-0.014679 31:0.0139204 99:0.0607114 224:-0.0256369 467:-0.140336 530:0.153582 598:0.154142 612:0.162618 642:0.26468 830:0.115712 834:0.22178 848:0.124064 852:0.201277 863:-0.0203598 
500 26:0.189475 31:0.183054 99:-0.0700756 224:0.278228 467:-0.417832 530:0.0334393 598:0.343148 612:0.216461 642:-0.146341 830:0.127463 834:0.147818 848:-0.0223871 852:0.0525869 863:-0.0600625 
500 26:-0.0959002 31:-0.151003 99:0.134428 224:-0.165861 467:-0.0362748 530:0.186217 598:0.152926 612:-0.0498827 642:-0.127371 830:0.105817 834:0.0738551 848:-0.323343 852:-0.248673 863:0.0834483 
500 26:0.142137 31:0.00892816 99:-0.142207 224:0.297765 467:-0.0210993 530:-0.508585 598:0.106131 612:-0.468422 642:-0.0514898 830:-0.429505 834:-0.513847 848:0.255654 852:0.29437 863:-0.0204566 
500 26:0.114614 31:0.204807 99:-0.207996 224:0.267005 467:-0.131664 530:-0.236586 598:0.345883 612:-0.282664 642:0.180895 830:-0.292211 834:-0.0111018 848:0.25123 852:0.436596 863:-0.126686 
500 26:-0.0555831 31:0.00269289 99:0.0282128 224:-0.303646 467:-0.292091 530:0.174847 598:-0.277108 612:0.194493 642:0.0699195 830:0.0697992 834:-0.0668735 848:-0.261087 852:-0.194886 863:0.0160505 
500 26:-0.00428166 31:0.0220202 99:-0.00983427 224:0.00512374 467:-0.55658 530:0.266751 598:0.0559925 612:0.134081 642:-0.3313 830:0.337856 834:0.155314 848:0.00415793 852:0.0234955 863:0.164113 
500 26:-0.121637 31:-0.00292087 99:0.0686379 224:-0.0602218 467:0.15884 530:0.364339 598:-0.0802012 612:0.0420094 642:-0.339837 830:0.381493 834:0.129827 848:-0.362366 852:-0.213504 863:-0.149732 
500 26:0.142784 31:0.179626 99:-0.179461 224:0.0592604 467:0.000580173 530:-0.0400582 598:0.100876 612:-0.0438861 642:0.158298 830:-0.0872528 834:-0.0811251 848:0.131537 852:0.0391249 863:-0.200668 
500 26:-0.109677 31:-0.145109 99:0.154244 224:-0.347858 467:-0.0774656 530:0.041605 598:0.0682272 612:0.00868339 642:-0.251176 830:0.0263964 834:0.00294374 848:-0.333994 852:-0.413083 863:0.252233 
