svm_type c_svc
kernel_type rbf
gamma 1
nr_class 2
total_sv 445
rho -1.38769
label 1 0
probA -0.638326
probB 0.0759692
nr_sv 207 238
SV
8.644334908634061 44:0.157205 45:0.723104 370:-0.204782 454:0.060717 487:-0.0804245 491:-0.0597537 499:0.0817494 602:0.0687545 764:-0.266082 792:0.0820294 813:0.53505 909:0.410482 982:-0.0669494 1075:0.106225 
1.127001403259279 44:0.319541 45:-0.390092 370:0.407317 454:-0.0930235 487:-0.684788 491:-0.407275 499:-0.143482 602:0.23699 764:-0.301512 792:-0.34308 813:0.475978 909:0.760783 982:0.169105 1075:0.577618 
72.97208666578233 44:-0.0855577 45:-0.0633486 370:-0.300068 454:0.0938424 487:0.225236 491:-0.159772 499:-0.0102922 602:-0.0402728 764:-0.168648 792:0.195711 813:0.295811 909:-0.072679 982:-0.164664 1075:0.0648264 
5.311186021380299 44:0.166306 45:0.921857 370:-0.20278 454:0.114577 487:0.054717 491:0.0633805 499:-0.171636 602:-0.131573 764:-0.445765 792:0.257892 813:-0.0783825 909:-0.188152 982:0.100951 1075:-0.0572723 
9.5896885512018 44:0.206729 45:0.863436 370:-0.146306 454:0.0434501 487:0.198349 491:0.0295963 499:-0.0546888 602:-0.154707 764:-0.518184 792:0.290239 813:-0.0926959 909:-0.257283 982:0.146455 1075:-0.0667048 
0.5575183156701073 44:-1 45:-0.741285 370:-1 454:1 487:-0.243514 491:-0.38337 499:0.0806666 602:-1 764:-0.0357831 792:-0.124364 813:0.0729308 909:0.0374757 982:-0.470106 1075:0.354614 
20.72099430998854 44:0.0188702 45:0.241688 370:-0.215291 454:-0.152856 487:-0.166038 491:-0.214449 499:0.0535955 602:-0.229317 764:-0.0653085 792:0.0598315 813:0.516647 909:0.262343 982:-0.224112 1075:0.0857876 
0.4417386933467362 44:0.142633 45:-0.164237 370:0.04044 454:-0.148497 487:0.0692218 491:-0.123766 499:0.245259 602:0.0113717 764:-0.407804 792:0.123119 813:-0.211293 909:0.315521 982:-0.199057 1075:0.227275 
48.08213072386087 44:-0.0363708 45:0.0955885 370:-0.231493 454:0.0229876 487:-0.421462 491:0.00870358 499:-0.0546887 602:0.203245 764:0.103725 792:-0.0616666 813:0.418498 909:0.345149 982:0.00394463 1075:0.20579 
67.32170916960635 44:0.176795 45:0.0430281 370:0.378245 454:0.159409 487:-0.265448 491:-0.0384164 499:-0.00812652 602:-0.0439617 764:0.0097704 792:-0.124364 813:0.113826 909:0.260064 982:0.0804516 1075:0.191117 
11.9445311839902 44:-0.190646 45:0.0092592 370:-0.0558971 454:-0.0645934 487:0.160495 491:0.526578 499:-0.402281 602:0.0878821 764:0.102987 792:0.203409 813:-0.391233 909:-0.50722 982:0.0890744 1075:-0.307234 
12.32186663426245 44:-0.286555 45:0.224664 370:-0.47978 454:0.612627 487:0.411321 491:-0.0539749 499:0.445585 602:0.00957852 764:0.455816 792:-0.235412 813:-0.0109049 909:-0.0901518 982:0.0500684 1075:0.161772 
80.34709042085011 44:-0.0646331 45:0.146195 370:-0.0967089 454:-0.199384 487:-0.076533 491:0.314094 499:0.00703326 602:0.00527477 764:-0.197878 792:0.219515 813:-0.176532 909:0.0511501 982:0.048531 1075:-0.0499358 
20.18896602514765 44:-0.067697 45:-0.284754 370:-0.192871 454:-0.0395314 487:0.247524 491:0.185626 499:0.0557612 602:-0.425455 764:0.0226773 792:0.0826434 813:-0.266502 909:-0.0711596 982:-0.525455 1075:-0.256403 
196.0020403910914 44:0.040812 45:-0.200192 370:0.135025 454:-0.0852969 487:0.0518868 491:-0.296242 499:0.0146132 602:0.32877 764:0.181229 792:-0.163682 813:-0.0272631 909:0.178018 982:0.194419 1075:0.178017 
12.05598891355788 44:-0.00426671 45:-0.0740467 370:-0.0271211 454:0.263082 487:-0.626651 491:-0.174442 499:0.220353 602:-0.120814 764:0.169208 792:-0.311393 813:0.567766 909:0.974171 982:0.341088 1075:0.348326 
3.407106098227808 44:0.0358356 45:-0.112467 370:0.198082 454:-0.101939 487:-0.210259 491:-0.482944 499:-0.425021 602:0.431309 764:0.403878 792:0.258196 813:0.130185 909:0.174979 982:-0.0694342 1075:0.568418 
2.422083367670018 44:-0.0890901 45:-0.105862 370:-0.226339 454:0.0525026 487:0.445283 491:0.0611578 499:0.318892 602:-0.400239 764:0.0705086 792:0.0505672 813:-0.32989 909:-0.207144 982:-0.485875 1075:-0.173083 
9.301037162808559 44:0.144291 45:-0.38713 370:0.131084 454:-0.192764 487:-0.135613 491:0.0744937 499:-0.115328 602:-0.450829 764:-0.328085 792:0.199749 813:-0.0661139 909:-0.0597643 982:-0.17927 1075:-0.102339 
3.298092862338615 44:-0.584824 45:-0.7104 370:-0.511308 454:0.593014 487:0.222406 491:-0.577184 499:0.552786 602:-0.414516 764:0.256519 792:-0.107892 813:0.119961 909:0.0200029 982:-0.431669 1075:0.476189 
15.36797167736326 44:0.319371 45:0.0220039 370:0.30055 454:-0.142504 487:0.0607312 491:-0.101095 499:-0.141316 602:-0.0878527 764:-0.381231 792:-0.00534533 813:0.0463487 909:-0.321097 982:0.211502 1075:0.136618 
31.64624015584258 44:0.129288 45:0.342576 370:0.0314319 454:-0.0199176 487:-0.0970518 491:0.280754 499:-0.355719 602:0.173273 764:0.321053 792:0.21326 813:-0.23583 909:0.0405145 982:-0.259254 1075:-0.142689 
29.43390795718925 44:0.124884 45:-0.307499 370:0.203994 454:0.0855066 487:-0.34434 491:-0.186889 499:-0.166222 602:-0.0939795 764:0.126976 792:-0.182279 813:0.0974681 909:0.329955 982:0.0577558 1075:0.0669226 
34.63518125470526 44:0.0649126 45:0.505606 370:0.156701 454:-0.0787589 487:-0.0991745 491:0.0100371 499:-0.00487797 602:-0.0881516 764:0.0439356 792:-0.149336 813:0.324438 909:0.219801 982:-0.0831782 1075:0.0255243 
14.92346144720646 44:-0.0736109 45:-0.400759 370:-0.112903 454:-0.0876743 487:0.0716982 491:0.0482665 499:0.26475 602:-0.0518798 764:-0.0840975 792:0.0918403 813:-0.0640691 909:-0.0681209 982:-0.212931 1075:0.0616823 
4.224373372678387 44:0.0494861 45:-0.223588 370:-0.394203 454:0.327527 487:0.0405661 491:0.267863 499:-0.0741799 602:0.0118841 764:0.127451 792:0.0553784 813:-0.276726 909:-0.14333 982:0.0379884 1075:-0.127492 
87.18117854318791 44:0.0744839 45:-0.156376 370:-0.199662 454:0.239588 487:-0.0744104 491:0.182958 499:-0.0655172 602:-0.205469 764:0.0500679 792:0.0898041 813:-0.184711 909:-0.0339349 982:-0.0380399 1075:-0.00329729 
14.95417932975694 44:0.181166 45:0.388485 370:-0.211788 454:0.193383 487:-0.0563678 491:0.00825911 499:0.0438499 602:-0.0271823 764:-0.0889289 792:-0.137647 813:-0.182666 909:-0.0149427 982:-0.0293671 1075:-0.0504599 
72.66849852124747 44:-0.155003 45:-0.0316263 370:0.24012 454:-0.211697 487:0.195519 491:0.326096 499:0.229016 602:-0.0205076 764:0.212231 792:-0.0884693 813:-0.14995 909:-0.0270977 982:-0.0692272 1075:-0.230726 
19.63364831355396 44:-0.272289 45:-0.112281 370:-0.295864 454:0.30262 487:0.119458 491:-0.164662 499:-0.156476 602:0.0185446 764:0.247661 792:-0.0147912 813:0.0483935 909:-0.321097 982:0.370373 1075:-0.213433 
9.372731422357667 44:0.28226 45:-0.0620462 370:-0.150164 454:0.378599 487:-0.396698 491:-0.0797574 499:0.184619 602:-0.225332 764:0.169553 792:0.0854643 813:0.228334 909:0.646745 982:-0.100183 1075:0.312168 
27.31660395054212 44:-0.38518 45:0.190058 370:0.130521 454:0.117379 487:-0.352123 491:-0.0868699 499:-0.0471089 602:-0.230456 764:0.298276 792:0.227834 813:0.0729308 909:0.241832 982:0.203449 1075:-0.0143019 
120.8947981778143 44:-0.166827 45:-0.0942338 370:0.0719685 454:0.00165762 487:-0.253066 491:-0.0161899 499:-0.0730971 602:0.146939 764:0.128969 792:0.0129325 813:0.185393 909:-0.103826 982:0.140779 1075:0.140811 
41.81822871173748 44:0.042618 45:0.306947 370:-0.376437 454:0.171862 487:-0.109788 491:-0.222451 499:-0.0113751 602:0.0831002 764:0.330333 792:0.00929587 813:0.406229 909:-0.308942 982:-0.0692272 1075:0.144479 
3.126572035261835 44:-0.118813 45:0.0688432 370:-0.101438 454:0.13307 487:0.0801888 491:0.00203559 499:0.236596 602:-0.517985 764:-0.370602 792:0.0724418 813:0.136319 909:0.0116463 982:-0.406558 1075:-0.196664 
45.55444934789721 44:0.360519 45:0.234292 370:-0.448251 454:0.330679 487:-0.128184 491:0.031819 499:-0.0860912 602:0.143173 764:-0.248366 792:-0.0834512 813:-0.217427 909:-0.00202805 982:0.0833801 1075:-0.0913341 
21.20077609418153 44:-0.101256 45:-0.391502 370:-0.00460073 454:0.131389 487:-0.166392 491:-0.170441 499:0.304815 602:0.220409 764:0.222354 792:0.00679945 813:0.0361249 909:0.0215223 982:-0.0484023 1075:0.139763 
25.97820753135911 44:-0.0104907 45:0.0574939 370:0.0782741 454:-0.119948 487:-0.266509 491:0.211853 499:-0.229026 602:-0.193772 764:-0.131446 792:0.252245 813:-0.0967855 909:0.449226 982:-0.183113 1075:-0.238062 
43.14715235440876 44:0.106809 45:-0.365222 370:0.119261 454:-0.0959211 487:0.028184 491:-0.214449 499:0.100158 602:-0.335615 764:0.117011 792:0.174245 813:0.244692 909:0.111925 982:-0.290736 1075:0.145003 
53.33409506826253 44:0.0576887 45:0.201035 370:0.145535 454:-0.310202 487:-0.0910377 491:-0.0370828 499:-0.18463 602:0.057278 764:0.151999 792:0.0929866 813:-0.0149945 909:-0.259562 982:0.00274882 1075:-0.136925 
66.4406074932517 44:0.115804 45:0.316575 370:-0.199176 454:0.0683445 487:0.252477 491:0.337654 499:-0.148896 602:0.344192 764:0.0545648 792:-0.0584786 813:-0.327845 909:-0.207903 982:0.124379 1075:-0.342344 
326.787411335951 44:0.109066 45:-0.161632 370:-0.12596 454:-0.0362624 487:-0.121816 491:0.00336926 499:-0.0752627 602:0.159611 764:0.0586984 792:-0.0469073 813:-0.0129497 909:-0.210942 982:0.0549086 1075:-0.0819016 
0.3337348392324937 44:0.173219 45:0.462674 370:-0.337902 454:0.344339 487:-0.104127 491:0.102499 499:-0.0611858 602:0.111792 764:-0.0281909 792:-0.187517 813:-0.221517 909:-0.0612837 982:0.0716661 1075:-0.190376 
7.725767711048567 44:-0.162845 45:0.127543 370:-0.0449497 454:-0.105728 487:-0.112618 491:0.218965 499:-0.175967 602:0.00569321 764:-0.0357831 792:0.147324 813:-0.178576 909:0.193212 982:-0.0601163 1075:0.039149 
23.5281835356375 44:-0.0659076 45:0.167127 370:-0.0926803 454:0.0694342 487:-0.16533 491:0.0322635 499:-0.0351976 602:-0.520216 764:-0.325133 792:0.0777787 813:0.0954233 909:-0.198787 982:-0.164891 1075:-0.016922 
0.8134496322929573 44:0.246748 45:0.105031 370:-0.205032 454:0.197235 487:-0.266509 491:-0.0922042 499:0.0460156 602:0.223995 764:-0.104113 792:-0.0936983 813:0.510512 909:0.759179 982:0.133165 1075:0.320552 
45.79902141393892 44:0.125304 45:0.356856 370:0.107438 454:-0.404838 487:0.104245 491:-0.187778 499:-0.14673 602:0.276767 764:-0.155361 792:0.121643 813:-0.227651 909:-0.150927 982:-0.352234 1075:0.162296 
25.58159519516267 44:0.0983251 45:-0.250985 370:0.146641 454:-0.15515 487:-0.192571 491:-0.081091 499:0.303732 602:0.0226973 764:-0.195221 792:0.116582 813:-0.019084 909:0.24487 982:-0.0536427 1075:0.215747 
10.76361061457379 44:-0.113382 45:-0.265435 370:0.282158 454:0.110841 487:0.104363 491:-0.091167 499:0.197253 602:-0.539742 764:-0.150932 792:-0.0457266 813:-0.165626 909:-0.318311 982:0.0936299 1075:0.069892 
13.26865192222261 44:-0.164137 45:-0.00141101 370:0.0229242 454:-0.383862 487:0.398797 491:0.512442 499:-0.0603195 602:-0.203017 764:0.0173628 792:0.0815571 813:-0.5724 909:-0.428517 982:-0.212724 1075:-0.729706 
27.97809604813514 44:-0.12181 45:-0.225356 370:-0.194272 454:0.0868687 487:0.0356132 491:-0.101984 499:0.0135303 602:0.0392661 764:0.0557458 792:0.015908 813:0.209931 909:0.241072 982:-0.13642 1075:0.235136 
4.176723313915479 44:-0.114655 45:-0.735471 370:-0.409967 454:0.593714 487:-0.308255 491:-0.618525 499:0.287489 602:-0.269394 764:-0.438173 792:0.133105 813:0.238558 909:-0.0924309 982:-0.253397 1075:0.360903 
30.7453226992853 44:-0.0381691 45:-0.285033 370:0.107438 454:-0.316576 487:0.144929 491:0.0851623 499:-0.195458 602:-0.0433213 764:0.136941 792:0.0918886 813:-0.291039 909:-0.112183 982:-0.22155 1075:-0.260595 
35.28081254465611 44:-0.00363206 45:0.313645 370:-0.0506423 454:0.110841 487:0.0218162 491:0.309204 499:-0.122908 602:-0.444503 764:-0.1716 792:-0.100749 813:-0.28695 909:-0.0703999 982:-0.0100064 1075:-0.229154 
0.01678528129798448 44:-0.276121 45:-0.485832 370:-0.284303 454:0.0212714 487:-0.0457547 491:0.28031 499:-0.145648 602:-0.0201888 764:0.0545648 792:0.0129325 813:0.173125 909:0.0503904 982:-0.213862 1075:0.0281444 
22.71845285293347 44:0.328946 45:0.163592 370:-0.337902 454:0.149252 487:0.0617925 491:0.109167 499:-0.16189 602:-0.143741 764:-0.480879 792:0.193904 813:0.0606621 909:0.210684 982:-0.170301 1075:-0.124348 
0.1205321839855929 44:-0.100491 45:0.0274926 370:-0.246819 454:0.160965 487:0.30059 491:0.161621 499:-0.0568544 602:-0.0300714 764:0.206326 792:0.142483 813:-0.139726 909:-0.163842 982:0.160823 1075:-0.211861 
19.14431070681713 44:-0.0445679 45:-0.0697209 370:-0.203906 454:0.198286 487:0.201533 491:0.0629359 499:-0.0795941 602:-0.141948 764:0.19673 792:0.126957 813:-0.180621 909:-0.0871131 982:0.0116319 1075:-0.0724691 
53.81653137291114 44:-0.0148624 45:0.0551217 370:-0.11983 454:-0.0444348 487:0.0034199 491:0.169623 499:-0.327565 602:0.426201 764:-0.0402119 792:0.179913 813:-0.37283 909:-0.112183 982:0.102171 1075:-0.119108 
22.37677069521948 44:-0.427429 45:0.411091 370:-0.486536 454:0.342938 487:-0.0319574 491:0.0811615 499:-0.19221 602:-0.33395 764:0.142635 792:-0.0159719 813:-0.211293 909:-0.277795 982:-0.0791515 1075:-0.156314 
19.49368486154556 44:-0.0226948 45:0.232013 370:0.319346 454:-0.270371 487:0.34375 491:0.611483 499:-0.2496 602:0.238696 764:0.197241 792:-0.154118 813:-0.511875 909:-0.706258 982:0.247376 1075:-0.454486 
79.09842601088175 44:-0.117189 45:-0.258752 370:0.279685 454:-0.280666 487:-0.250943 491:-0.0353047 499:-0.152145 602:-0.156979 764:0.123654 792:0.0366612 813:-0.19289 909:0.0108866 982:-0.0408227 1075:-0.0284507 
25.7854198058075 44:0.206854 45:-0.0769306 370:-0.377312 454:0.0144066 487:-0.122524 491:-0.017079 499:0.114235 602:0.177244 764:0.0970815 792:0.162024 813:0.248781 909:0.53811 982:0.0423811 1075:0.0118996 
4.742494087445168 44:0.106108 45:0.926416 370:-0.152672 454:-0.0223693 487:-0.0273585 491:0.222966 499:-0.195458 602:0.246283 764:-0.321442 792:0.0600086 813:-0.147905 909:-0.0643224 982:-0.172863 1075:-0.212909 
41.15840888259041 44:-0.0389291 45:-0.0551622 370:-0.142998 454:-0.0127853 487:0.394694 491:0.352768 499:0.0514298 602:-0.0127552 764:0.0801714 792:0.208733 813:0.0483935 909:-0.188152 982:0.128106 1075:-0.514225 
28.9991284676985 44:-0.0570523 45:-0.158655 370:0.0441492 454:-0.15606 487:0.164741 491:-0.0139674 499:0.110986 602:0.016013 764:-0.198347 792:0.167432 813:-0.164263 909:-0.396306 982:-0.0564987 1075:-0.0425995 
17.80400974062532 44:0.00268947 45:0.15694 370:-0.105587 454:0.157639 487:-0.200708 491:-0.440269 499:0.128312 602:-0.123025 764:-0.357455 792:0.0763121 813:0.310125 909:0.330715 982:0.0790644 1075:0.59986 
34.24137877951897 44:-0.27089 45:-0.375455 370:-0.161342 454:0.0781514 487:-0.350071 491:0.231501 499:-0.224912 602:0.180651 764:0.150227 792:-0.0580535 813:-0.00640644 909:-0.0565736 982:0.233026 1075:0.149824 
45.26915748769614 44:-0.0142485 45:0.208477 370:0.0854807 454:-0.384174 487:-0.0744103 491:0.304759 499:-0.130488 602:-0.400555 764:-0.0965211 792:0.103957 813:0.338751 909:-0.0058265 982:-0.232898 1075:-0.220769 
16.52633571823156 44:0.203372 45:0.137609 370:-0.453506 454:0.400689 487:-0.154976 491:0.43468 499:-0.461116 602:0.397112 764:-0.124359 792:-0.025654 813:0.0535735 909:0.192199 982:0.249654 1075:-0.116802 
2.369244505832443 44:0.0272916 45:0.320203 370:0.471882 454:-0.224314 487:-0.0485848 491:0.427893 499:-0.261512 602:0.167664 764:-0.072146 792:0.201147 813:-0.0702034 909:-0.120539 982:0.188035 1075:-0.192472 
4.244418624655875 44:-0.269507 45:-0.510345 370:-0.50255 454:0.424662 487:0.724057 491:-0.301577 499:0.727123 602:0.0639726 764:-0.0239729 792:0.113201 813:-0.0436213 909:0.39149 982:-0.17628 1075:0.304308 
3.235380777169779 44:-0.248541 45:-0.371408 370:-0.541085 454:0.555421 487:1 491:-0.310023 499:0.845154 602:-0.0133348 764:-0.000352505 792:0.065499 813:-0.186756 909:0.190173 982:-0.381275 1075:0.216271 
5.614787795928176 44:-0.0126578 45:0.694219 370:-0.50185 454:0.4312 487:0.214976 491:0.258972 499:-0.0351976 602:-0.292757 764:0.198058 792:0.0949703 813:0.207886 909:-0.428213 982:-0.0867656 1075:-0.0436475 
21.55579231371645 44:-0.112012 45:-0.0119976 370:-0.108194 454:0.0851564 487:-0.15684 491:0.0678257 499:0.0557612 602:-0.0685543 764:-0.309104 792:0.0657015 813:0.0995129 909:-0.0574852 982:-0.19922 1075:-0.01535 
2.386744463093927 44:0.0145628 45:0.321654 370:-0.220984 454:0.332314 487:-0.606486 491:-0.383725 499:-0.134819 602:0.0194412 764:0.221088 792:0.136875 813:0.36656 909:0.34211 982:-0.0396168 1075:0.448311 
29.07127270131878 44:0.0531935 45:-0.265916 370:-0.269112 454:0.226146 487:-0.269693 491:-0.06331 499:0.190034 602:0.0354986 764:0.07534 792:0.00702026 813:0.267184 909:0.413521 982:-0.102979 1075:0.13033 
45.01136294434835 44:0.0254922 45:0.694359 370:0.177063 454:-0.219325 487:-0.03125 491:0.165177 499:0.00595043 602:-0.0232971 764:0.0151484 792:0.117747 813:0.16699 909:0.0822973 982:-0.00118025 1075:-0.151597 
50.46618892885545 44:-0.226649 45:-0.0317193 370:-0.183412 454:0.242907 487:0.0402123 491:-0.115764 499:-0.0871741 602:0.0264347 764:0.405327 792:-0.0555031 813:-0.19289 909:-0.280833 982:-0.121615 1075:0.0265723 
11.2920385846585 44:0.296038 45:0.143125 370:-0.295864 454:-0.17029 487:0.224528 491:0.193182 499:0.229016 602:-0.309016 764:-0.614482 792:0.255834 813:0.130185 909:0.213723 982:-0.522494 1075:-0.0876659 
12.54631270581643 44:0.217805 45:-0.164237 370:0.117828 454:-0.226754 487:-0.0146226 491:-0.16644 499:-0.171636 602:0.277419 764:-0.325669 792:0.222645 813:-0.37283 909:-0.150927 982:0.0237452 1075:0.0365289 
129.1334017056758 44:-0.143037 45:-0.259962 370:0.123898 454:-0.250668 487:-0.0949292 491:-0.137102 499:0.00161909 602:0.188161 764:0.167421 792:-0.0135966 813:-0.0906511 909:0.00177041 982:0.00258802 1075:0.313216 
13.10100841118704 44:-0.20984 45:0.386764 370:-0.298491 454:-0.0677262 487:0.196226 491:0.291423 499:-0.0536059 602:0.10955 764:0.219981 792:0.0515073 813:-0.291039 909:-0.559639 982:-0.381702 1075:-0.433001 
76.1426109845187 44:-0.0825831 45:0.208198 370:-0.133652 454:0.0261322 487:0.269104 491:0.0527118 499:0.170543 602:-0.0859295 764:0.0728192 792:-0.0101504 813:0.144498 909:-0.233733 982:0.0833801 1075:-0.145833 
30.82011209776994 44:0.153743 45:0.582214 370:-0.207584 454:0.342284 487:-0.143396 491:0.242525 499:-0.0882569 602:-0.352531 764:0.22286 792:0.217673 813:-0.0415765 909:0.256266 982:-0.143481 1075:0.0648265 
31.45717682996593 44:0.116632 45:-0.135491 370:0.00102932 454:0.0274825 487:0.213915 491:0.081606 499:0.00161907 602:-0.048402 764:-0.208507 792:-0.012784 813:-0.403502 909:0.219801 982:0.00479878 1075:0.0648264 
55.68441809927774 44:0.111702 45:0.742221 370:-0.180259 454:0.341848 487:0.0444576 491:0.313649 499:-0.203038 602:-0.0826723 764:0.206326 792:0.0338552 813:-0.270591 909:-0.0103846 982:-0.164891 1075:-0.0499358 
4.973124229729041 44:-0.031524 45:0.419928 370:-0.188858 454:-0.0199176 487:0.609788 491:0.497684 499:-0.0157064 602:-0.253372 764:-0.0647717 792:0.0464355 813:-0.55686 909:-0.440368 982:-0.283747 1075:-0.341296 
30.59981238728115 44:-0.194465 45:-0.0751165 370:0.119261 454:-0.117169 487:-0.00365563 491:-0.163329 499:0.282075 602:-0.290187 764:0.14137 792:-0.0184515 813:0.0667965 909:0.465939 982:-0.114782 1075:0.234088 
33.66541366589856 44:0.0275473 45:-0.058046 370:0.19598 454:0.0140797 487:-0.0920989 491:0.485237 499:-0.0611858 602:-0.00297397 764:0.0634224 792:-0.170271 813:-0.160173 909:0.143072 982:0.0943132 1075:-0.261119 
222.6736230089949 44:-0.0581595 45:0.180429 370:0.1902 454:-0.220959 487:-0.0807782 491:0.0607133 499:-0.203038 602:-0.0298722 764:-0.0490696 792:-0.0165033 813:0.117916 909:-0.154725 982:-0.01143 1075:-0.0415514 
13.78116868682465 44:0.0757934 45:-0.351082 370:-0.340424 454:0.246046 487:-0.141274 491:-0.51984 499:0.393608 602:0.0965852 764:0.00460769 792:-0.0646845 813:0.479841 909:0.674853 982:0.0235216 1075:0.535928 
31.70969314485449 44:0.0577385 45:-0.0615304 370:0.544896 454:-0.239592 487:0.292742 491:-0.107763 499:0.124276 602:-0.108415 764:0.0333065 792:0.0647906 813:-0.0471532 909:-0.0601096 982:0.10798 1075:0.251047 
0.4922157338786904 44:0.13628 45:0.45931 370:0.42779 454:-0.0535412 487:-0.0244102 491:-0.0010761 499:-0.39037 602:0.0831002 764:-0.278735 792:0.0395903 813:-0.119278 909:0.165863 982:0.0540951 1075:-0.159982 
8.317618248752193 44:0.158658 45:0.43006 370:0.502858 454:-0.248745 487:-0.251168 491:-0.0482768 499:-0.308861 602:-0.189468 764:-0.307417 792:0.0716389 813:0.000434217 909:0.484655 982:-0.0487277 1075:0.129854 
16.15674978819534 44:0.120854 45:-0.0487433 370:0.698034 454:-0.274897 487:0.508962 491:0.308315 499:0.0730867 602:0.0400631 764:-0.271143 792:-0.00230912 813:-0.143815 909:-0.33705 982:0.177092 1075:-0.433525 
15.63101848467398 44:0.136334 45:0.377182 370:0.481839 454:-0.070353 487:0.0338444 491:-0.00729946 499:-0.334062 602:-0.25095 764:-0.354658 792:0.0693449 813:0.146543 909:-0.0422915 982:0.115594 1075:-0.261643 
158.8926585694866 44:-0.209082 45:0.110938 370:-0.288357 454:0.0109042 487:-0.163561 491:-0.00418767 499:-0.112079 602:-0.157703 764:-0.0130063 792:0.0584146 813:-0.000681097 909:0.121041 982:-0.109901 1075:-0.0263546 
61.01425671181985 44:-0.0179762 45:0.15787 370:0.255885 454:0.125551 487:-0.111203 491:-0.0299703 499:-0.0622686 602:0.174554 764:0.119225 792:-0.286597 813:0.0811099 909:-0.0787565 982:0.35329 1075:-0.0184941 
7.381478056713441 44:0.139353 45:-0.101908 370:-0.309876 454:0.705793 487:0.497288 491:0.328319 499:0.229016 602:0.104619 764:0.413004 792:-0.176316 813:-0.511875 909:-0.210942 982:0.142601 1075:-0.116488 
5.096861427196431 44:0.112865 45:0.478349 370:-0.00816645 454:-0.135966 487:0.0161557 491:0.0282627 499:0.103406 602:0.122551 764:-0.117716 792:0.0773655 813:0.522781 909:-0.0179815 982:-0.0413251 1075:-0.209241 
1.434018066339323 44:-0.0159211 45:0.309133 370:0.184945 454:-0.287156 487:-0.319929 491:0.190071 499:-0.00487801 602:-0.0528851 764:-0.000352529 792:0.184518 813:0.477796 909:0.118762 982:-0.0618246 1075:-0.112819 
51.610309644574 44:0.0855881 45:0.0283297 370:-0.414971 454:0.171862 487:-0.0606131 491:0.230967 499:-0.275589 602:0.0360782 764:-0.029878 792:0.0296046 813:-0.201069 909:-0.201066 982:-0.0942821 1075:-0.437193 
24.17746864329487 44:-0.134475 45:0.114706 370:-0.41551 454:-0.096864 487:0.114151 491:-0.0384164 499:-0.0167893 602:0.201176 764:0.152271 792:0.0564528 813:-0.244009 909:-0.574073 982:-0.446453 1075:-0.205048 
19.67484320909015 44:-0.06652 45:0.190616 370:0.0719684 454:-0.0321762 487:-0.0372641 491:-0.0104111 499:-0.0492745 602:0.00509546 764:-0.381231 792:0.186466 813:0.17108 909:0.217522 982:-0.180551 1075:0.121946 
0.5908704586194159 44:-0.0333583 45:0.682777 370:0.223305 454:-0.053261 487:0.260967 491:0.1105 499:-0.31024 602:0.208625 764:0.240575 792:-0.0627292 813:-0.276726 909:-0.185872 982:0.175628 1075:-0.108627 
27.98660247640811 44:-0.00432539 45:-0.383502 370:-0.265386 454:0.155626 487:0.0554246 491:-0.294464 499:0.235513 602:0.129724 764:-0.0304685 792:0.051401 813:0.498244 909:-0.399345 982:0.0434061 1075:0.105177 
31.30723852479948 44:0.254023 45:-0.169772 370:0.611456 454:-0.207338 487:0.0211086 491:0.12517 499:-0.100168 602:0.164392 764:-0.13617 792:-0.370902 813:-0.225606 909:-0.0650821 982:0.169934 1075:-0.216053 
124.0049071743506 44:0.0769111 45:-0.104699 370:0.222604 454:-0.00902104 487:-0.00648581 491:0.102054 499:0.0828322 602:-0.179107 764:0.0764136 792:-0.025654 813:0.179259 909:0.225118 982:0.0651584 1075:0.158104 
7.627031767903603 44:-0.0155248 45:-0.29387 370:0.206681 454:-0.0199175 487:-0.122877 491:-0.251345 499:0.13914 602:-0.371398 764:-0.0744346 792:0.0560961 813:0.473707 909:0.152948 982:-0.10857 1075:0.26815 
20.7789282114068 44:0.175794 45:-0.47839 370:-0.337902 454:-0.159666 487:0.136439 491:-0.0979831 499:0.140223 602:-0.0388382 764:-0.181934 792:0.114205 813:-0.0702034 909:0.0450726 982:-0.449606 1075:0.00561117 
0.4336182025838725 44:-0.0271556 45:-0.372478 370:0.0782742 454:-0.09445 487:-0.262972 491:-0.212671 499:-0.149979 602:-0.471361 764:-0.184591 792:0.0775426 813:-0.000681105 909:-0.0582449 982:-0.234362 1075:0.258193 
27.48761352964904 44:0.132884 45:-0.0886055 370:-0.300641 454:0.133427 487:-0.132075 491:-0.288685 499:0.200862 602:-0.352487 764:-0.441624 792:0.299543 813:0.234468 909:-0.0574852 982:-0.164477 1075:0.153387 
7.344797502213108 44:-0.337045 45:-0.142654 370:-0.393077 454:0.12882 487:-0.15967 491:-0.197113 499:0.0655068 602:-0.0609545 764:0.172371 792:0.0116574 813:0.259005 909:0.29425 982:-0.174572 1075:0.194786 
2.302681784274515 44:-0.127569 45:-0.479646 370:0.286362 454:-0.0604528 487:-0.157193 491:-0.170886 499:-0.0752628 602:-0.659529 764:-0.49638 792:0.242893 813:-0.254233 909:-0.263361 982:-0.0710493 1075:-0.000153135 
197.0188057323971 44:0.0897606 45:0.0137245 370:-0.0383813 454:-0.068952 487:-0.00577827 491:-0.033082 499:0.0893293 602:0.0106544 764:-0.13676 792:0.0129325 813:0.346931 909:0.213723 982:0.0731304 1075:0.0637784 
36.26443066403951 44:-0.116247 45:-0.110932 370:-0.301119 454:0.12882 487:0.484906 491:0.169622 499:0.24201 602:-0.350259 764:0.119226 792:0.0371613 813:-0.196979 909:-0.141051 982:-0.464981 1075:-0.33658 
7.926370997121304 44:-0.0978669 45:-0.252287 370:-0.10369 454:-0.0563432 487:0.150943 491:-0.0108557 499:0.0470985 602:-0.272468 764:0.028751 792:0.0590219 813:-0.55686 909:-0.248167 982:-0.162614 1075:0.0627303 
5.295789550066046 44:-0.0319995 45:-0.228705 370:-0.0742091 454:-0.173262 487:0.00518874 491:0.00514727 499:0.0752524 602:-0.287932 764:-0.122749 792:0.114832 813:-0.401457 909:-0.111423 982:-0.211067 1075:0.0774032 
3.570160253906576 44:0.125528 45:-0.305499 370:-0.00510119 454:-0.0940141 487:0.0793633 491:-0.440467 499:0.378208 602:0.0249204 764:-0.177505 792:0.00126682 813:-0.385553 909:-0.24268 982:0.206377 1075:0.25994 
4.340362644575342 44:-0.266892 45:-0.333556 370:-0.436428 454:0.666565 487:0.219363 491:-0.522418 499:0.603246 602:0.0965493 764:0.303021 792:-0.354431 813:0.291313 909:0.472169 982:0.0603182 1075:0.484364 
13.78055279520087 44:-0.398818 45:-0.231077 370:-0.452755 454:0.307913 487:0.0622106 491:0.0661688 499:-0.110406 602:-0.054721 764:0.252723 792:-0.00352359 813:-0.2494 909:-0.27006 982:0.0497024 1075:0.0315268 
88.82292778927211 44:0.014376 45:0.0293531 370:0.138966 454:-0.0787589 487:0.26592 491:-0.0201908 499:0.156466 602:0.0337868 764:-0.115502 792:-0.0701679 813:-0.168353 909:-0.424414 982:-0.139552 1075:-0.307234 
59.955880896643 44:0.0851314 45:0.187127 370:0.488845 454:-0.381683 487:0.0504718 491:0.26564 499:-0.239855 602:0.135701 764:-0.124359 792:-0.0469074 813:-0.0088602 909:0.1727 982:0.0833802 1075:-0.34444 
5.601815528693602 44:-0.145063 45:0.224757 370:0.415779 454:-0.40659 487:-0.0871461 491:0.207852 499:-0.0557716 602:-0.0384967 764:0.267907 792:0.000727092 813:-0.186756 909:0.374017 982:-0.19678 1075:0.0139957 
20.71279522968683 44:-0.328711 45:0.334762 370:0.0789748 454:-0.307587 487:0.169693 491:-0.131767 499:-0.025452 602:-0.132882 764:0.1768 792:0.0706943 813:0.0995129 909:-0.28919 982:-0.447329 1075:-0.0284507 
123.2107349664044 44:-0.0327177 45:0.288899 370:0.263391 454:-0.256684 487:0.123703 491:0.213186 499:-0.0492746 602:0.277279 764:0.218558 792:-0.148653 813:-0.3258 909:-0.182834 982:0.24884 1075:-0.212909 
84.82904461402818 44:-0.178448 45:-0.227495 370:-0.0509927 454:0.144838 487:0.0182784 491:-0.226452 499:0.245259 602:-0.350857 764:-0.0517269 792:-0.117563 813:-0.0763377 909:-0.154725 982:0.0116319 1075:-0.0446956 
14.03653185327558 44:-0.240222 45:0.665195 370:-0.0107938 454:-0.024821 487:0.0812501 491:-0.0361936 499:-0.297246 602:0.081307 764:0.1768 792:-0.102579 813:-0.356472 909:-0.356042 982:-0.0396168 1075:-0.112295 
79.56699608318441 44:-0.134502 45:-0.000468306 370:-0.162525 454:-0.00152964 487:0.20842 491:-0.0380608 499:-0.0684047 602:0.0476843 764:0.024006 792:0.157508 813:0.08629 909:-0.09628 982:-0.0319295 1075:0.0631845 
25.39170199527106 44:0.128748 45:0.183267 370:0.169076 454:-0.0834663 487:-0.33125 491:-0.371368 499:-0.361133 602:0.0483836 764:-0.0187764 792:-0.0330596 813:-0.194935 909:0.259304 982:0.00384213 1075:0.374003 
8.484379217969531 44:-0.211508 45:-0.294708 370:-0.26959 454:0.0759721 487:0.280071 491:0.278976 499:0.0406014 602:-0.23131 764:-0.209983 792:0.183337 813:-0.450531 909:-0.372756 982:-0.0760603 1075:-0.556148 
6.178892061343534 44:0.134371 45:0.105961 370:0.212095 454:0.0105928 487:-0.278184 491:-0.434935 499:0.332969 602:0.470434 764:0.194515 792:-0.406324 813:0.759975 909:0.387692 982:0.484259 1075:0.316884 
0.5763637490034741 44:0.0145344 45:-0.128573 370:0.0335859 454:-0.100931 487:-0.106674 491:-0.0219392 499:-0.0799551 602:0.10992 764:0.00580937 792:0.0796679 813:-0.00967811 909:0.336438 982:0.179639 1075:0.316954 
187.4133884074221 44:0.118789 45:-0.243403 370:-0.0955266 454:0.0720221 487:-0.0903301 491:-0.0681997 499:0.0990749 602:0.230144 764:0.083795 792:-0.0258016 813:-0.109054 909:0.114204 982:0.0859426 1075:0.181161 
33.58554087206723 44:-0.0449831 45:-0.295033 370:-0.323889 454:0.426841 487:-0.310377 491:-0.287796 499:-0.164056 602:0.0615816 764:0.0527932 792:-0.225435 813:0.328528 909:-0.0248187 982:0.0947687 1075:0.160724 
20.50375169988752 44:0.0668224 45:-0.334399 370:0.0894843 454:-0.183366 487:-0.306014 491:-0.142732 499:-0.0626296 602:-0.0914391 764:-0.189315 792:0.0343275 813:-0.10292 909:-0.05394 982:-0.299277 1075:0.274613 
100.7987980862063 44:0.3043 45:4.94728e-05 370:0.278655 454:-0.176828 487:-0.119693 491:0.0620469 499:0.0579269 602:0.22576 764:-0.088929 792:-0.12767 813:-0.0252184 909:0.305645 982:0.092491 1075:0.074259 
4.717425741857153 44:0.22795 45:0.114985 370:0.40039 454:-0.131062 487:-0.214505 491:0.244303 499:-0.234441 602:0.232535 764:-0.0579272 792:-0.289785 813:0.134274 909:0.202328 982:0.211502 1075:-0.130636 
5.163462959592998 44:-0.0465109 45:0.115729 370:0.119261 454:-0.282742 487:0.587854 491:0.407 499:0.250673 602:-0.678656 764:-0.173962 792:0.0856189 813:-0.626382 909:-0.220058 982:-0.584903 1075:-0.632656 
144.7704136896607 44:-0.0537458 45:0.232897 370:-0.0738508 454:0.0977653 487:0.0607312 491:0.126948 499:0.155383 602:-0.0733576 764:0.117011 792:-0.10497 813:-0.00681537 909:-0.0369737 982:-0.00246145 1075:-0.199284 
43.14518617010251 44:-0.117244 45:0.417277 370:-0.159766 454:0.197796 487:0.162264 491:0.464789 499:-0.0752628 602:-0.156114 764:0.0705085 792:-0.0767564 813:-0.190845 909:-0.329453 982:-0.0877906 1075:-0.398939 
6.563868427755612 44:-0.0710973 45:0.593378 370:0.24012 454:-0.314125 487:0.146698 491:0.0460439 499:0.151051 602:-0.273151 764:0.00673354 792:-0.039634 813:-0.303308 909:0.0967314 982:-0.255545 1075:-0.000677124 
13.5145619086834 44:0.132606 45:-0.14712 370:0.748079 454:-0.410014 487:-0.364858 491:-0.256679 499:-0.179216 602:-0.281918 764:0.00555248 792:-0.292501 813:-0.00272585 909:0.0944523 982:0.160823 1075:0.501866 
13.07176575002585 44:0.0637761 45:0.11838 370:0.634226 454:-0.350083 487:-0.169929 491:-0.197557 499:-0.00812649 602:0.1623 764:0.094867 792:-0.193083 813:-0.0149945 909:0.457583 982:0.384039 1075:0.366667 
0.6684473104022788 44:0.22384 45:0.316017 370:-0.0909287 454:0.0912273 487:0.367807 491:0.274086 499:0.0763352 602:0.219384 764:-0.49638 792:0.084627 813:-0.0518004 909:-0.188152 982:0.384039 1075:-0.515273 
54.51718344198839 44:-0.000996624 45:0.160754 370:0.233723 454:-0.344824 487:-0.22441 491:0.00159105 499:0.205194 602:-0.0625398 764:-0.021919 792:0.19961 813:0.555498 909:0.211444 982:-0.0431819 1075:0.167012 
2.743119082214124 44:0.52021 45:0.844179 370:0.0036567 454:-0.0820279 487:0.426533 491:0.819966 499:-0.374127 602:0.470434 764:-0.150932 792:0.185934 813:-0.350338 909:-0.710817 982:0.216627 1075:-0.770999 
5.205154179617323 44:-0.261212 45:0.0772622 370:-0.243316 454:0.125225 487:-0.0238207 491:0.161621 499:-0.14673 602:0.293504 764:0.357496 792:0.0640822 813:-0.260367 909:0.0169642 982:0.118913 1075:-0.326623 
42.33562851480389 44:-0.169144 45:-0.0769771 370:-0.176056 454:0.0689983 487:-0.260495 491:-0.168218 499:0.00703331 602:-0.125869 764:-0.00743867 792:0.011374 813:-0.111099 909:0.347428 982:-0.00681762 1075:0.374003 
11.70821518310054 44:0.16302 45:-0.0350218 370:0.609923 454:-0.339868 487:-0.232547 491:-0.00907759 499:-0.248518 602:-0.271508 764:-0.274939 792:-0.129943 813:-0.156084 909:0.404405 982:-0.0319295 1075:0.174872 
18.45651883786513 44:0.194774 45:-0.0993502 370:0.0862996 454:0.0514054 487:0.0104953 491:0.0549344 499:0.330803 602:-0.191424 764:-0.108255 792:-0.154505 813:-0.119278 909:0.111165 982:-0.0992517 1075:0.0611582 
10.03139050744489 44:0.17861 45:-0.236658 370:0.0291798 454:0.162211 487:0.384788 491:0.110945 499:0.0276073 602:-0.166412 764:-0.0205985 792:-0.207555 813:-0.520054 909:-0.446445 982:0.0365242 1075:-0.156838 
6.526961703215859 44:-0.341249 45:-0.37192 370:-0.0631537 454:0.179022 487:0.106368 491:-0.353142 499:0.295069 602:-0.146431 764:0.41216 792:0.0444482 813:0.0504383 909:0.356544 982:0.109737 1075:0.23566 
22.56753373575007 44:-0.250757 45:0.18215 370:-0.214654 454:-0.0288329 487:0.370991 491:0.433227 499:-0.025452 602:0.0420193 764:0.133317 792:0.0989891 813:-0.288994 909:-0.53305 982:0.208241 1075:-0.476495 
156.547088803708 44:0.0124143 45:-0.0272541 370:0.0877327 454:0.0622152 487:-0.00294801 491:0.179402 499:0.0969092 602:0.0736858 764:0.107046 792:-0.180685 813:0.144498 909:0.0967314 982:0.258907 1075:-0.129064 
8.875775570600698 44:0.220726 45:0.215268 370:0.540392 454:-0.395382 487:0.0862029 491:0.167844 499:0.170542 602:-0.210987 764:-0.506503 792:0.051735 813:0.17517 909:-0.320337 982:-0.124543 1075:-0.221817 
23.31516434323083 44:0.0926045 45:0.0176781 370:-0.0856739 454:-0.242207 487:-0.265802 491:-0.256235 499:-0.0384461 602:-0.232505 764:-0.207031 792:0.177905 813:0.410319 909:0.0777392 982:-0.479217 1075:0.268674 
24.76061805201481 44:-0.152861 45:-0.36836 370:-0.0726917 454:-0.0891427 487:-0.137241 491:-0.368078 499:0.241144 602:0.0518772 764:0.214315 792:-0.152868 813:-0.000953697 909:0.165458 982:-0.125232 1075:0.295713 
7.466222251428013 44:0.0250438 45:-0.226426 370:0.365183 454:-0.280781 487:-0.144458 491:-0.131767 499:-0.30266 602:-0.618404 764:-0.0410977 792:0.152354 813:0.195617 909:0.102809 982:-0.228212 1075:0.234088 
36.14967024983477 44:-0.0592649 45:0.410719 370:0.258512 454:-0.333738 487:-0.330189 491:-0.0837582 499:-0.0958368 602:0.0532133 764:0.0483645 792:0.0325564 813:0.226289 909:0.406684 982:-0.215571 1075:0.298543 
61.67545512867897 44:-0.016408 45:-0.0812098 370:0.129293 454:0.0317915 487:0.155189 491:0.033597 499:0.267998 602:0.414355 764:0.220283 792:0.132994 813:0.0872442 909:-0.202586 982:0.122516 1075:-0.194568 
18.28491290872918 44:-0.0495375 45:0.244153 370:0.10665 454:-0.329816 487:0.458727 491:0.318539 499:0.143471 602:0.166305 764:0.113025 792:-0.0623042 813:-0.201069 909:-0.280074 982:-0.361459 1075:-0.547239 
2.2896806155984 44:-0.201015 45:0.343088 370:-0.547635 454:0.590669 487:0.345873 491:-0.266904 499:0.413099 602:-0.0538077 764:0.112101 792:-0.013477 813:0.312169 909:0.359583 982:-0.0369429 1075:0.169632 
17.37667866421632 44:-0.24933 45:-0.162655 370:-0.161342 454:0.0212714 487:-0.308609 491:-0.315802 499:0.152134 602:-0.104111 764:-0.0357831 792:0.109848 813:0.434856 909:0.215243 982:-0.0498666 1075:0.35147 
1.012438725963565 44:0.269177 45:-0.00385763 370:0.159548 454:-0.078759 487:-0.073349 491:0.325207 499:-0.35247 602:0.174753 764:-0.165695 792:-0.253301 813:0.26514 909:-0.0111443 982:0.201822 1075:-0.329243 
42.580683178809 44:-0.0569518 45:0.282201 370:-0.0556468 454:-0.131996 487:0.0494104 491:-0.0677552 499:-0.0362804 602:0.281891 764:0.1768 792:0.0456626 813:0.228334 909:0.0997701 982:0.158545 1075:-0.138497 
62.72079891887614 44:-0.173058 45:0.206431 370:-0.168436 454:-0.106954 487:0.20684 491:0.00159105 499:-0.284251 602:0.322046 764:0.183443 792:-0.0587442 813:-0.227651 909:-0.150927 982:0.312718 1075:-0.179895 
26.45549703902714 44:-0.000476755 45:-0.28801 370:0.111379 454:-0.152311 487:0.269458 491:-0.314913 499:0.553869 602:-0.0540805 764:-0.0391047 792:-0.0409446 813:0.00749807 909:0.135475 982:-0.226675 1075:0.136618 
137.8118657969989 44:0.0613924 45:0.120938 370:0.222973 454:-0.122116 487:0.0536557 491:-0.17133 499:0.10882 602:0.258646 764:0.210366 792:-0.0442724 813:0.275363 909:-0.11826 982:0.0380654 1075:-0.0572723 
78.14807132875933 44:-0.00280491 45:0.121776 370:0.0307389 454:-0.134583 487:0.195519 491:0.0238175 499:-0.186796 602:0.100756 764:0.0909493 792:0.131003 813:-0.19289 909:-0.298306 982:-0.00965602 1075:0.0878837 
29.75365754142409 44:0.0615248 45:-0.0753026 370:-0.0940816 454:0.105611 487:-0.294811 491:-0.173108 499:-0.188961 602:0.635888 764:0.190972 792:-0.239132 813:-0.14586 909:-0.0536868 982:0.334841 1075:0.203694 
16.97085457905651 44:0.145528 45:-0.474064 370:-0.0572984 454:-0.0101106 487:-0.490802 491:-0.482944 499:0.0200274 602:0.565474 764:-0.0278112 792:-0.142429 813:0.189483 909:0.263863 982:0.2894 1075:0.526496 
73.9296884669474 44:-0.00458695 45:0.393462 370:0.378245 454:-0.0171156 487:-0.125354 491:0.239413 499:-0.183547 602:0.0154705 764:0.0021781 792:-0.0891441 813:-0.147905 909:0.179537 982:0.346945 1075:0.0957441 
55.70867777977826 44:0.0594324 45:-0.114188 370:0.0159178 454:0.276469 487:0.046934 491:0.0989427 499:0.00378478 602:-0.155995 764:-0.266082 792:-0.0360445 813:0.16699 909:0.0602663 982:-0.233223 1075:-0.0693249 
1.449638237771013 44:0.019581 45:-0.0146488 370:-0.238272 454:0.118164 487:0.0915096 491:0.625263 499:-0.203038 602:0.227131 764:0.104522 792:-0.103281 813:-0.147905 909:-0.203345 982:0.151438 1075:-0.535711 
10.19511928115605 44:0.00373534 45:-0.222518 370:-0.022617 454:0.00504544 487:0.0929247 491:0.276754 499:0.104489 602:-0.383787 764:-0.142075 792:-0.0702645 813:-0.3258 909:-0.396306 982:-0.0507983 1075:-0.319811 
2.17447570943562 44:0.560144 45:0.950975 370:-0.625599 454:0.301258 487:-0.117217 491:-0.179332 499:-0.14673 602:-0.0827719 764:-0.520739 792:0.171057 813:0.326483 909:-0.0810356 982:0.152566 1075:-0.139021 
18.27120300723673 44:0.103306 45:-0.0594414 370:0.174436 454:-0.186635 487:0.0189859 491:0.294979 499:-0.119659 602:0.4265 764:0.203373 792:-0.180154 813:-0.565039 909:0.0625454 982:0.0961923 1075:-0.346536 
7.295724398019851 44:0.0674603 45:0.439417 370:0.152223 454:-0.0127853 487:-0.194339 491:0.354546 499:-0.410944 602:-0.893711 764:0.0125312 792:-0.127842 813:-0.047711 909:0.592807 982:0.459825 1075:-0.154742 
6.062620488992125 44:-0.0672458 45:0.306528 370:0.290243 454:-0.315633 487:-0.346108 491:-0.0530858 499:-0.011375 602:0.13 764:0.103214 792:0.0593955 813:0.283543 909:0.384653 982:-0.170498 1075:0.270246 
14.87110055967168 44:-0.275311 45:-0.126428 370:-0.1151 454:0.262521 487:0.0977957 491:0.0848203 499:-0.170136 602:0.302589 764:0.428357 792:0.129259 813:0.021025 909:0.131735 982:0.0246149 1075:-0.0350212 
24.59404938924079 44:-0.290036 45:-0.184935 370:-0.237752 454:0.190065 487:0.220637 491:-0.0842027 499:0.113152 602:0.0932266 764:0.233072 792:0.122675 813:-0.36874 909:-0.303624 982:0.0447928 1075:-0.0855698 
5.775927476824127 44:0.291293 45:0.368935 370:0.71605 454:-0.300115 487:0.220582 491:0.00330073 499:0.0510966 602:0.338249 764:-0.354658 792:-0.158369 813:-0.248256 909:-0.5424 982:0.0950942 1075:-0.198196 
41.08247652441675 44:0.0796818 45:-0.227821 370:0.0470776 454:0.00898701 487:-0.128891 491:-0.369145 499:0.107738 602:-0.140013 764:0.0593199 792:-0.149644 813:0.502333 909:-0.134973 982:-0.117299 1075:0.355662 
26.3867988320162 44:0.0556335 45:-0.081582 370:-0.358921 454:0.352745 487:-0.117217 491:-0.113542 499:0.21927 602:0.159013 764:-0.111073 792:-0.115508 813:0.216065 909:0.117243 982:-0.0191173 1075:0.178541 
27.82784769885756 44:0.179858 45:0.279643 370:0.111379 454:0.0806032 487:-0.341863 491:0.000702062 499:0.029773 602:-0.270163 764:-0.188577 792:-0.103111 813:0.326483 909:0.427195 982:-0.2113 1075:0.0999364 
1.473315490134485 44:0.0857251 45:0.101217 370:0.267445 454:-0.22194 487:-0.225118 491:-0.381592 499:-0.325399 602:-0.0865377 764:-0.16599 792:-0.0357375 813:0.0954233 909:0.145351 982:-0.123665 1075:0.249809 
2.850761947275364 44:0.745896 45:0.172755 370:0.188624 454:0.186027 487:0.065684 491:0.0135934 499:0.0124475 602:0.331998 764:-0.280254 792:-0.305017 813:-0.0661139 909:0.0693826 982:0.337574 1075:-0.0137779 
45.27176947680002 44:-0.150826 45:-0.231589 370:-0.156613 454:0.0266652 487:-0.185849 491:0.0375979 499:-0.153227 602:-0.192158 764:0.289735 792:-0.0595412 813:0.0974681 909:-0.19119 982:-0.149802 1075:-0.0562242 
32.8016185211869 44:0.0327037 45:-0.257171 370:0.216999 454:-0.204287 487:-0.350354 491:0.0642695 499:0.0849979 602:-0.164363 764:0.00673357 792:0.100071 813:0.244692 909:0.346669 982:0.0341814 1075:0.137666 
13.98603618860059 44:-0.301828 45:-0.385343 370:-0.326079 454:0.237514 487:-0.172254 491:-0.270333 499:-0.265998 602:0.410361 764:0.508962 792:-0.00640797 813:-0.293376 909:-0.115439 982:0.144879 1075:0.236783 
18.49932476915777 44:0.216056 45:0.197407 370:-0.101438 454:0.215448 487:-0.210967 491:-0.0855363 499:-0.357885 602:-0.06215 764:-0.188577 792:-0.182279 813:0.00954272 909:-0.0430512 982:0.116692 1075:0.237232 
55.18237321267586 44:-0.0557775 45:-0.0675813 370:0.403017 454:-0.104911 487:-0.235731 491:-0.154883 499:-0.0828427 602:0.0663636 764:-0.000352598 792:0.179558 813:-0.107009 909:0.208405 982:0.257626 1075:0.020284 
29.50072697358079 44:-0.124322 45:-0.0535808 370:0.17356 454:-0.366428 487:-0.0814858 491:0.207852 499:-0.134819 602:-0.0874542 764:0.0646034 792:-0.0747728 813:-0.14586 909:-0.302105 982:-0.419996 1075:-0.0902861 
13.29978275863523 44:-0.144707 45:-0.370711 370:-0.0611518 454:-0.0591451 487:0.546109 491:-0.323359 499:0.278827 602:0.354074 764:0.200421 792:0.118868 813:-0.199024 909:-0.0947099 982:0.495648 1075:0.119849 
13.09934475080314 44:-0.109085 45:0.119357 370:-0.208285 454:0.152248 487:0.0748822 491:0.119835 499:0.0730867 602:-0.422984 764:-0.277892 792:0.0971429 813:-0.190845 909:-0.110663 982:-0.324332 1075:-0.109675 
61.73603014859911 44:0.00417837 45:0.366298 370:-0.281413 454:0.101851 487:0.0483492 491:0.318984 499:-0.153227 602:0.114183 764:0.0151483 792:-0.044841 813:0.187438 909:0.136235 982:0.0526309 1075:-0.227058 
2.076760513624679 44:0.169826 45:0.0884719 370:0.513367 454:0.0672549 487:-0.0694576 491:-0.380703 499:0.293987 602:0.295098 764:0.15318 792:-0.583908 813:0.242647 909:0.2707 982:0.680143 1075:0.413306 
51.36900517330251 44:-0.106025 45:-0.372385 370:0.0944888 454:-0.259019 487:0.0232312 491:-0.231786 499:0.220353 602:0.236804 764:0.2426 792:0.0422216 813:0.367378 909:-0.106865 982:-0.0025225 1075:0.0978403 
4.041981444444877 44:-0.0254742 45:-0.209913 370:-0.747772 454:0.20368 487:-0.336557 491:-0.456272 499:0.143471 602:0.266008 764:-0.163333 792:0.131526 813:0.381692 909:0.394529 982:0.237126 1075:0.397585 
81.1636096061189 44:-0.0237678 45:0.101589 370:0.177063 454:-0.179007 487:-0.267217 491:0.0869404 499:-0.409861 602:0.0249204 764:0.123654 792:-0.0346276 813:-0.413726 909:0.070902 982:0.144879 1075:0.279154 
30.34525045888152 44:0.125407 45:-0.0326031 370:0.321043 454:-0.290588 487:-0.0563679 491:0.0518228 499:-0.147813 602:0.0723409 764:0.0545648 792:-0.249333 813:0.220154 909:-0.0886325 982:0.198177 1075:-0.0405033 
21.71954605977892 44:-0.255379 45:0.098891 370:-0.345784 454:0.171317 487:0.126887 491:-0.118431 499:0.0655068 602:-0.0877033 764:0.0206843 792:0.000765023 813:0.12814 909:0.333754 982:-0.258705 1075:0.293827 
13.3887362414304 44:0.0730084 45:-0.25252 370:-0.225801 454:0.215448 487:0.0363208 491:-0.0144119 499:-0.14673 602:0.456885 764:0.0705085 792:-0.25519 813:-0.28286 909:-0.115981 982:0.306597 1075:-0.129064 
211.9879618517738 44:0.0321972 45:0.125218 370:0.191076 454:-0.2008 487:-0.043632 491:-0.145992 499:0.129395 602:-0.33691 764:-0.0475933 792:-0.079968 813:-0.0068154 909:-0.122059 982:-0.0669494 1075:0.0679706 
63.19291709436936 44:0.0190934 45:0.230943 370:-0.0580866 454:0.281645 487:0.0586086 491:-0.131323 499:-0.204121 602:-0.173329 764:0.249876 792:-0.152524 813:-0.162218 909:-0.0704 982:0.142316 1075:-0.117012 
-1.710755191799157 44:0.186433 45:0.242851 370:0.846168 454:-0.32938 487:-0.0595518 491:-0.477165 499:-0.0828426 602:0.574042 764:0.182705 792:-0.374681 813:0.0831547 909:0.190173 982:0.399983 1075:0.498722 
-27.21484139245297 44:-0.0586172 45:0.0212132 370:-0.000547035 454:-0.486726 487:-0.189387 491:-0.0353046 499:-0.289666 602:0.205039 764:0.0173627 792:0.180834 813:0.0872442 909:0.228917 982:-0.0252671 1075:0.0590621 
-1.69711437750045 44:-0.038797 45:-0.153957 370:0.159548 454:-0.255283 487:0.300236 491:-0.000631514 499:0.0351872 602:0.548538 764:0.0941289 792:0.074945 813:-0.0436214 909:-0.048369 982:0.149434 1075:-0.206096 
-13.21235758831565 44:0.123016 45:-0.0705582 370:0.548048 454:-0.455344 487:-0.0966981 491:-0.372701 499:0.0102818 602:-0.0201889 764:-0.0889289 792:-0.0270237 813:-0.147905 909:0.193212 982:0.0280315 1075:0.260289 
-16.74652420254099 44:0.171927 45:0.264201 370:-0.318985 454:-0.106218 487:-0.0234669 491:0.138506 499:-0.0904226 602:-0.161494 764:-0.200535 792:0.217814 813:-0.23992 909:0.0389951 982:-0.406558 1075:-0.110723 
-65.01313533671113 44:-0.0706489 45:0.19029 370:0.0656627 454:-0.235669 487:0.083019 491:0.195405 499:0.128312 602:0.129724 764:0.134284 792:-0.0567783 813:0.387826 909:0.0215223 982:-0.105215 1075:-0.2716 
-44.23064398132828 44:-0.181218 45:-0.102839 370:-0.0383813 454:0.00950314 487:0.201179 491:0.0633805 499:0.351377 602:0.204526 764:0.10847 792:0.158305 813:-0.246054 909:-0.171438 982:0.223948 1075:-0.0766613 
-40.55231006666367 44:-0.174024 45:0.298667 370:0.212634 454:-0.0380226 487:-0.103066 491:-0.0704224 499:-0.107748 602:-0.175122 764:0.234034 792:0.0966706 813:-0.0354423 909:-0.0779968 982:-0.00177162 1075:0.0391491 
-5.613910376685923 44:-0.259942 45:-0.439225 370:-0.47978 454:0.725407 487:-0.020283 491:-0.0415282 499:-0.0362804 602:-0.0474456 764:0.495675 792:-0.198325 813:-0.180621 909:0.0200029 982:0.167428 1075:0.0946961 
-46.37649888855912 44:0.195567 45:0.159777 370:0.338209 454:-0.0744003 487:-0.186557 491:-0.198446 499:-0.284251 602:0.272782 764:-0.0475933 792:-0.3232 813:-0.23992 909:0.212204 982:0.329374 1075:0.145527 
-36.40768595000745 44:0.0195345 45:-0.155074 370:0.303177 454:-0.00466238 487:-0.363797 491:-0.188667 499:-0.155393 602:-0.265978 764:0.00555252 792:0.138705 813:-0.107009 909:0.224359 982:0.0970465 1075:0.137142 
-2.582292872245171 44:0.658134 45:-0.139492 370:-0.259081 454:0.144348 487:0.25 491:-0.118431 499:0.434756 602:0.0920663 764:-0.527382 792:0.145022 813:0.344886 909:0.218281 982:0.00650707 1075:0.140811 
-17.32638965569837 44:-0.233263 45:0.0184224 370:-0.253826 454:0.296083 487:-0.437382 491:-0.306466 499:0.0600926 602:-0.248445 764:0.0882238 792:-0.169704 813:0.318304 909:0.444668 982:-0.19678 1075:0.41383 
-7.311415793834373 44:0.0820176 45:0.501188 370:-0.131215 454:-0.124524 487:0.339505 491:0.382551 499:-0.0882569 602:-0.0723115 764:-0.584957 792:0.119341 813:-0.0661138 909:-0.277035 982:-0.344831 1075:-0.404703 
-11.97449517281331 44:0.107883 45:0.233083 370:-0.436991 454:0.131389 487:-0.179481 491:0.191849 499:0.0535955 602:0.033915 764:0.252723 792:0.0711666 813:0.205841 909:0.310963 982:-0.350038 1075:0.164392 
-2.889670509258208 44:0.201063 45:-0.368664 370:-0.428546 454:0.0242135 487:0.572288 491:0.0727154 499:0.381697 602:0.221178 764:-0.248366 792:0.188591 813:-0.442352 909:-0.195748 982:-0.0985528 1075:-0.111771 
-306.9601102138971 44:0.0839503 45:-0.140747 370:0.216999 454:-0.123871 487:-0.0439858 491:0.00692542 499:0.0752524 602:0.0669613 764:0.02002 792:-0.0593287 813:0.0667965 909:0.0374757 982:0.112079 1075:-0.0415514 
-33.60858542614331 44:-0.0300328 45:-0.243589 370:-0.306373 454:-0.102296 487:0.100708 491:-0.0753122 499:-0.26476 602:0.417355 764:0.144913 792:-0.0304242 813:-0.219472 909:-0.423655 982:0.00958197 1075:-0.243302 
-1.963483995703765 44:0.19609 45:0.382392 370:-0.241214 454:0.295211 487:-0.0365565 491:0.376328 499:-0.0633515 602:0.0333684 764:0.205145 792:0.0966706 813:-0.082472 909:-0.0939502 982:0.0697138 1075:-0.218673 
-32.98828153668659 44:-0.290676 45:-0.255124 370:-0.431117 454:0.168545 487:0.0373822 491:0.123392 499:0.262584 602:-0.0697126 764:0.158315 792:-0.0147707 813:-0.0415766 909:0.157506 982:-0.146571 1075:-0.000153123 
-1.987871521090586 44:0.14354 45:0.155452 370:0.567416 454:-0.700797 487:0.58467 491:0.372327 499:-0.00379519 602:-0.678246 764:-0.848155 792:0.378429 813:-0.515964 909:-0.619654 982:-0.777598 1075:-0.88943 
-24.02646113274077 44:-0.0580481 45:-0.122654 370:-0.541624 454:0.411586 487:0.134316 491:-0.183332 499:0.091495 602:0.0102682 764:0.160448 792:0.0986324 813:-0.264457 909:-0.499623 982:-0.198882 1075:-0.0834737 
-9.083194099417113 44:-0.148934 45:0.780316 370:-0.0699097 454:0.0180842 487:-0.00966972 491:0.393664 499:-0.57337 602:-0.245506 764:-0.019175 792:-0.0879675 813:-0.515964 909:-0.367438 982:-0.359921 1075:-0.110723 
-13.41648970891141 44:0.0215688 45:-0.0122766 370:0.292668 454:0.0879583 487:0.211439 491:0.090941 499:0.180288 602:-0.0155265 764:0.19673 792:-0.276325 813:-0.107009 909:-0.375794 982:0.339624 1075:-0.34706 
-15.98274096580152 44:-0.548377 45:0.189593 370:-0.639174 454:0.507476 487:0.101415 491:0.163399 499:-0.112079 602:-0.291482 764:0.229946 792:-0.0313215 813:-0.147905 909:-0.21626 982:0.117546 1075:-0.243826 
-8.835595932351584 44:-0.0359505 45:0.140939 370:0.355725 454:0.0254394 487:0.0787736 491:-0.000187028 499:-0.00920936 602:0.354324 764:0.239911 792:-0.458572 813:-0.131547 909:-0.0149427 982:0.395997 1075:0.0643024 
-45.9156917086598 44:-0.244037 45:-0.410154 370:-0.201278 454:0.104303 487:-0.19434 491:-0.169997 499:0.0167789 602:-0.253426 764:-0.199649 792:0.0481422 813:0.283543 909:-0.175997 982:-0.265111 1075:0.0999364 
-0.6993437943851268 44:-0.03149 45:0.514677 370:0.0719684 454:-0.386976 487:-0.115802 491:-0.0197462 499:0.118566 602:-0.583975 764:-0.946854 792:0.563029 813:0.169035 909:0.34211 982:-0.581389 1075:0.161772 
-1.142459612148206 44:0.0277108 45:-0.117118 370:0.296609 454:-0.471035 487:-0.167807 491:-0.0139674 499:-0.183547 602:0.184865 764:-0.0889289 792:-0.0619323 813:-0.0313527 909:-0.0377334 982:0.141035 1075:0.00980347 
-10.83736506047998 44:0.149999 45:-0.0173466 370:0.0314318 454:-0.0395314 487:-0.180896 491:0.149174 499:-0.0795941 602:0.293162 764:-0.164852 792:-0.000487397 813:0.119961 909:0.361103 982:0.417229 1075:0.0166158 
-8.498040114568287 44:0.0376092 45:0.023818 370:0.186822 454:-0.183833 487:-0.0216981 491:-0.0513077 499:-0.0980025 602:-0.155141 764:-0.0319869 792:-0.129525 813:-0.0456661 909:0.0503904 982:-0.02351 1075:0.0344328 
-23.08962777136253 44:-0.0198493 45:0.0760993 370:-0.335477 454:0.177729 487:0.141392 491:0.251416 499:0.0308558 602:0.0179928 764:-0.207485 792:0.18855 813:-0.0170393 909:-0.220818 982:-0.173652 1075:-0.273172 
-24.3118996515818 44:-0.0588414 45:0.316342 370:-0.117202 454:0.2331 487:0.445991 491:0.216298 499:0.0839151 602:0.178499 764:0.229946 792:-0.13329 813:-0.254233 909:-0.226896 982:0.0690305 1075:0.107797 
-17.45726403923573 44:0.11274 45:0.00195656 370:-0.333961 454:0.0144066 487:0.278656 491:-0.125544 499:-0.0297834 602:-0.144638 764:-0.0889289 792:0.210907 813:0.0995128 909:-0.291469 982:0.134629 1075:-0.0876659 
-7.564788830104919 44:0.13217 45:-0.134747 370:0.604449 454:-0.351173 487:0.158726 491:-0.0842028 499:0.253921 602:-0.0715146 764:-0.00625774 792:-0.176789 813:0.146543 909:-0.238291 982:0.092491 1075:-0.016922 
-5.536886430382373 44:0.0514196 45:0.438255 370:-0.201278 454:0.198014 487:0.0494104 491:-0.269126 499:-0.0135407 602:0.0360782 764:-0.118454 792:0.0588869 813:0.244692 909:0.0959716 982:-0.0942821 1075:0.0297165 
-4.408015187852676 44:0.0626956 45:0.361042 370:0.210694 454:-0.102296 487:0.0812501 491:0.147396 499:-0.338394 602:0.175869 764:0.123654 792:-0.110762 813:-0.3258 909:-0.262601 982:0.277442 1075:-0.293609 
-11.33662194313244 44:0.0292457 45:-0.232147 370:-0.507009 454:0.283205 487:0.207901 491:0.0829396 499:0.070921 602:0.0348465 764:0.196126 792:0.0406391 813:-0.107009 909:-0.244368 982:-0.140251 1075:-0.246971 
-7.671255716553434 44:-0.0322661 45:0.621007 370:-0.41551 454:0.135484 487:0.020401 491:0.0687148 499:-0.270174 602:0.072065 764:0.0705085 792:0.0368343 813:-0.137681 909:-0.204865 982:0.182724 1075:0.0616823 
-63.57355352059623 44:-0.202303 45:-0.0384173 370:0.270147 454:-0.199244 487:-0.281722 491:0.0184831 499:0.0535955 602:-0.215085 764:0.10847 792:-0.0466375 813:0.0177219 909:0.301087 982:0.22102 1075:0.128234 
-7.686879585664698 44:-0.0956463 45:0.379787 370:-0.520767 454:0.223294 487:0.346934 491:0.693721 499:-0.223612 602:-0.156473 764:-0.498152 792:0.289226 813:-0.464845 909:-0.340089 982:-0.111365 1075:-0.707068 
-39.94119725478567 44:0.023764 45:-0.423411 370:-0.21967 454:0.0217618 487:-0.224764 491:-0.448271 499:-0.0774284 602:0.257042 764:-0.00256701 792:-0.0510399 813:0.0483935 909:0.340591 982:0.196127 1075:0.484573 
-20.72923504177798 44:-0.0741332 45:0.0549821 370:0.209906 454:-0.274897 487:-0.304363 491:-0.0459733 499:-0.435849 602:-0.0791855 764:0.136941 792:0.0844499 813:-0.139726 909:-0.0658418 982:-0.234362 1075:0.255573 
-2.140145847248482 44:-0.169592 45:0.66152 370:-0.382042 454:0.480234 487:-0.0273584 491:0.143395 499:-0.283169 602:-0.175122 764:0.384069 792:0.0248344 813:-0.0211288 909:-0.506461 982:-0.148264 1075:-0.312474 
-52.96959963277068 44:-0.213366 45:-0.109862 370:-0.211788 454:0.122283 487:0.0943397 491:-0.191778 499:0.101241 602:0.00599206 764:0.0173627 792:0.0908259 813:0.130185 909:-0.16764 982:0.150003 1075:0.101508 
-101.1739476089014 44:0.121936 45:-0.0760933 370:-0.0611518 454:0.0498204 487:-0.149057 491:0.0620468 499:0.142389 602:-0.0396352 764:-0.0505458 792:0.0126019 813:-0.156084 909:-0.0901518 982:-0.0817546 1075:-0.0813776 
-181.6071279174967 44:-0.0648519 45:0.141544 370:-0.153235 454:-0.0059077 487:0.0922171 491:0.0162606 499:0.0221931 602:-0.116715 764:-0.22559 792:0.192007 813:0.160856 909:0.187894 982:-0.0952583 1075:0.0595861 
-12.62540261341685 44:0.288871 45:0.101496 370:-0.0134212 454:-0.0705866 487:-0.198231 491:-0.146881 499:0.114235 602:0.0795138 764:-0.195221 792:0.154586 813:0.453259 909:0.19777 982:0.0423812 1075:-0.12854 
-13.58570356354114 44:0.0523952 45:-0.0498131 370:-0.0541455 454:-0.219733 487:-0.0995282 491:0.047822 499:-0.351388 602:0.0763757 764:-0.00921018 792:0.0815276 813:-0.368741 909:-0.0141831 982:-0.271517 1075:0.0994124 
-18.42514799824037 44:-0.054443 45:-0.279218 370:-0.110446 454:0.107572 487:-0.313561 491:-0.358032 499:0.143471 602:0.149705 764:0.0135666 792:-0.0514954 813:0.438945 909:0.380855 982:0.134629 1075:0.427978 
-16.51212268685309 44:-0.0154229 45:-0.119305 370:-0.125085 454:-0.0967383 487:0.416628 491:0.185625 499:0.077418 602:0.15184 764:-0.199649 792:0.0768341 813:-0.319666 909:-0.0324156 982:-0.292444 1075:-0.257451 
-20.63997592984233 44:-0.0945981 45:0.162615 370:0.106816 454:0.0172455 487:-0.0860848 491:-0.0433061 499:-0.102334 602:0.285828 764:0.347426 792:0.00472206 813:0.025901 909:0.0374757 982:0.140563 1075:0.0396731 
-10.34523944876772 44:-0.0681703 45:-0.0175791 370:-0.0191139 454:-0.00466237 487:0.294222 491:0.394553 499:-0.004878 602:0.0803108 764:-0.0918815 792:0.163028 813:-0.194935 909:-0.0377333 982:-0.0897267 1075:-0.53047 
-19.99843689793837 44:0.00293281 45:-0.0802331 370:-0.341843 454:0.203189 487:0.158373 491:0.259417 499:0.0481813 602:0.299182 764:0.0206844 792:0.152726 813:0.109737 909:-0.369717 982:0.076974 1075:-0.213433 
-46.62800713902909 44:0.260553 45:-0.0549297 370:-0.0745463 454:-0.022225 487:0.172877 491:0.0607133 499:0.0698382 602:0.23162 764:-0.151453 792:-0.0348499 813:0.00954279 909:0.179537 982:0.0291168 1075:-0.0205902 
-18.36280443568511 44:0.271377 45:0.167824 370:-0.457009 454:0.444276 487:-0.0369103 491:0.117168 499:-0.29508 602:-0.193453 764:-0.100739 792:0.000794524 813:-0.109054 909:-0.0438109 982:-0.107948 1075:-0.238586 
-59.15386385211799 44:0.0557581 45:-0.0784656 370:-0.218094 454:0.0585377 487:0.0678067 491:-0.109096 499:0.1164 602:-0.144996 764:-0.0251539 792:-0.0321244 813:0.412363 909:-0.048369 982:-0.142114 1075:0.0370529 
-15.77980126078067 44:0.387049 45:-0.0190676 370:-0.464016 454:0.448362 487:-0.0376179 491:0.116724 499:-0.17705 602:0.017648 764:-0.21515 792:0.101453 813:-0.0865616 909:-0.0939502 982:-0.29586 1075:0.0417692 
-17.22864346322685 44:0.0831683 45:0.713569 370:-0.301869 454:0.386368 487:0.364623 491:0.409667 499:-0.0222034 602:0.00522355 764:0.328645 792:0.0675232 813:-0.1888 909:0.151429 982:-0.153828 1075:-0.216577 
-3.378002748758995 44:-0.276165 45:-0.283823 370:-0.340768 454:0.317975 487:-0.181604 491:0.0678257 499:0.196531 602:0.0224571 764:0.174384 792:-0.132479 813:0.0647517 909:0.255506 982:0.00697297 1075:0.179065 
-30.4842530073637 44:0.264817 45:-0.0295797 370:-0.215729 454:-0.0910176 487:-0.154363 491:-0.393149 499:0.205193 602:0.335047 764:-0.0889289 792:0.0616026 813:0.336707 909:-0.128896 982:-0.0678036 1075:0.302211 
-73.2869284119628 44:-0.223216 45:0.0394931 370:-0.131215 454:-0.0536969 487:-0.0662735 491:-0.116209 499:-0.0481917 602:-0.0312669 764:0.197468 792:-0.101457 813:0.310125 909:-0.251965 982:-0.0168396 1075:0.0627303 
-15.22560856914715 44:0.238412 45:0.100379 370:-0.022617 454:0.0149514 487:-0.122877 491:-0.0681998 499:0.0254416 602:-0.58796 764:-0.667628 792:0.408386 813:0.132229 909:-0.000508635 982:-0.470106 1075:-0.0336909 
-30.72253554379353 44:-0.0138037 45:0.353135 370:0.0325579 454:-0.387676 487:-0.0209905 491:-0.138435 499:-0.0330319 602:-0.0155265 764:0.0705086 792:0.137406 813:0.338751 909:-0.245128 982:-0.307818 1075:0.0412451 
-1.392417292403257 44:0.429705 45:0.934881 370:0.0809766 454:0.103369 487:-0.527948 491:-0.150437 499:-0.283169 602:-0.0152703 764:-0.369843 792:-0.107665 813:0.369423 909:0.674854 982:0.133165 1075:0.239852 
-1.960509408733928 44:-0.0228026 45:0.217919 370:0.0956148 454:-0.314125 487:0.0129718 491:0.00514732 499:-0.0633515 602:0.485676 764:0.150227 792:-0.0180973 813:-0.111099 909:-0.0187411 982:0.144879 1075:0.0658745 
-109.4763417002785 44:-0.132797 45:-0.109676 370:-0.129026 454:0.0928618 487:0.120165 491:-0.0619763 499:0.0535955 602:-0.161673 764:0.0040763 792:-0.0462579 813:0.0565726 909:-0.060524 982:-0.0319295 1075:-0.00486939 
-195.6160417067159 44:-0.0903503 45:0.33732 370:-0.060783 454:0.000728574 487:-0.13349 491:0.0833841 499:-0.126156 602:-0.157001 764:0.0117684 792:-0.0304018 813:-0.0702034 909:-0.011904 982:0.0154081 1075:-0.0897621 
-55.40864552083845 44:0.0397177 45:0.0115849 370:-0.0451374 454:0.23226 487:-0.176297 491:0.220299 499:-0.164056 602:-0.265295 764:-0.088929 792:-0.0666763 813:-0.272636 909:0.22208 982:-0.0571878 1075:-0.178323 
-1.181772070933172 44:-0.211371 45:0.253316 370:-0.124621 454:0.0793052 487:0.235142 491:0.0411541 499:0.0893293 602:-0.25318 764:0.0517512 792:-0.0378504 813:-0.092696 909:-0.0559659 982:-0.382079 1075:-0.157886 
-9.474125637633612 44:-0.0118633 45:0.0117709 370:0.0719684 454:-0.203668 487:0.183491 491:0.661714 499:-0.140233 602:-0.250626 764:-0.276338 792:0.295333 813:-0.37692 909:-0.441887 982:-0.198218 1075:-0.616411 
-34.47181439703489 44:-0.150452 45:-0.00157849 370:-0.215729 454:0.163962 487:0.0571935 491:-0.081091 499:-0.0557716 602:0.244489 764:0.322951 792:-0.117988 813:-0.137681 909:-0.00886526 982:0.203815 1075:-0.0263546 
-12.28008343840212 44:0.0561827 45:0.370298 370:0.645213 454:-0.283812 487:0.134316 491:0.192738 499:-0.213867 602:0.397401 764:0.157474 792:-0.329555 813:-0.50983 909:-0.0324156 982:0.68532 1075:-0.13378 
-14.18433697213267 44:-0.245656 45:-0.4509 370:-0.213102 454:0.188479 487:-0.137382 491:-0.466497 499:0.35246 602:-0.103394 764:0.00850505 792:-0.0441326 813:0.424632 909:0.085336 982:-0.234362 1075:0.35409 
-8.368192306832029 44:-0.0342301 45:-0.0121371 370:0.488845 454:-0.42309 487:0.339151 491:0.178958 499:0.0276073 602:-0.475585 764:-0.254271 792:-0.00251153 813:-0.111099 909:-0.00886524 982:-0.278777 1075:-0.0792815 
-8.904789840888581 44:0.0971452 45:0.0653547 370:-0.472313 454:0.247449 487:0.0097878 491:-0.220673 499:-0.046026 602:0.104619 764:-0.239975 792:0.146336 813:0.0483935 909:-0.0931906 982:0.138405 1075:0.183257 
-34.93933958709334 44:0.152497 45:-0.0379986 370:0.131873 454:-0.03757 487:0.110613 491:-0.114431 499:0.0373529 602:-0.0955037 764:-0.110187 792:0.149804 813:0.0054532 909:-0.147888 982:0.0013822 1075:0.244568 
-10.96637769817056 44:0.015061 45:0.368949 370:-0.00685275 454:-0.101642 487:0.471109 491:0.55814 499:-0.0958368 602:0.301872 764:0.134726 792:-0.0625521 813:-0.284905 909:-0.588507 982:0.166232 1075:-0.744798 
-26.75265282676906 44:0.101699 45:-0.190517 370:0.245375 454:-0.0208982 487:-0.0418632 491:-0.138435 499:-0.26476 602:0.518133 764:0.0492502 792:-0.198113 813:-0.319666 909:0.155227 982:0.407272 1075:0.276534 
-63.24154340644125 44:0.0987453 45:-0.261311 370:0.198082 454:-0.135817 487:-0.11191 491:0.0220393 499:0.00919897 602:0.254596 764:0.10916 792:-0.163779 813:-0.127457 909:0.0260804 982:0.0945616 1075:-0.111771 
-22.44954040792645 44:-0.185529 45:0.0209806 370:-0.4049 454:0.372358 487:-0.157193 491:-0.250456 499:-0.0157064 602:-0.1545 764:0.322951 792:-0.0792005 813:0.0586174 909:0.285134 982:-0.2113 1075:0.145527 
-2.613650982129073 44:-0.336872 45:-0.491414 370:-0.279349 454:0.19023 487:-0.215212 491:-0.557625 499:-0.0243692 602:0.131261 764:0.381791 792:-0.00473808 813:-0.270591 909:-0.103826 982:-0.276825 1075:0.404397 
-58.66932603417872 44:-0.102733 45:-0.0506504 370:-0.150833 454:-0.155907 487:-0.0616744 491:-0.0695333 499:-0.246352 602:0.274376 764:0.0457071 792:0.073717 813:-0.254233 909:-0.122059 982:0.274709 1075:-0.0106337 
-105.4581030786722 44:-0.0421391 45:-0.322337 370:-0.0265581 454:-0.0599624 487:-0.11191 491:-0.0473069 499:0.00811611 602:-0.0594602 764:0.112582 792:0.0164393 813:-0.182666 909:-0.122818 982:-0.303548 1075:0.0632543 
-73.94873269564305 44:-0.0408687 45:0.18829 370:0.0971912 454:0.0173487 487:0.13184 491:0.137172 499:-0.216032 602:0.386512 764:0.0120481 792:0.102196 813:-0.252188 909:-0.0658418 982:0.175628 1075:-0.204 
-8.837142261283974 44:-0.135553 45:0.433371 370:-0.126661 454:-0.237631 487:-0.0553066 491:-0.444715 499:0.0438499 602:-0.11774 764:0.0811377 792:0.0125075 813:0.287632 909:-0.160043 982:-0.332759 1075:0.238804 
-5.022720804901757 44:0.37781 45:-0.0674418 370:0.286362 454:-0.300395 487:0.119104 491:-0.0201908 499:-0.046026 602:0.0458014 764:-0.482208 792:0.223765 813:0.220155 909:-0.157764 982:-0.0252671 1075:-0.200856 
-33.17189099965704 44:0.118968 45:0.289923 370:-0.229304 454:-0.072221 487:0.122995 491:0.125614 499:-0.141316 602:0.187505 764:-0.0239729 792:0.132565 813:-0.250144 909:-0.246647 982:-0.183113 1075:-0.310378 
-8.642986447082974 44:0.0214027 45:-0.342384 370:0.0264273 454:-0.1376 487:0.0890331 491:0.018483 499:0.162963 602:-0.685989 764:-0.313322 792:0.278504 813:0.0361248 909:0.022282 982:-0.634102 1075:-0.194568 
-22.53076308306698 44:0.069838 45:0.0925651 370:0.324196 454:-0.353352 487:-0.0192216 491:0.0900521 499:-0.313488 602:-0.113175 764:-0.171063 792:-0.0300764 813:0.0279458 909:-0.174477 982:0.198923 1075:-0.402607 
-0.03333922570396257 44:0.0424934 45:0.405695 370:-0.372296 454:0.151257 487:0.457665 491:0.467456 499:-0.127239 602:-0.173166 764:-0.103423 792:0.179752 813:-0.19289 909:-0.767033 982:-0.388108 1075:-0.809777 
-4.926734610529111 44:0.0490323 45:0.532119 370:0.0522631 454:-0.151085 487:0.061085 491:0.32743 499:-0.0741799 602:0.251214 764:0.0904382 792:-0.0728245 813:0.12405 909:-0.422135 982:0.152566 1075:-0.350204 
-23.12285322183049 44:0.0704295 45:0.189407 370:0.288959 454:-0.130678 487:-0.317099 491:0.0238175 499:-0.466169 602:0.0953362 764:-0.148327 792:-0.0623542 813:0.0667965 909:-0.0924309 982:0.357109 1075:0.143955 
-79.07173476629077 44:-0.12631 45:0.305877 370:0.00520225 454:-0.144523 487:0.252123 491:0.382551 499:-0.0536059 602:0.116433 764:0.173674 792:0.00390614 813:-0.262412 909:-0.466957 982:0.0399694 1075:-0.400511 
-46.9887868253556 44:0.0610516 45:0.674125 370:-0.320386 454:0.415945 487:-0.0174528 491:0.177624 499:-0.112079 602:-0.139258 764:0.277187 792:0.171766 813:-0.05589 909:-0.0779968 982:-0.0942821 1075:-0.112819 
-23.53758998182742 44:-0.0777211 45:-0.256752 370:0.341394 454:-0.134034 487:0.235849 491:0.0882739 499:0.364371 602:0.0811439 764:0.0994971 792:-0.0919042 813:0.132229 909:0.219041 982:0.40019 1075:-0.0258305 
-50.07223236619699 44:0.0504491 45:0.65138 370:0.0627726 454:-0.078759 487:-0.0224056 491:0.326541 499:-0.259346 602:0.0538111 764:-0.0911434 792:-0.140835 813:-0.0579347 909:0.138514 982:0.106442 1075:-0.0384072 
-55.54783392049575 44:0.094478 45:0.124846 370:-0.0107938 454:0.0658928 487:0.0129718 491:0.095831 499:-0.149979 602:0.208625 764:0.143584 792:-0.122238 813:-0.0579348 909:-0.0893921 982:0.144879 1075:-0.0991946 
-22.3168387376059 44:0.0862465 45:-0.0293937 370:0.291166 454:-0.0442013 487:-0.220519 491:0.163844 499:-0.0297834 602:-0.0316654 764:-0.0130063 792:-0.107361 813:-0.0231736 909:-0.128136 982:0.0501905 1075:0.0648265 
-1.44443098003852 44:0.287668 45:0.705476 370:-0.187535 454:0.530778 487:0.0168632 491:0.0833842 499:0.0146132 602:-0.222574 764:0.119566 792:0.160757 813:0.285587 909:0.291211 982:-0.301379 1075:0.255573 
-17.86225355769128 44:-0.00940709 45:-0.184703 370:-0.0730625 454:-0.00226515 487:0.0632076 491:0.107833 499:0.0535955 602:-0.483555 764:-0.115502 792:0.117499 813:-0.166308 909:-0.164601 982:-0.232312 1075:-0.342344 
-5.086421254147919 44:0.0314439 45:0.517049 370:-0.0406333 454:0.0333199 487:-0.161085 491:-0.153104 499:-0.226861 602:-0.321653 764:-0.445765 792:0.222369 813:0.254916 909:0.00936728 982:0.0658091 1075:-0.0467917 
-45.71719797240198 44:-0.0075228 45:0.0407955 370:0.540392 454:-0.574708 487:-0.110849 491:-0.0410835 499:-0.219281 602:0.0779767 764:0.0781008 792:0.0116573 813:-0.0538452 909:0.0131657 982:0.0306672 1075:0.281774 
-24.45454211176444 44:-0.0955449 45:0.0959141 370:-0.171251 454:-0.00310572 487:-0.100943 491:0.35099 499:-0.266926 602:0.0953965 764:0.161616 792:-0.0527098 813:0.169035 909:-0.173717 982:0.420157 1075:-0.147929 
-49.74118264682516 44:0.125338 45:0.0966118 370:0.0899847 454:0.19023 487:0.0419812 491:-0.0166344 499:0.135892 602:0.1661 764:0.260315 792:-0.00777427 813:0.267184 909:-0.0407721 982:0.323517 1075:-0.139021 
-10.59580769343371 44:0.29076 45:0.0805646 370:0.589936 454:-0.513064 487:-0.18125 491:-0.263347 499:-0.342725 602:-0.295011 764:-0.392619 792:-0.08125 813:0.00954274 909:0.0351966 982:-0.285611 1075:0.252429 
-12.71546044287127 44:0.0542012 45:-0.389549 370:-0.21967 454:-0.0967383 487:-0.112972 491:0.21452 499:-0.025452 602:0.00957849 764:-0.124359 792:0.00528133 813:0.230378 909:-0.101547 982:-0.401774 1075:-0.089762 
-17.58142206946304 44:0.0484874 45:0.147172 370:0.204651 454:-0.293693 487:0.349057 491:0.252305 499:-0.128322 602:0.182026 764:0.0727229 792:-0.0692823 813:-0.456666 909:-0.239051 982:-0.0908655 1075:-0.109151 
-26.10354160000597 44:0.0334557 45:0.282062 370:0.202023 454:-0.0934693 487:0.095401 491:0.272753 499:0.143471 602:0.0862383 764:0.083795 792:0.050179 813:-0.00681535 909:0.0898942 982:0.100036 1075:-0.0122058 
-0.1283860332198549 44:-0.241163 45:-0.274846 370:-0.0541455 454:0.251874 487:0.042335 491:-0.347363 499:0.266916 602:0.171224 764:0.252723 792:-0.403693 813:0.0872442 909:-0.150167 982:0.276661 1075:0.209982 
-280.6773504681303 44:-0.0101343 45:-0.262008 370:-0.0177665 454:-0.0621627 487:0.000589643 491:-0.188222 499:0.050347 602:0.331391 764:0.225858 792:-0.0527565 813:0.12405 909:0.058747 982:0.119648 1075:0.154959 
-0.2741199713847803 44:-0.111436 45:-0.0524179 370:-0.143476 454:-0.0240038 487:0.242925 491:-0.00196519 499:0.029773 602:0.0367756 764:0.12144 792:0.00545844 813:0.0279458 909:-0.184353 982:-0.209592 1075:-0.252735 
-9.48319302827346 44:0.0449014 45:0.293597 370:0.00891147 454:-0.0569659 487:0.0900945 491:0.328763 499:-0.0395289 602:0.110198 764:-0.130265 792:0.0357444 813:0.162901 909:-0.0210202 982:-0.123892 1075:-0.569772 
-16.50425966933306 44:0.0977693 45:0.786828 370:-0.302169 454:0.405048 487:0.149528 491:0.338987 499:-0.263677 602:0.0988805 764:0.283092 792:-0.026882 813:-0.194935 909:0.0898942 982:-0.131181 1075:-0.0205902 
-2.346709235807746 44:-0.0566493 45:0.118427 370:0.11751 454:0.0302066 487:-0.475943 491:0.148285 499:-0.227944 602:-0.191062 764:0.0941289 792:-0.0544641 813:0.146543 909:0.799442 982:0.21321 1075:0.118277 
-28.43927122549327 44:0.295371 45:0.171638 370:0.261139 454:0.0630639 487:0.098585 491:-0.126877 499:0.266916 602:0.00695765 764:0.225858 792:-0.239786 813:0.299901 909:-0.195748 982:0.0486887 1075:-0.152645 
-7.684825586696159 44:-0.143628 45:0.0290741 370:0.0509494 454:0.23942 487:-0.0549527 491:0.230078 499:0.0947435 602:0.357262 764:0.318522 792:-0.426633 813:0.0136323 909:0.365661 982:0.47287 1075:-0.072469 
-4.346557265718065 44:0.232197 45:0.308714 370:-0.0478398 454:0.0389239 487:0.0709907 491:0.232301 499:-0.428269 602:0.145504 764:-0.402489 792:0.0235592 813:-0.246054 909:-0.0597643 982:-0.144164 1075:-0.248543 
-25.59494869185979 44:-0.0109391 45:0.0845183 370:0.198082 454:-0.126245 487:0.0992925 491:0.242081 499:-0.269092 602:0.295266 764:0.132046 792:0.0440966 813:-0.667277 909:-0.31274 982:0.212851 1075:-0.0908101 
-14.41365879864642 44:0.110312 45:0.412253 370:0.439801 454:-0.227497 487:-0.0492923 491:0.292312 499:-0.276671 602:0.215798 764:0.0970814 792:-0.398177 813:-0.0702034 909:0.361103 982:0.161961 1075:-0.288893 
-36.67706535160558 44:0.131567 45:0.223455 370:0.508517 454:-0.175319 487:-0.171344 491:0.418113 499:-0.234441 602:-0.213745 764:-0.0848408 792:0.199994 813:0.142453 909:0.279816 982:0.0266123 1075:0.0307646 
-37.43137112673192 44:0.201047 45:0.163498 370:0.348718 454:-0.259642 487:-0.304009 491:0.15273 499:-0.171636 602:-0.297858 764:-0.106644 792:-0.16876 813:0.283543 909:0.387692 982:0.0127708 1075:-0.0619885 
-5.367642559200458 44:0.0648296 45:0.278759 370:-0.530576 454:0.511834 487:-0.279953 491:0.0398205 499:-0.0167893 602:-0.114552 764:-0.283797 792:0.0744727 813:0.375557 909:0.338312 982:0.0879356 1075:0.0155678 
-74.03288621402676 44:-0.148241 45:0.160429 370:0.082478 454:-0.172742 487:0.254953 491:-0.0415281 499:0.0687553 602:-0.127602 764:0.143584 792:-0.0179202 813:0.0831547 909:-0.274756 982:-0.242903 1075:-0.184087 
-3.507370069618315 44:-0.283434 45:-0.105164 370:-0.439653 454:0.376816 487:0.107429 491:-0.0930933 499:-0.0059608 602:-0.219138 764:-0.233872 792:0.178206 813:-0.0967855 909:0.285134 982:-0.0563891 1075:0.0255243 
-8.432648118945263 44:-0.274025 45:-0.273311 370:-0.289176 454:0.482909 487:-0.549882 491:-0.192667 499:0.401188 602:-0.120348 764:0.515001 792:0.02866 813:0.563677 909:1 982:0.029336 1075:0.41907 
-4.467577606585589 44:-0.204193 45:0.275782 370:-0.470321 454:0.484157 487:-0.343278 491:-0.309578 499:-0.0406118 602:0.0250001 764:0.171486 792:-0.181748 813:0.119961 909:0.354265 982:0.0362313 1075:0.430074 
-16.90119135385035 44:-0.235762 45:-0.163306 370:-0.351696 454:0.284096 487:0.0112029 491:-0.203781 499:0.184619 602:-0.345477 764:-0.411125 792:0.312923 813:0.148587 909:0.203847 982:-0.144677 1075:0.135046 
-37.87384501434136 44:-0.31981 45:0.090472 370:-0.227552 454:0.0977652 487:0.423349 491:0.110056 499:0.233347 602:-0.488934 764:0.0439357 792:-0.00481396 813:-0.421905 909:-0.294508 982:-0.564916 1075:-0.362781 
-31.96112135792367 44:0.233261 45:-0.119723 370:0.100631 454:-0.0564706 487:-0.207783 491:-0.0539749 499:0.0341044 602:-0.0209061 764:0.0535985 792:0.0972502 813:-0.0415766 909:0.350467 982:-0.0405486 1075:0.0794993 
-12.67068175684467 44:-0.0787364 45:-0.312522 370:-0.001598 454:-0.174649 487:0.373113 491:-0.0690888 499:0.27991 602:-0.177513 764:-0.212936 792:0.0834463 813:-0.528233 909:-0.175997 982:0.0287148 1075:-0.150025 
-150.4253425365984 44:-0.085265 45:-0.169958 370:0.144221 454:-0.164569 487:-0.141981 491:-0.169107 499:-0.112079 602:0.0836979 764:0.170157 792:-0.0147322 813:-0.170397 909:0.116483 982:-0.101969 1075:0.293303 
-15.94550559889843 44:-0.158906 45:0.354018 370:-0.340768 454:0.0014793 487:0.185967 491:0.368771 499:-0.394701 602:0.251988 764:0.27826 792:0.0348428 813:-0.266502 909:-0.450244 982:-0.127205 1075:-0.413612 
-21.91377628019126 44:0.153469 45:-0.362199 370:0.0115388 454:-0.0346279 487:-0.538207 491:-0.110874 499:0.0817495 602:0.264812 764:-0.0579272 792:-0.204772 813:0.471662 909:0.674094 982:0.115838 1075:0.37872 
-20.33131225991025 44:0.179956 45:-0.108978 370:0.399514 454:-0.225862 487:-0.12217 491:0.174957 499:-0.221447 602:-0.216964 764:-0.168648 792:-0.0988599 813:-0.199024 909:0.131677 982:0.340763 1075:-0.0101097 
-192.3663930169204 44:0.0858016 45:0.0591683 370:0.243123 454:-0.0217855 487:-0.171698 491:-0.0868699 499:0.192199 602:-0.0542086 764:-0.0332523 792:-0.10473 813:0.0586174 909:0.216002 982:0.0667853 1075:0.269198 
-35.09480962796848 44:0.0241221 45:0.0322835 370:0.329451 454:-0.0852969 487:-0.0913915 491:-0.271349 499:-0.00379515 602:-0.206205 764:0.154656 792:0.0314938 813:0.324438 909:0.012406 982:-0.119906 1075:0.0506776 
-1.150076350144401 44:0.0763091 45:-0.0890241 370:-0.295864 454:0.499848 487:0.398939 491:0.375439 499:-0.0200378 602:-0.264783 764:0.291949 792:-0.00392841 813:-0.591621 909:-0.406182 982:-0.148947 1075:-0.891526 
-9.329248321231093 44:-0.311098 45:-0.825893 370:-0.18996 454:-0.0138825 487:0.0168632 491:-0.46294 499:0.381697 602:0.170278 764:0.205417 792:0.00021326 813:-0.481203 909:-0.274756 982:0.411372 1075:0.258717 
-26.42545788846856 44:-0.199011 45:-0.00627633 370:-0.355418 454:0.132634 487:-0.00117918 491:0.0193722 499:-0.147813 602:0.236918 764:0.277187 792:0.0607761 813:-0.405546 909:-0.452523 982:-0.230945 1075:-0.102863 
-2.190416107165789 44:0.544791 45:1 370:0.918733 454:0.114577 487:-0.461439 491:-0.346918 499:0.225767 602:0.885435 764:0.138839 792:-1 813:0.776333 909:0.737908 982:1 1075:0.693661 
-26.24131206184661 44:0.0614514 45:0.299551 370:0.272755 454:-0.12831 487:0.272642 491:0.134505 499:-0.0243692 602:0.195601 764:-0.119698 792:-0.118771 813:-0.215382 909:-0.270198 982:-0.0601163 1075:-0.312474 
-29.40959208144941 44:-0.016391 45:0.180895 370:0.0361406 454:-0.117095 487:0.201179 491:0.536802 499:0.00703326 602:-0.0293831 764:0.0825871 792:0.0860439 813:-0.19289 909:0.0845764 982:0.00883654 1075:-0.527326 
-5.686003165282886 44:-0.106612 45:0.168522 370:0.211595 454:-0.150676 487:0.100708 491:0.177624 499:-0.214949 602:0.0530425 764:0.219823 792:-0.0525074 813:-0.464845 909:-0.258802 982:0.183925 1075:-0.251163 
-25.59463863999079 44:-0.0935844 45:0.0420978 370:-0.432487 454:0.235062 487:0.165448 491:0.100276 499:-0.27992 602:0.0426714 764:-0.0212888 792:-0.0698781 813:0.0095427 909:-0.221578 982:0.0647442 1075:-0.27946 
-58.83076449354816 44:0.0894492 45:-0.296847 370:-0.138221 454:-0.0820279 487:0.0713444 491:-0.224229 499:0.26475 602:-0.13866 764:-0.115502 792:0.127134 813:-0.0538452 909:0.228917 982:-0.213862 1075:0.129806 
-4.825567241315274 44:0.00754435 45:0.13173 370:-0.211788 454:0.28475 487:-0.0291272 491:0.276754 499:-0.191127 602:0.0721018 764:-0.20585 792:-0.0739226 813:-0.143815 909:-0.0574853 982:0.416838 1075:-0.204 
-6.473582922853308 44:-0.0622791 45:-0.0830239 370:0.0707073 454:-0.205072 487:-0.13066 491:0.137617 499:-0.109914 602:0.197866 764:0.0875152 792:0.0664059 813:0.224244 909:-0.050648 982:0.360533 1075:-0.164174 
-60.8404379779714 44:-0.131162 45:-0.206704 370:0.119261 454:-0.0624141 487:-0.0818395 491:-0.173553 499:0.056844 602:0.209821 764:0.318522 792:-0.0113671 813:0.473707 909:-0.285391 982:0.0235899 1075:-0.0268786 
-49.08723965682149 44:0.0482435 45:0.45793 370:-0.0453876 454:-0.164842 487:-0.32559 491:-0.0513077 499:-0.102334 602:0.0922655 764:-0.029878 792:0.128551 813:0.387826 909:0.528994 982:-0.160336 1075:0.1733 
-18.44226166922174 44:0.245138 45:0.00674747 370:0.0789748 454:0.198014 487:-0.0411556 491:0.0500446 499:-0.185713 602:0.284737 764:0.0409831 792:-0.368541 813:-0.0518005 909:-0.374275 982:0.0401035 1075:0.0171398 
-1.412462552868978 44:0.0938952 45:0.222338 370:0.502401 454:-0.0906978 487:-0.096698 491:0.149619 499:-0.198707 602:0.414299 764:0.123654 792:-0.325254 813:-0.0640691 909:0.162824 982:0.360569 1075:-0.174655 
-10.02949111062607 44:0.191309 45:-0.110188 370:0.576424 454:-0.0529044 487:-0.00790085 491:-0.271349 499:-0.149979 602:0.449242 764:0.232362 792:-0.479487 813:0.101558 909:-0.179795 982:0.414167 1075:0.194786 
-46.32790983192166 44:-0.0434054 45:0.224059 370:0.0579558 454:0.261214 487:0.204717 491:-0.207337 499:0.198696 602:0.105416 764:0.365763 792:-0.192847 813:-0.0886064 909:-0.183593 982:0.0742692 1075:-0.0918582 
-9.581355595631768 44:0.160443 45:-0.337872 370:-0.162744 454:0.189296 487:0.387264 491:-0.0957605 499:0.426093 602:-0.509855 764:0.200421 792:0.0815571 813:-0.184711 909:-0.177516 982:-0.174002 1075:0.0884077 
-16.63905912506652 44:0.16364 45:-0.0975826 370:0.320693 454:-0.301049 487:0.164741 491:-0.10554 499:0.194365 602:0.259234 764:0.0646034 792:-0.253773 813:-0.276726 909:0.0845763 982:0.0173262 1075:0.149719 
-29.29328751037271 44:-0.0800961 45:0.153638 370:0.137653 454:-0.0983727 487:0.210731 491:-0.01619 499:0.0492642 602:-0.47698 764:0.0837949 792:-0.115154 813:-0.00886018 909:0.268421 982:-0.0925738 1075:0.137142 
-59.24111516532813 44:-0.0184495 45:-0.109258 370:0.00575868 454:-0.167021 487:-0.135259 491:0.0758273 499:0.0124475 602:-0.119174 764:0.0120482 792:0.0762674 813:0.109737 909:0.12408 982:-0.150314 1075:0.0286684 
-15.14041815847618 44:-0.123876 45:-0.0772097 370:-0.274845 454:0.148026 487:-0.185141 491:-0.382036 499:-0.0102922 602:0.373601 764:0.289735 792:-0.0866392 813:0.130185 909:0.116483 982:0.0577558 1075:0.270246 
-68.91973477552891 44:-0.0165065 45:0.141777 370:-0.148731 454:0.0810935 487:0.0338444 491:-0.177998 499:-0.0113751 602:-0.0478043 764:-0.112845 792:0.0112323 813:0.232423 909:-0.38719 982:-0.0683161 1075:0.0401971 
-9.671900026242824 44:0.422072 45:0.0731224 370:0.405269 454:-0.15161 487:0.297052 491:0.240302 499:0.12398 602:0.311607 764:-0.0130064 792:-0.237917 813:0.142453 909:-0.203345 982:0.285446 1075:-0.290465 
-5.310022186747099 44:-0.092271 45:-0.313173 370:0.469227 454:0.0166949 487:-0.0744103 491:-0.196668 499:-0.0915054 602:0.409704 764:0.364582 792:-0.152985 813:-0.14995 909:-0.273996 982:0.455104 1075:0.323697 
-41.04025543758445 44:0.0942071 45:-0.214518 370:0.0120643 454:-0.0277631 487:0.282901 491:-0.274905 499:0.428259 602:0.196431 764:0.168828 792:-0.0892959 813:-0.100875 909:0.306405 982:-0.0467916 1075:0.211554 
-87.81097377671351 44:-0.0338772 45:0.179546 370:0.339961 454:-0.304318 487:0.135377 491:0.376328 499:-0.123991 602:0.237715 764:0.194515 792:-0.120113 813:-0.209248 909:0.00101073 982:0.111852 1075:-0.302518 
-73.82275457432144 44:-0.159148 45:-0.0922801 370:0.216629 454:0.0677677 487:-0.137028 491:-0.242455 499:-0.0579373 602:-0.309297 764:-0.151453 792:-0.107611 813:0.00340845 909:-0.14409 982:0.0906152 1075:0.149195 
-73.74788968573345 44:0.132731 45:-0.177586 370:-0.295864 454:0.0291169 487:0.0476416 491:0.128726 499:-0.109914 602:0.0651681 764:0.035078 792:0.0244093 813:0.0197666 909:0.0792585 982:0.189294 1075:-0.173083 
-3.619659663463474 44:-0.0245774 45:0.181732 370:0.426664 454:-0.228314 487:0.0833727 491:-0.0521967 499:-0.025452 602:-0.126706 764:-0.23508 792:0.306547 813:0.0299906 909:-0.330213 982:0.124379 1075:-0.100767 
-4.995942030813535 44:0.213814 45:0.423184 370:-0.311628 454:0.0814204 487:0.0101416 491:-0.130878 499:-0.100168 602:0.539772 764:-0.106644 792:-0.0853994 813:0.285587 909:-0.228415 982:0.486537 1075:-0.178323 
-47.38140011251581 44:-0.102385 45:-0.0384173 370:-0.0646549 454:-0.103603 487:0.289977 491:0.170956 499:0.143471 602:-0.200466 764:0.127197 792:-0.0481353 813:-0.160174 909:-0.387949 982:-0.0150174 1075:-0.456058 
-31.16107792333759 44:0.0264678 45:0.612681 370:0.201586 454:-0.388221 487:0.0221698 491:-0.0926488 499:0.113152 602:0.0615817 764:-0.283797 792:0.132093 813:0.236513 909:0.0967313 982:0.126657 1075:0.001943 
-22.32663691942093 44:-0.0584164 45:0.0300508 370:-0.111291 454:0.138219 487:-0.180896 491:0.0753826 499:0.165128 602:-0.210987 764:0.123654 792:-0.121441 813:0.365334 909:0.0716617 982:0.00522583 1075:0.0433413 
-0.2344974699101648 44:0.069224 45:0.376298 370:0.0234631 454:-0.0712152 487:0.189151 491:1 499:-0.400116 602:0.0367526 764:0.00101018 792:-0.033792 813:-0.211293 909:-0.347686 982:0.116495 1075:-0.576061 
-20.16192814074243 44:0.0405718 45:-0.148701 370:0.587684 454:-0.375768 487:-0.276061 491:0.0233729 499:-0.205204 602:-0.183832 764:0.0781008 792:-0.19875 813:0.00954284 909:0.00784789 982:-0.0103318 1075:-0.134828 
-8.91150372808206 44:-0.189973 45:-0.426109 370:-0.477528 454:0.585308 487:0.754128 491:-0.189111 499:0.656739 602:-0.164875 764:-0.111706 792:0.0693449 813:-0.0211288 909:0.39149 982:-0.613602 1075:0.204218 
-2.981209818993239 44:0.245894 45:0.0705642 370:0.0899847 454:0.1468 487:-0.0595519 491:-0.172664 499:-0.0406118 602:-0.193567 764:-0.453357 792:0.30556 813:0.175169 909:-0.103067 982:-0.064509 1075:0.226227 
-1.386019028525528 44:-0.427767 45:-0.685097 370:-0.793632 454:0.598809 487:0.319693 491:-0.376702 499:0.44775 602:0.396097 764:0.437698 792:-0.0115281 813:-0.28286 909:0.329955 982:0.239922 1075:0.458896 
-13.45729307597864 44:-0.0930183 45:0.0755877 370:-0.442997 454:0.455172 487:0.158373 491:0.302536 499:-0.0698486 602:-0.0842663 764:-0.13617 792:-0.0752451 813:-0.323755 909:-0.0666015 982:-0.128448 1075:-0.187231 
-40.35251564101319 44:0.247739 45:-0.0922336 370:0.0311669 454:0.0504614 487:-0.221934 491:-0.262458 499:0.199779 602:-0.287778 764:-0.0920551 792:0.128926 813:0.571856 909:0.207646 982:-0.191554 1075:0.411733 
-51.99844669070094 44:0.186798 45:-0.268567 370:-0.271692 454:0.401779 487:-0.202476 491:-0.145992 499:-0.0666 602:0.222971 764:-0.173962 792:-0.1979 813:0.236513 909:0.409723 982:0.0956798 1075:0.214699 
-20.55678326899331 44:-0.0894403 45:-0.0737212 370:-0.0684766 454:0.149474 487:-0.0885613 491:0.225188 499:-0.104499 602:0.109835 764:0.225115 792:-0.0420556 813:0.0504383 909:0.14763 982:0.0777894 1075:-0.0190182 
-27.36635329648319 44:0.0974493 45:-0.432062 370:0.0671179 454:0.00573125 487:-0.0737028 491:-0.313579 499:0.316726 602:-0.614873 764:0.0418915 792:0.0231014 813:0.107692 909:0.237274 982:-0.146845 1075:0.367715 
-13.12686996636763 44:-0.047856 45:0.18229 370:0.456616 454:-0.316086 487:-0.160023 491:-0.316691 499:-0.427187 602:-0.214573 764:0.139598 792:-0.0499772 813:0.0218114 909:0.0200029 982:0.204327 1075:0.20841 
-14.66440789217655 44:0.110265 45:0.0101895 370:0.127143 454:-0.257735 487:-0.0945754 491:0.236302 499:-0.319985 602:-0.134775 764:-0.0357831 792:0.132801 813:-0.133591 909:-0.242849 982:-0.193363 1075:-0.0829497 
-25.05171249093508 44:-0.0171666 45:0.208198 370:-0.0156107 454:0.17622 487:-0.081132 491:0.180736 499:-0.2496 602:0.181129 764:0.283092 792:-0.0606039 813:-0.309442 909:0.073181 982:0.265598 1075:0.203694 
-24.00993663663295 44:-0.0842092 45:-0.26759 370:-0.0340819 454:0.240411 487:0.180307 491:-0.19978 499:0.173791 602:-0.0662255 764:0.0511827 792:-0.212082 813:0.136319 909:-0.0795162 982:0.0237453 1075:0.0108515 
-185.005223295983 44:-0.0156503 45:-0.124468 370:-0.0445499 454:-0.0165065 487:-0.16816 491:0.176735 499:-0.187878 602:0.195059 764:0.0728192 792:-0.0448949 813:-0.160173 909:-0.186632 982:0.0637719 1075:0.0580141 
-86.65150397651107 44:0.0631743 45:0.11452 370:0.0815641 454:0.0602432 487:-0.243868 491:0.166511 499:-0.0904226 602:-0.0718957 764:0.0266055 792:0.00371046 813:0.271274 909:0.327676 982:-0.0146609 1075:0.0810713 
-1.132401115335108 44:-0.0375385 45:0.449511 370:-0.103409 454:-0.186635 487:-0.282429 491:0.0713819 499:-0.0925883 602:-0.190365 764:0.136941 792:-0.010393 813:0.30808 909:0.402126 982:-0.154926 1075:-0.0771853 
-1.434774672385878 44:-0.136522 45:0.405463 370:-0.24782 454:0.357415 487:0.291745 491:0.443007 499:-0.232275 602:0.0960796 764:0.181862 792:0.132093 813:-0.697949 909:-0.643964 982:-0.0132603 1075:-0.215005 
-30.52477944100933 44:0.129835 45:-0.0980013 370:0.414841 454:-0.196442 487:0.17217 491:0.0931638 499:0.269081 602:0.0943078 764:-0.178613 792:-0.0443983 813:0.0463488 909:-0.123578 982:-0.0396168 1075:-0.0588443 
-31.16772071128787 44:-0.132062 45:0.155405 370:0.0719684 454:0.0987976 487:-0.0337263 491:-0.057531 499:-0.200873 602:0.00344382 764:0.252323 792:-0.0807386 813:0.0565725 909:0.022282 982:0.121142 1075:-0.0127298 
-65.42359624902534 44:0.0333533 45:0.228059 370:0.360575 454:-0.0591451 487:-0.152594 491:-0.0926488 499:-0.0492745 602:0.370566 764:0.144095 792:-0.0861079 813:0.301946 909:0.298808 982:0.334105 1075:0.101508 
-38.66158052459265 44:-0.031063 45:0.0602381 370:0.175562 454:-0.437411 487:-0.0662735 491:-0.241565 499:0.16946 602:-0.145406 764:-0.035783 792:-0.0933947 813:0.586169 909:0.101289 982:-0.323681 1075:0.138715 
-23.11840569416163 44:0.042901 45:-0.453552 370:0.16942 454:0.0621037 487:0.171462 491:-0.110874 499:0.358957 602:-0.480947 764:0.0946657 792:-0.102338 813:-0.360561 909:-0.33781 982:0.0274725 1075:-0.0902861 
-27.44162406094334 44:0.0696003 45:-0.10028 370:-0.200323 454:0.29212 487:-0.230071 491:-0.283796 499:0.247424 602:0.0967939 764:-0.045446 792:-0.126296 813:0.426677 909:0.310203 982:0.163515 1075:0.26815 
-29.36690288108925 44:-0.0698744 45:0.185499 370:0.000312797 454:0.0300085 487:0.0455189 491:0.235857 499:0.0687553 602:-0.0264488 764:0.10916 792:0.013203 813:-0.196979 909:0.118003 982:0.0721986 1075:-0.0787574 
-0.937018226821799 44:0.0192335 45:0.588773 370:-0.132967 454:-0.0738555 487:-0.0878537 491:0.121169 499:-0.25718 602:0.335943 764:-0.102215 792:0.0610713 813:-0.215382 909:-0.200307 982:0.436996 1075:-0.286273 
-65.19399895342517 44:-0.0577952 45:0.100705 370:0.12399 454:-0.182712 487:-0.0719339 491:0.186515 499:-0.109914 602:-0.377038 764:-0.134103 792:0.0841311 813:0.00340848 909:-0.0893921 982:-0.213862 1075:-0.0373592 
-51.00179057539562 44:-0.0457176 45:-0.488437 370:-0.206937 454:0.286359 487:-0.530778 491:-0.0299703 499:-0.0969196 602:0.122827 764:0.229946 792:-0.0622388 813:0.0974681 909:0.0724214 982:0.280491 1075:0.175921 
-61.25247224379625 44:0.0265597 45:0.219501 370:-0.00685275 454:-0.344946 487:0.00589631 491:-0.160661 499:-0.0113751 602:0.232705 764:0.0591201 792:0.091509 813:-0.170397 909:-0.26412 982:0.0218816 1075:0.056442 
-24.1652010204586 44:-0.0490517 45:0.576679 370:0.409509 454:-0.301433 487:0.122642 491:0.0958309 499:-0.0319491 602:-0.306765 764:0.0486249 792:-0.0863579 813:0.150632 909:-0.158524 982:0.0134407 1075:-0.307234 
-22.79698615170498 44:-0.193549 45:0.357414 370:-0.315381 454:0.165013 487:-0.2375 491:0.0118152 499:-0.260429 602:-0.241727 764:-0.00541408 792:0.000119841 813:0.316259 909:-0.0871131 982:-0.0952583 1075:-0.171511 
-34.26586788760261 44:0.0511995 45:0.225315 370:-0.189718 454:0.192892 487:0.0189859 491:0.031819 499:0.015696 602:-0.0983729 764:0.0678512 792:-0.0191599 813:0.158811 909:0.19777 982:0.0813301 1075:-0.0976225 
-6.237362186816943 44:-0.125688 45:0.628588 370:-0.277998 454:0.115418 487:-0.182665 491:0.186959 499:-0.324317 602:0.453936 764:0.352181 792:-0.188124 813:-0.176532 909:0.0139254 982:0.310924 1075:-0.247495 
-53.81991467551064 44:0.0186083 45:0.153591 370:-0.197236 454:-0.11346 487:-0.169575 491:0.194961 499:0.0904122 602:0.102963 764:-0.0194305 792:0.124463 813:0.207886 909:0.241832 982:-0.050655 1075:0.00246704 
-10.11709438985453 44:-0.0187324 45:0.123357 370:0.144034 454:-0.496253 487:0.0646227 491:0.07316 499:-0.213867 602:0.205039 764:-0.0205986 792:-0.0126322 813:0.00954278 909:-0.209423 982:0.264947 1075:-0.426713 
-64.80231545847906 44:-0.0783835 45:-0.0409755 370:-0.255139 454:0.0953135 487:0.095401 491:0.245192 499:-0.106665 602:-0.280025 764:0.19673 792:-0.0722932 813:-0.391233 909:-0.156245 982:-0.0319295 1075:-0.298325 
-8.152877279820924 44:0.0300979 45:0.0688898 370:0.379028 454:-0.344824 487:-0.158608 491:0.0704928 499:-0.136985 602:0.178842 764:0.137519 792:-0.137855 813:-0.286949 909:0.0101269 982:0.134183 1075:0.00456313 
-6.899414010271169 44:0.115617 45:-0.309545 370:0.513367 454:-0.394541 487:0.298113 491:0.253638 499:0.0384357 602:0.0931422 764:0.0120481 792:-0.239557 813:-0.313532 909:-0.333252 982:0.0710804 1075:-0.597546 
-17.56975305480185 44:-0.282025 45:0.121404 370:-0.180259 454:0.0536342 487:0.364269 491:0.187848 499:-0.18463 602:0.263318 764:0.143584 792:-0.0659172 813:-0.340114 909:-0.284632 982:0.0859426 1075:-0.468635 
-19.88680820903095 44:-0.0793644 45:0.0655872 370:0.1902 454:-0.402387 487:-0.239623 491:-0.0104111 499:-0.268009 602:-0.30244 764:-0.314799 792:0.260852 813:-0.288994 909:0.0283595 982:-0.349672 1075:0.101508 
-12.57776689623169 44:0.151013 45:0.253363 370:0.225107 454:-0.513064 487:-0.00188673 491:-0.0930933 499:0.0232759 602:0.122038 764:-0.331881 792:0.0304817 813:-0.0149945 909:-0.276275 982:-0.382251 1075:0.119325 
-5.484000905306015 44:-0.206858 45:-0.648351 370:-0.153986 454:0.424662 487:-0.00365563 491:-0.311356 499:0.476987 602:0.442938 764:0.486817 792:-0.0868163 813:-0.276726 909:-0.201826 982:0.264459 1075:0.0889318 
-21.50947538291818 44:-0.166112 45:-0.0454408 370:-0.00460069 454:0.321923 487:0.407429 491:0.214075 499:0.188951 602:-0.104419 764:0.24513 792:-0.202697 813:-0.0231736 909:0.108886 982:0.159521 1075:-0.321383 
-5.406878195256435 44:0.255551 45:0.6251 370:0.292668 454:-0.20821 487:0.0104953 491:0.000257425 499:0.262584 602:-0.0660951 764:-0.3334 792:-0.0814322 813:0.0381696 909:0.549505 982:-0.0437167 1075:0.393916 
-11.31219477991575 44:-0.0805217 45:0.465698 370:0.0439431 454:0.221986 487:-0.104835 491:0.100276 499:0.14672 602:-0.398278 764:-0.0180679 792:0.0385782 813:0.299901 909:0.243351 982:-0.210446 1075:0.0145197 
-5.71914284373568 44:0.0590587 45:0.320994 370:0.233114 454:0.289545 487:0.180307 491:0.146063 499:0.0167788 602:0.358856 764:0.306712 792:-0.491338 813:-0.0845168 909:-0.183593 982:0.210932 1075:-0.186707 
-43.93523255419776 44:-0.336858 45:0.0642848 370:-0.274845 454:-0.0934693 487:-0.266863 491:-0.175775 499:-0.357885 602:0.0535122 764:0.183443 792:0.0616026 813:-0.327845 909:0.0238013 982:0.0193192 1075:0.222559 
-13.04545675772729 44:-0.17502 45:0.404858 370:0.280845 454:-0.323931 487:0.0536557 491:0.118057 499:-0.00920939 602:0.398706 764:0.296378 792:0.0616026 813:-0.019084 909:-0.736646 982:0.431871 1075:-0.223913 
-49.05648812123609 44:0.173272 45:-0.0663255 370:0.0789748 454:-0.32938 487:0.16934 491:-0.211782 499:0.0124475 602:0.120558 764:-0.100739 792:0.117452 813:-0.131547 909:-0.368957 982:-0.0510054 1075:0.020284 
-63.18310587508554 44:0.383592 45:0.180615 370:-0.397018 454:0.328227 487:-0.180896 491:0.170067 499:-0.0308662 602:0.108654 764:-0.221793 792:-0.121441 813:-0.0886064 909:-0.0825549 982:0.192284 1075:-0.117012 
-17.10567363970671 44:-0.137068 45:0.434673 370:0.0579558 454:-0.072221 487:0.0823114 491:0.0193722 499:0.00486757 602:-0.446097 764:0.259471 792:-0.0643822 813:-0.125412 909:-0.292988 982:-0.0601163 1075:-0.235442 
-19.31829624752748 44:-0.0103276 45:-0.194424 370:-0.0426806 454:0.128969 487:-0.257665 491:-0.015301 499:0.0416843 602:-0.240004 764:0.0439356 792:0.0446966 813:0.144498 909:0.219801 982:-0.143046 1075:-0.00382129 
-7.45541909531081 44:-0.222136 45:0.12652 370:-0.0681582 454:0.191476 487:-0.0369103 491:-0.0055213 499:-0.123991 602:0.0854912 764:0.15318 792:-0.276443 813:0.156767 909:0.203088 982:0.317985 1075:-0.0950023 
-0.1182738775755259 44:-0.155991 45:-0.07307 370:-0.145578 454:0.0232328 487:0.165094 491:0.282977 499:-0.0698486 602:-0.15719 764:0.123654 792:0.0494882 813:-0.0374871 909:-0.505701 982:-0.31226 1075:-0.583921 
-16.05869777783408 44:-0.13823 45:-0.018556 370:-0.345784 454:-0.0591451 487:0.0186322 491:-0.00952209 499:-0.0319491 602:0.572049 764:0.132512 792:-0.00463687 813:-0.0538452 909:-0.256523 982:0.245668 1075:-0.227058 
-79.31725548354598 44:0.0160387 45:0.204291 370:0.343113 454:-0.227824 487:0.131486 491:0.00914809 499:0.0600926 602:-0.114153 764:-0.120816 792:-0.0631543 813:-0.14995 909:-0.269438 982:0.0792802 1075:-0.121728 
-1.723677052037864 44:-0.210819 45:-0.284614 370:-0.264335 454:0.437738 487:0.414151 491:-0.450938 499:0.66865 602:0.229426 764:0.446072 792:-0.262369 813:-0.0702034 909:0.070902 982:-0.0642162 1075:0.290159 
-45.40029641807592 44:0.234925 45:0.291969 370:-0.0191138 454:-0.0744003 487:-0.150118 491:0.0518227 499:-0.237689 602:0.177941 764:-0.0771188 792:-0.122002 813:0.179259 909:-0.140291 982:-0.107948 1075:-0.119632 
-11.75686952219715 44:0.0143864 45:-0.134933 370:0.366234 454:-0.451421 487:0.458019 491:0.128726 499:0.148886 602:-0.305031 764:-0.0594034 792:-0.0119575 813:-0.266502 909:-0.374275 982:-0.260556 1075:-0.423044 
-38.84567217685103 44:-0.0947122 45:-0.207867 370:-0.022617 454:0.0624604 487:0.104953 491:0.278976 499:-0.0817598 602:-0.29993 764:-0.104873 792:-0.0155469 813:0.0974681 909:-0.353763 982:-0.0273171 1075:-0.183563 
-11.65371624242412 44:0.249661 45:0.68273 370:-0.0679392 454:0.141896 487:0.29033 491:0.304759 499:-0.190044 602:-0.0841168 764:0.0505789 792:0.100124 813:-0.622293 909:-0.256523 982:-0.0165549 1075:-0.325051 
-49.43575698840332 44:-0.118261 45:-0.0757212 370:-0.0191138 454:-0.246566 487:-0.23467 491:0.0300409 499:0.239844 602:-0.104988 764:0.0409831 792:0.16232 813:0.424632 909:0.00480918 982:0.160823 1075:0.235136 
-7.794445330890236 44:0.605133 45:0.516072 370:0.327699 454:0.0694342 487:0.146698 491:0.0642695 499:-0.216032 602:-0.13607 764:-0.0712136 792:0.133982 813:-0.397367 909:-0.0476093 982:0.0127708 1075:0.193738 
-19.63459832452983 44:0.217695 45:0.104612 370:0.0789748 454:-0.414373 487:-0.088915 491:-0.0624209 499:0.193282 602:-0.107379 764:-0.242461 792:0.0985598 813:0.555498 909:0.414281 982:-0.174002 1075:-0.00644147 
-1.189039382660329 44:-0.103605 45:0.301737 370:-0.109927 454:0.0359063 487:-0.0765329 491:0.262529 499:-0.185713 602:0.275664 764:0.299444 792:-0.0442552 813:-0.0518004 909:-0.11826 982:-0.0695776 1075:-0.262692 
-12.24947502919822 44:0.337057 45:0.614402 370:0.485342 454:-0.197531 487:0.0529482 491:0.191404 499:-0.134819 602:-0.124115 764:-0.260177 792:-0.052811 813:-0.0763377 909:0.00556883 982:0.148295 1075:-0.0824256 
-26.52548532115906 44:-0.0468928 45:0.0729829 370:0.138529 454:-0.168111 487:-0.045047 491:0.166955 499:-0.0936711 602:0.292707 764:0.0823188 792:0.22419 813:0.216065 909:-0.211702 982:-0.246889 1075:-0.200332 
